9996 16
the 0.020181587 0.020160984 0.02806224 0.0615346 -0.014007031 0.0214151 -0.003241171 -0.0040643797 -0.030533873 -0.015566188 -0.006957053 0.024851087 -0.03938075 -0.04640484 0.006663565 -0.005228417
and 0.063912615 0.066236705 -0.09981662 0.11319497 -0.012425273 -0.013656455 0.022159163 0.003939968 0.048269268 0.017552355 -0.03160678 -0.03258533 0.087648354 -0.0048222365 -0.043164704 0.020992901
a 0.056958675 0.13215305 -0.08498941 0.039660737 -0.011740453 -0.034727316 0.0057355994 0.062568285 0.08983091 -0.009291393 0.010782781 -0.06910192 0.07655728 0.018294744 -0.091289535 0.025620505
of 0.035890263 0.12595806 0.015799431 0.036271997 -0.042963576 -0.0033152322 0.029919947 -0.02168998 -0.013253509 -0.08959421 -0.040602766 0.032800183 0.010026938 -0.07214536 -0.051116936 0.0694466
to -0.05151955 0.12098765 0.05339649 0.0003126191 0.0334647 -0.039465863 0.0031175576 0.018335847 -0.014585738 -0.028496843 0.052015994 0.046193533 -0.03348841 0.008788994 0.06260088 0.02008349
is 0.035725195 0.073928624 -0.054426637 0.103192195 0.014563416 -0.019508772 0.026368544 0.00828145 0.01715394 -0.021966444 0.0068710977 -0.0015627805 0.045149494 0.026696334 0.005630438 0.054311007
br -0.09955065 0.12960944 0.024868159 -0.009830852 0.035708074 -0.071016744 -0.054658603 -0.024560362 -0.004924559 -0.042958405 0.063755706 0.016088983 -0.05320269 0.06608406 0.047982432 -0.09421798
in 0.038094617 0.109445125 -0.05772164 0.07099702 -0.011971723 0.023983005 0.022423998 0.09747169 0.101788774 -0.022566158 -0.039985165 -0.023353176 0.029962637 -0.08259528 -0.06898736 0.008693097
it 0.039640408 0.10988606 0.013173366 0.030950634 0.00630073 -0.02316728 0.018534757 -0.04852169 -0.046337333 -0.019916343 0.07025484 0.010757297 -0.044176187 -0.011409499 0.03177075 0.0011284347
i -0.084604576 0.013644395 0.08893059 -0.047465593 0.0261809 -0.069128215 -0.06532517 -0.05494038 -0.020179095 -0.06698726 0.0141696 0.034003068 -0.03945886 0.1254304 0.029529689 -0.12166512
this -0.055199903 0.13891265 0.077290036 -0.0824266 0.09002971 -0.12929675 -0.075600185 0.01352653 -0.046748746 -0.096215025 0.08221145 0.029624324 -0.08125904 -0.0009262446 0.038806953 -0.041586306
that -0.019049346 0.041783694 -0.04402427 -0.057672188 0.019186042 0.006303971 0.015895437 0.0032759248 -0.009549976 0.007684487 0.04658826 -0.0012764881 0.00067118776 0.04909653 0.04762612 -0.025174348
was -0.06393582 0.13258345 0.03219969 -0.062215798 0.026702162 -0.118307486 -0.034745693 -0.03720936 -0.037849676 -0.030211601 0.043383494 0.031003317 0.00019191361 0.023608696 0.089591324 -0.012048747
as 0.0126419095 0.15629353 0.006743394 0.005014748 0.024943985 -0.05403131 -0.03183878 -0.05750155 -0.016880548 -0.00058278866 0.025753187 0.040239822 -0.05536354 -0.06202023 0.05694335 0.011681153
for 0.000214183 0.04430222 -0.03476137 -0.025874306 -0.01744786 0.026285684 0.016612519 0.0025215829 0.047884837 -0.04359587 -0.020867575 0.051209792 -0.015749723 0.016915355 -0.04477755 0.028879184
with -0.027073573 0.010223925 -0.03147012 -0.026862007 -0.027116714 -0.04275607 -0.03941836 -0.04300797 -0.0014403305 -0.00025348438 0.05756331 -0.012065795 -0.023950277 0.023031201 -0.008404187 -0.011812917
movie -0.07011881 0.12838696 0.062341247 -0.08959919 0.12580778 -0.12986146 -0.06565433 -0.05877123 -0.14996009 -0.10229916 0.15477666 0.06320639 -0.073734276 0.03360881 0.12154162 -0.11759652
but 0.08100212 0.0380517 -0.023430698 0.06496206 -0.02214177 0.010129447 0.037682615 0.09697296 0.07916421 0.020880083 -0.044424985 -0.0682489 0.016168432 -0.05817046 -0.11070716 0.06857337
film 0.06170569 0.072945714 -0.072847456 -0.026713999 -0.05659139 -0.0446941 0.01082595 0.038858164 0.001670926 -0.024779407 0.011026494 0.014118184 0.005355016 -0.014297296 -0.016141625 -0.0025671446
on -0.046747763 -0.00361452 0.032565266 0.011217452 0.07577944 -0.036123388 0.004190461 -0.042479333 -0.052881718 -0.037811644 0.027280118 0.047040958 -0.032936506 -0.050779544 0.055624977 0.0025100515
not -0.045245618 0.10720419 0.07548385 -0.0607816 0.0642718 -0.09679605 -0.06590969 -0.052369505 -0.013377084 -0.019815693 0.069674924 0.09229722 -0.05246882 -0.003330259 0.07436989 0.004846621
you 0.007189319 0.013937206 -0.074619696 0.08250148 0.034594543 0.025951378 0.07128301 0.053254213 0.029264497 0.015678514 0.0067500505 -0.014152112 0.038434014 -0.0056548086 -0.043108247 0.024047764
are -0.08733991 0.06007257 0.0029884137 -0.017136527 0.067589864 -0.0043732044 0.0071700527 -0.0055115055 0.003272704 -0.093785755 0.06297635 0.05700156 0.027806107 0.07718679 0.02131733 -0.008746561
his 0.03896645 -0.021548111 -0.08134213 0.075013496 -0.07861305 0.02298887 0.067931 0.057203438 0.033995643 0.05883386 -0.07486933 -0.094591856 0.058754537 -0.07946151 -0.085347585 0.09682382
have -0.023495775 0.050911944 0.028454961 -0.082447946 0.021037405 -0.06442426 -0.0979302 -0.040372975 -0.01236359 -0.027949337 0.083575234 0.075837985 0.0030896459 0.017919743 0.012441903 -0.08652276
he -0.048280835 0.12086847 0.07354085 -0.031220982 0.044935614 -0.11043412 -0.06652977 -0.054455217 -0.021870876 -0.021364314 0.040204614 0.0056191077 -0.036472864 0.050471134 0.07556117 -0.028615244
be 0.0068876334 0.0046389345 0.008733876 0.02227067 -0.055819254 0.053653754 0.009163617 0.017324155 0.041870557 -0.02410286 0.012929394 -0.0045614936 -0.021388039 -0.08066282 0.014248233 0.022983221
one 0.0049720355 0.0731632 0.0129889995 0.05410473 -0.06269693 -0.010228163 -0.0145424 0.06180865 -0.0013563937 -0.02564347 0.023126144 -0.0038296157 -0.05084586 -0.058433767 -0.034043167 0.059840392
all 0.00071474846 0.16948892 -0.0021176185 0.02434728 -0.015783073 -0.019074868 0.0011914505 -0.047477864 0.019992305 -0.027112335 0.019560322 0.005966184 0.028891874 -0.011521469 0.06145631 -0.061711777
at -0.010210695 0.001518515 0.01956349 0.019354783 0.077204324 -0.07600508 -0.023967557 -0.0018946856 -0.08183507 -0.07686074 0.060982894 0.006138263 -0.053387783 -0.023419132 0.010876137 -0.044323944
by 0.04212147 -0.0076565854 8.742869e-05 0.012802166 0.038063448 0.003613469 0.05892107 0.0054431665 -0.0061002066 0.06388102 0.009929099 -0.002855435 -0.016104626 -0.033745244 -0.022963492 -0.03494099
an 0.062186323 0.08660025 -0.06253235 0.009310995 -0.04701198 0.014987157 0.03678716 0.029299866 -0.005130755 0.014007571 -0.032283563 -0.015062164 0.055695858 -0.057766255 0.025690954 0.017835261
they -0.04657854 0.08376607 0.12000005 -0.04301797 0.05630956 -0.11995793 -0.049922902 -0.030235691 -0.111024685 -0.051391922 0.08535651 0.028711012 -0.07571425 0.06774197 0.07783836 -0.06843923
who 0.011431186 0.03135926 -0.046422392 0.10319119 -0.011302187 -0.013695551 0.090370394 0.008715281 0.073760524 0.061351195 -0.0060372353 -0.06425484 0.04663273 -0.026995275 -0.008290563 0.074251436
so -0.09855223 0.13915506 0.078541175 -0.1279843 0.1400646 -0.14166047 -0.11232357 -0.05159441 -0.07528439 -0.115750656 0.12498095 0.08337537 -0.100250706 0.10507365 0.09478764 -0.1357206
from -0.12026365 0.018504532 0.025834084 -0.058660347 0.012681273 -0.042918473 -0.085925564 0.012607814 -0.04551552 -0.07050814 0.04428862 0.04050255 -0.08183893 -0.004122684 0.063803226 -0.09578337
like 0.04174601 0.032259822 0.077977374 0.008051613 0.026076004 0.034229442 0.011105008 -0.024811864 0.047768164 -0.04776798 0.03312911 0.056632854 -0.007989723 0.06388345 -0.02521836 0.029360803
her 0.043753225 -0.014990535 0.019125195 0.031604927 -0.03156496 0.031119695 0.025009077 0.027238326 0.057622794 0.02304103 0.0018958698 -0.0036091562 0.025872689 -0.033156507 -0.024077628 0.03045775
or -0.11607156 0.06878574 0.07165524 -0.06556814 0.14906181 -0.07150664 -0.054606006 -0.06225336 -0.08741912 -0.13094239 0.11146968 0.053126078 -0.09912942 0.09550026 0.062148225 -0.07238344
just -0.13164586 0.021542788 0.06990825 -0.15976107 0.13687357 -0.0814127 -0.109480225 -0.10122938 -0.087738946 -0.09988141 0.10575697 0.08688866 -0.0766598 0.0869945 0.11130189 -0.1490683
about -0.065961465 0.08140307 0.041895404 0.007882519 0.067236684 0.020332048 -0.07708892 -0.0016547989 -0.041730873 -0.009232846 -0.03204018 0.0038744283 -0.007515951 0.07231959 0.066932045 -0.027471444
it's -0.03629858 0.068358995 -0.021547176 -0.04966278 0.05149417 -0.07396697 -0.053387817 0.03484869 -0.012302401 -0.086338475 0.0916599 0.06369674 -0.08107023 0.022904035 0.018964227 -0.086346485
out -0.08292435 0.10086499 0.09528256 -0.05476225 0.039661597 -0.08175739 -0.1285449 -0.032179978 -0.11156911 -0.13980131 0.053306535 0.10961883 -0.09928939 -0.08905114 0.060139924 -0.016904308
has -0.09016827 0.022237845 0.07927877 -0.0018166286 0.030025875 -0.055115595 -0.017273908 -0.0518532 -0.054130454 -0.019218104 0.040192593 -0.002221295 -0.073689744 0.032326244 0.043620933 -0.09843978
if 0.080263175 -0.009882291 -0.09946532 0.06067962 -0.049102888 0.11539207 0.10003062 0.14196235 0.15086204 0.12563458 -0.087342255 -0.087510444 0.11158768 -0.07808683 -0.1307781 0.09015963
some -0.18590228 0.14201069 0.14640267 -0.14917769 0.1350925 -0.09809701 -0.15884738 -0.14347374 -0.174794 -0.17950636 0.107408546 0.1529183 -0.0817758 0.043284845 0.15853372 -0.086898
there -0.038184464 -0.03174861 0.0866599 -0.027270595 0.09625662 -0.09273324 -0.07471286 -0.05398452 -0.0125694955 -0.021546712 0.065473504 0.02742621 -0.02467954 -0.037632808 0.053909507 -0.060087588
what 0.06652661 0.04915748 -0.06951787 0.060937807 -0.10456084 0.07287819 0.106374905 0.100321524 0.03870441 0.05758849 -0.08282149 -0.04124811 0.10001991 -0.019863123 -0.080161996 0.045608703
good -0.04286859 0.083757885 -0.051627792 0.093684785 -0.06478454 -0.07055805 -0.026092699 0.094838224 -0.034394298 0.037049152 0.0301427 -0.06581478 -0.07569151 -0.08278244 -0.04251457 0.037409447
more -0.09228003 0.11971499 0.08386251 -0.0025442117 0.065747276 -0.04202016 -0.06176679 -0.0049391952 -0.060110893 -0.02973749 0.06402078 0.016414199 -0.069820575 0.04599465 0.022612896 -0.03905684
when -0.054200336 0.12439283 0.05290405 -0.015471382 0.06066257 -0.051921844 -0.0816646 -0.11519819 -0.05155539 -0.11191917 0.0504845 0.030781792 -0.040900704 0.12792163 0.10716959 -0.09948622
very -0.0076448363 0.085700914 0.0052370424 0.056890823 0.029232774 -0.005152713 -0.028331723 0.002673649 -0.02176041 0.0059743794 -0.022134447 -0.020776514 0.029353848 -0.05653289 -0.0034942478 0.01641392
up -0.051595435 0.06627619 0.059511594 0.020106494 0.054043442 -0.068309344 -0.048859492 -0.012428934 -0.022179997 -0.07202699 0.052493192 0.02622525 -0.040563643 0.09814298 0.07943519 0.0069415336
no -0.14697807 0.0482175 0.06556272 -0.1611487 0.14840697 -0.10773036 -0.07798751 -0.10831167 -0.09460596 -0.121772476 0.1581675 0.06974892 -0.12561513 0.0654974 0.14223431 -0.10924147
time -0.10123556 0.08832645 0.021804662 -0.0059521454 0.076284535 -0.06384554 -0.036618635 -0.02916619 -0.12645106 -0.07007328 0.12955111 0.03491469 -0.09208044 -0.0017679516 0.097503304 -0.115781516
she 0.117516175 -0.008304414 -0.043254014 0.11240434 -0.11148502 0.041139554 0.050418217 0.0359841 0.104428336 0.09690307 -0.10552238 -0.09314159 0.08173179 -0.05326189 -0.091744706 0.083252646
even -0.011040416 0.07654212 0.03202243 -0.08211437 0.0536215 -0.08081811 -0.09492292 -0.041933164 -0.059984047 -0.036922194 0.072678775 0.03804913 -0.049465984 0.058238942 0.035980817 -0.06272097
my 0.05472968 -0.007275586 -0.036222626 -0.030823981 -0.016425984 -0.0094978195 -0.025443053 0.009810658 -0.023455307 -0.028274318 0.03817224 -0.07855726 -0.0065632663 0.021207936 0.010190773 0.01628542
would 0.038258683 0.025356071 0.03253977 0.044031322 -0.0718825 0.0061904597 0.012842468 -0.0027541425 0.015273479 0.03106213 -0.022028731 -0.01720161 -0.0182744 0.007045982 -0.10273186 0.06463782
which 0.012290633 0.010259327 0.0050065923 0.04675364 0.0287792 0.008965502 0.028788807 -0.02882476 -0.033233464 -0.0059206067 -0.024635056 -0.042073254 0.042666804 -0.023616418 -0.001191075 -0.0200973
only -0.10432755 0.012216939 0.06781125 -0.08137077 0.112748414 -0.14204514 -0.07623955 -0.07432519 -0.07671199 -0.064291604 0.101569206 0.08198046 -0.034756046 0.094182365 0.02901434 -0.06687258
story 0.037722215 0.03286742 0.0051829247 0.040143438 0.04516362 -0.027413573 0.012904163 -0.0043871473 0.021148762 -0.057759196 0.017625837 0.07435552 -0.061781827 -0.029659148 0.03911942 -0.014058933
really -0.011478921 0.019254582 -0.0417876 -0.0042981612 -0.02402003 -0.09526986 0.020790916 0.057904765 -0.0012821881 0.008571963 0.020887058 -0.033402193 0.025961686 -0.045426678 0.03232129 -0.046073247
see -0.0063840966 0.041013245 -0.05214345 -0.004984327 -0.024871303 0.0375908 0.03397626 0.01875268 0.02982402 0.012199971 -0.009842731 -0.031282958 0.070399225 0.019440228 0.003894568 -0.0074655153
their 0.08469371 0.032364145 -0.02327746 -0.004632663 0.023423087 0.012752981 0.046735786 0.0785108 0.03408246 -0.010114803 0.0044432655 0.01771479 0.059206266 -0.01954838 -0.0036691953 -0.010152059
had 0.03708888 0.014520558 0.036709994 0.070609875 -0.015856357 -0.030270161 -0.059321675 0.03235089 -0.015481747 0.022198543 -0.017989708 -0.035738997 -0.045457974 -0.045742236 0.008733965 0.058157347
can -0.02557065 -0.021875827 0.034231756 -0.048868734 0.037987735 -0.059189465 -0.046419833 -0.1000191 -0.007066113 -0.02508079 0.06796466 0.01846094 0.03331063 0.049608037 0.04572724 -0.04581016
were -0.011435941 0.027763002 0.09617182 -0.011229451 0.030800613 -0.060675357 -0.04226851 -0.08659251 -0.07319798 -0.040445574 0.081087835 0.09412136 -0.05171212 0.08607228 0.065814614 -0.10796235
me 0.0107402 0.070471205 -0.0607257 -0.028285097 -0.029384816 -0.06678298 -0.020754531 0.03242109 0.0137111405 0.015779128 0.022481827 0.044832967 -0.0320694 -0.051982548 -0.014719682 0.014886685
well 0.11998369 0.022666518 -0.1215125 0.10476654 -0.16186105 0.13115989 0.12305358 0.11703651 0.15023339 0.118691236 -0.06959459 -0.13902885 0.14508086 0.023599107 -0.13233429 0.048879288
than -0.054911606 0.129997 0.038240086 0.026271826 0.05974007 -0.02013456 -0.05719289 -0.052880798 -0.0032979585 0.017181503 0.059822697 0.025850564 0.016399337 0.023862252 0.018626902 -0.067955576
we 0.063728824 -0.0033204942 -0.027942853 0.06849059 -0.042599946 0.023470912 0.038947925 0.07560116 0.061583433 -0.0047337404 -0.019293556 -0.047592875 0.043226182 -0.06171435 -0.08574865 0.096114956
much 0.011804607 -0.019898027 -0.0072410074 -0.00013129391 0.05392842 -0.045770958 -0.044625543 -0.008947194 -0.046287358 -0.035416637 0.047720224 0.011978273 0.018973364 0.058259655 0.015055844 -0.042180546
been 0.06430818 -0.036572456 0.01855665 0.04363655 0.016056063 0.024961367 0.06580264 0.032776546 0.022290252 -0.044971447 0.013187964 0.008925261 -0.0016591372 -0.012476749 -0.01273601 -0.028192667
bad -0.20017779 0.11207652 0.20353271 -0.20228694 0.2662356 -0.19953081 -0.15398921 -0.21276225 -0.19706708 -0.2244298 0.26316434 0.21918657 -0.1964611 0.039100613 0.22065473 -0.1997106
get -0.08457126 0.04768705 0.019832106 -0.08342221 0.01902745 -0.0064499914 -0.07759962 -0.11193448 -0.04090085 -0.0901917 0.023275245 0.065334894 -0.018616574 0.060732905 0.04883459 -0.11248826
will 0.046243537 0.032991454 -0.031611554 0.03286948 0.013063207 0.057645354 0.026713215 0.07604349 0.11050592 0.030019736 -0.07493421 -0.012734755 0.10775907 0.031175189 -0.0055268076 0.0647606
do 0.0021883168 0.09148122 -0.076832086 0.047487583 -0.015920935 0.03249802 0.039402757 -0.001721841 0.006444511 -0.004167637 -0.042820115 -0.033270743 0.054354716 -0.022406204 0.009810628 0.06213215
also 0.026925832 -0.008822618 -0.069804154 0.06908107 -0.07677304 0.021488633 0.038559873 0.0029070436 0.03257339 0.026241114 0.0219016 -0.085122555 0.04763734 -0.045215763 -0.050354578 0.059730586
into -0.057731494 0.0516781 -0.019665837 -0.023267424 0.031531207 -0.07249479 -0.002393805 -0.055248614 -0.041000642 -0.06463464 0.08784064 0.008313614 -0.07297928 0.027070427 0.06814617 -0.017689807
people 0.009034231 0.001608442 0.038856354 0.0165793 0.004133328 0.0029590891 -0.059146166 0.040296372 -0.043795522 -0.030476289 -0.041547406 0.043456204 -0.022915453 0.030400397 -0.026636906 -0.034638472
other 0.10333628 -0.05097026 -0.065512106 0.062250946 -0.06405499 0.059157033 0.061666023 0.07178953 0.096622616 0.08571425 -0.037314333 -0.098723985 0.121764615 0.00854782 -0.031089257 0.04884234
first 0.050692063 0.032991413 -0.05797228 0.054074287 -0.064638175 0.04467045 0.08315985 0.040015362 0.031085467 0.066211686 0.023202736 -0.06290752 0.05093068 0.03068795 -0.04147131 0.03453605
great 0.11311282 0.123433635 -0.08497728 0.10428161 -0.0528322 0.09602618 0.10038719 0.14456783 0.1023287 0.013038495 -0.044921637 -0.056169234 0.0058018714 -0.15912879 -0.06964821 0.05827968
because -0.042581346 0.07673284 0.11317654 -0.0535768 0.07843103 -0.1116014 -0.047546566 -0.061892506 -0.11434323 -0.07616085 0.13017787 0.08797436 0.050397724 0.09285185 0.077916525 -0.098381095
how -0.056442223 0.018889759 0.021395745 -0.062068958 0.054104537 -0.013104205 -0.10573546 -0.0825066 -0.08088543 -0.08975064 0.003906787 0.085235104 -0.09655145 0.03291978 0.11108582 -0.039586943
him 0.0832442 0.04302842 -0.081252754 0.11342538 -0.084078945 0.011541514 0.033282336 0.0722314 0.057669953 0.09139381 -0.041524637 -0.08651692 0.08647717 -0.022635322 -0.07287643 0.105860606
most 0.11778296 0.025011899 -0.03168958 0.052031435 -0.10641637 0.05876447 0.139039 0.05548972 0.06705558 0.08371639 -0.12207246 -0.060463298 0.07400222 -0.11163732 -0.06318492 0.11874328
don't -0.07287917 0.05525811 0.13644758 -0.13027947 0.15226391 -0.08784053 -0.12447794 -0.14588603 -0.13515231 -0.08300946 0.055647053 0.12830196 -0.012421442 0.15890108 0.07654588 -0.10391912
made -0.028320203 0.024325931 0.022096604 -0.056643587 0.044292256 -0.027236408 -0.015823938 -0.01031021 -0.08050098 0.0058389525 0.024689019 0.03442023 -0.073073275 0.07316211 0.047222625 -0.043729417
its 0.019598184 -0.07134675 0.0578721 0.001243198 -0.08212201 0.0669855 0.0707769 -0.0435999 0.040261693 -0.037750907 -0.017863853 -0.059677653 0.011929146 0.008862704 -0.05014075 0.004298425
then 0.06191254 -0.044872686 -0.07581444 0.00776312 -0.0057459953 -0.0015989902 0.03728216 0.024406468 0.019263009 0.0019633814 -0.05355155 -0.051476393 0.0019066511 -0.0327367 -0.014704453 -0.0065231593
way 0.021952942 0.06443888 -0.028575778 0.02017125 0.0318147 -0.06500623 0.0025244125 -0.058160197 -0.04734198 -0.021885594 -0.02140865 0.007756062 -0.035965104 -0.023924457 0.014418809 -0.06769558
make -0.056404587 0.058851242 0.062921606 -0.011738506 0.08457307 -0.114134826 -0.07092362 -0.103469476 -0.05282753 -0.054210845 0.03769488 0.007789774 -0.07947452 0.081937306 0.11258428 -0.03248108
them 0.03620176 0.016662361 -0.10514627 0.062499803 -0.053007748 0.006465208 0.02540361 0.05152599 0.03833558 0.0576104 -0.08565676 -0.087156974 0.0729802 0.018977346 -0.004426923 0.029300109
too 0.06008133 0.10099485 -0.10457169 0.059225038 -0.103521414 0.0034610357 0.07680828 0.037411127 0.069363564 0.0773861 -0.08778262 -0.04456843 0.024710974 -0.058836315 -0.08548533 0.04979534
could -0.02221999 0.05301879 0.03647126 -0.054203544 0.037982337 -0.072917506 -0.041100856 -0.039569832 -0.036675446 0.012097606 0.043799933 0.02154744 0.0034475387 0.06469225 0.01076666 -0.016871082
any -0.08273403 0.07555307 0.08619599 0.007889511 0.12552267 -0.07114954 -0.057267427 -0.05328315 -0.09062538 -0.10838478 0.11200996 0.12276445 -0.10185355 0.026677743 0.038560778 -0.078804605
movies -0.018438512 0.11874885 -0.020444494 0.009653581 -0.009623734 -0.06196273 -0.021801937 0.049281005 -0.054243047 -0.082501486 0.10252316 -0.0025012572 -0.058598682 -0.029237233 0.048428632 -0.07563531
after -0.018242994 -0.023627264 0.08624892 0.0023319381 0.004843631 0.039705817 -0.02757597 -0.07085968 0.005466385 -0.056183707 0.01750981 -0.03551692 -0.013952163 0.0102382535 -0.057389677 0.033345815
think 0.0385901 -0.049741525 0.017358981 0.03866578 0.01964103 0.06397002 -0.006450289 0.07116027 -0.005216387 0.020735614 -0.052139305 -0.054345366 0.019176511 0.0131814815 -0.045474667 -0.012405729
characters 0.056294974 0.022593753 -0.0030319795 -0.025403263 0.018723099 0.01858691 0.03468475 -0.043664698 0.064958334 -0.0036368722 -0.02913271 -0.028148184 0.048129853 -0.017889166 -0.032143414 0.016264563
watch -0.015906725 0.071685135 0.034727983 0.012577676 0.08396473 -0.060343064 -0.06735263 0.0044256994 -0.0029490872 -0.004198926 0.11510144 -0.015335316 -0.012693944 0.015601166 0.07921826 -0.07278751
two 0.0033806653 -0.029543046 -0.05186123 0.0028316989 -0.035032153 0.04154587 0.035051763 0.036585785 0.0038515632 0.0069494355 -0.037972722 -0.010850904 0.012828572 0.029991403 -0.044177286 0.005280871
films -0.011304191 0.02588241 0.030728687 0.044432122 0.018783987 0.044671625 -0.010066841 -0.06887356 0.036359455 0.0030846451 0.0412251 0.059075937 0.0046542394 0.018647179 -0.023054603 -0.04833612
character 0.0054110605 0.07630809 0.082563445 0.0049908636 -0.0092523815 -0.012767448 -0.044569593 -0.045777485 0.010567161 -0.08380904 0.028244492 -0.004685158 0.020462552 -0.009273794 0.033514656 -0.03529779
seen 0.022189684 0.11650009 0.015124624 0.055296645 0.005653659 -0.036635242 0.039451666 -0.012431586 -0.023442386 0.0016290791 -0.014675741 -0.050936136 -0.011298964 -0.042206768 0.040459864 -0.0056443983
many -0.032903217 0.07991664 0.04884945 -0.036596518 0.08035385 -0.05191408 -0.039618 -0.034763504 -0.03063032 -0.05527749 0.06634975 0.004187944 -0.09143791 0.06096015 0.05745709 -0.027351595
being -0.14691138 0.16452196 0.08483728 -0.10581859 0.10406612 -0.1323795 -0.16451855 -0.12089861 -0.1672023 -0.16979535 0.14583458 0.10815726 -0.17015368 -0.0032169009 0.17480981 -0.05829935
life 0.003538176 0.072990134 0.001093135 0.019636039 -0.06359577 0.05315889 0.0060793655 0.03622142 0.058641277 0.015023427 0.02507129 -0.06668199 0.057671595 -0.025364436 -0.053996675 0.05034394
plot -0.045039862 0.016310312 0.034585837 -0.03128587 0.052851897 -0.10759863 -0.01852707 -0.08752474 -0.011222701 -0.0369762 0.08505339 0.07603887 -0.0025893513 0.05730351 0.07676456 -0.023617543
never -0.0038194088 0.062673345 0.031327527 -0.04952084 0.038867716 -0.07837767 -0.08625996 -0.028791355 -0.08180055 -0.08697903 0.033140127 0.021401508 -0.033244856 -0.059337948 0.0098846555 -0.048274245
acting -0.00045859406 0.12471781 0.06765851 0.0071249357 0.035209958 0.0004920447 -0.008032476 -0.036500964 -0.058729317 -0.026956242 0.07917921 0.055393796 0.01689172 0.07523625 0.07881844 -0.09623265
little 0.08880062 0.029147655 -0.036515947 0.07080061 -0.12187216 0.028018558 0.0857145 0.061096087 0.072712384 0.025083348 -0.053296417 -0.113845654 0.055185307 0.007597368 -0.1169442 0.049471494
best 0.10295902 -0.09852969 -0.048551712 0.12463386 -0.054937582 0.07285519 0.071776584 0.094308265 0.10062371 0.083247095 -0.06774904 -0.06840542 0.020866206 -0.09410064 -0.10877942 0.06753041
love 0.026750837 0.02134895 -0.06506916 0.058290754 -0.05450145 0.012167531 0.043884106 0.08722039 0.058745164 0.013550159 -0.030312188 -0.10206771 0.06743506 -0.0696585 0.0022650291 0.07497225
over -0.063391574 0.13200875 0.08941565 -0.09858695 0.05646131 -0.046760045 -0.10325404 -0.07305236 -0.049590074 -0.118986964 0.10874501 0.11249938 -0.07782809 0.078516684 0.0712804 -0.05220473
where -0.08808164 0.04482688 0.094547115 -0.03883596 0.062953494 -0.12182304 -0.11585041 -0.0579828 -0.08708557 -0.09641104 0.033139188 0.021762775 -0.026945872 0.10146588 0.11407483 -0.038347784
did 0.032788087 0.068154916 -0.032291647 0.016994296 -0.033956423 0.03347653 -0.0036548844 -0.010947065 0.041839667 0.014855943 -0.015154306 -0.07234833 0.07578629 0.00982986 -0.08212827 -0.0058287177
show 0.029925829 0.073511206 0.012869267 0.030329252 -0.05772993 -0.052255925 -0.08183992 0.041900307 -0.042182226 0.05851994 0.065986134 -0.030620502 -0.09015322 -0.056686837 -0.014713576 0.0890983
know -0.021813499 0.030434351 0.03358369 -0.022153793 0.01847699 -0.022682441 -0.017222786 -0.045815095 -0.029438969 -0.007988728 -0.0059396364 0.049456548 0.025632927 0.091536485 0.037415985 -0.042070772
off -0.10386738 0.06618102 0.09119255 -0.05168239 0.07516 -0.058381546 -0.103215404 -0.04414006 -0.07576805 -0.10652185 0.08053049 0.12921989 -0.03882518 0.15078612 0.035702452 -0.15301439
ever -0.060963575 0.07581927 0.071371265 0.016566752 0.02733615 -0.053017586 -0.04200248 -0.03584892 -0.026365263 -0.09012024 0.049482904 0.07396437 0.018018914 -0.06713384 0.040072385 -0.0854699
does 0.045499377 -0.058855962 -0.028610447 0.10222889 -0.06278855 0.044266347 0.106601536 0.040030494 0.05191836 0.056564253 -0.06500535 -0.05317928 0.010749077 -0.12637994 -0.044857934 0.11023009
better 0.016305102 0.06686495 -0.06353883 0.07096111 -0.07496285 0.0740209 0.03713003 0.11921314 0.08925864 0.071753435 -0.013937279 -0.09908375 0.026313826 -0.10340845 -0.10341882 0.05375305
your -0.0702319 0.084987625 0.05890648 -0.021453433 0.054202653 -0.079599686 -0.01310296 -0.041884623 0.013813814 -0.04783982 0.060391124 0.047080237 -0.012399558 0.015938617 0.04314672 -0.044379417
end 0.038044382 0.066715375 -0.047841076 -0.017158937 0.023488833 -0.012450205 0.047242824 -0.028463464 -0.008134841 -0.0412847 0.033797313 0.02556309 0.012767264 0.07374874 -0.031886075 0.025096836
still 0.0757302 0.07443152 -0.057843868 0.10849054 -0.1170984 0.026617654 0.06757263 0.07970084 0.008443011 -0.0034595444 -0.059054296 -0.016642245 0.022402255 -0.117790595 -0.039327 0.11838096
man 0.093353726 -0.082643114 0.053463787 0.096002765 -0.01925617 0.107294686 0.12094343 -0.0133624505 0.070773594 0.039544836 -0.02345987 -0.019810142 0.02266634 -0.04643372 -0.043737467 0.077526286
here -0.13754597 0.11390731 0.104201294 -0.03128055 0.14396246 -0.042098373 -0.10739284 -0.06858717 -0.13048552 -0.076178625 0.08343329 0.086250365 -0.1548122 0.0119190505 0.117880695 -0.063361384
these 0.022448305 0.06483384 0.010279401 0.078453645 0.029393842 -0.030441277 -0.03080316 -0.034121014 0.055101763 -0.020311741 -0.052838184 -0.013589584 0.0001886026 -0.001393888 -0.028024714 0.03782844
say -0.09975643 0.029860904 0.022729162 -0.08514631 0.0680025 -0.014908597 -0.07625105 -0.06279464 -0.082325935 -0.0858904 0.10129665 0.014279189 0.02784949 -0.026651476 0.09436066 -0.017399115
scene -0.0008792679 0.03819744 0.0418836 -0.018720243 -0.022051217 -0.047493417 -0.08048412 -0.045880854 -0.043358427 -0.01295517 -0.0014449476 0.037727933 -0.0330562 0.032458626 -0.0026059677 -0.03421605
while -0.021090206 -0.020381905 -0.019813128 0.012771008 0.0037842216 -0.016137756 -0.012333038 0.02232284 0.025219033 0.040129807 0.03259305 -0.05387625 -0.013859647 -0.0065960186 -0.040464528 0.018987847
why -0.08188754 -0.02844696 0.07087295 -0.05160907 0.021885606 -0.06006326 -0.055749364 -0.006195007 -0.086757325 -0.012057251 0.05712691 0.031309444 -0.06638101 0.096299134 0.100093454 -0.113650486
scenes 0.0073159663 0.0007930226 0.017470049 -0.021154625 0.003406548 0.061590835 0.018330118 -0.015424018 -0.0057097953 0.05799248 0.021150062 0.035830125 0.051209725 0.022792174 0.028927036 -0.00011853769
go -0.10602512 0.13665378 0.114634916 -0.021985302 0.11210875 -0.09590727 -0.070830494 -0.07216292 -0.13091536 -0.07112208 0.10373778 0.0646124 -0.12511636 -0.009003919 0.110019974 -0.04502695
such 0.058012836 -0.010821404 -0.0060067526 0.016844796 -0.041245557 0.08134845 0.06540702 0.007891065 0.06831355 0.06132489 -0.12065956 -0.07167398 0.06800316 0.014097445 -0.047690473 0.04708426
something -0.11131 0.08452339 0.04665879 -0.0917831 0.066518374 -0.09776791 -0.12569958 -0.02910657 -0.12897334 -0.06074063 0.11251786 0.09532105 -0.12699863 -0.048383597 0.12068367 -0.11921803
through 0.07237721 0.008472272 -0.11806424 0.07470467 -0.047563706 0.08855707 0.055040594 0.11167425 0.13545595 0.13219035 -0.095930375 -0.08078663 0.14350252 -0.051282562 -0.107555285 0.10860773
should -0.049577907 0.052283645 0.09910657 -0.03420916 0.1216048 -0.122297324 -0.08810775 -0.09363188 -0.08300172 -0.06275679 0.11673138 0.012741863 -0.023157082 0.08417317 0.12625998 -0.07848992
back -0.03207415 -0.013588228 -0.0427777 0.021919865 0.035068244 -0.0048602964 -0.03835066 0.037053507 0.010049694 0.043017566 -0.015189522 0.049772102 -0.020101277 -0.020652538 -0.027496887 0.021851074
i'm -0.0910952 0.03281293 0.048155602 -0.048263896 0.075208426 -0.046373036 -0.03283487 -0.051960476 -0.111927465 -0.07059478 0.052108753 0.05606284 -0.06960565 0.016128877 0.06914722 -0.029474227
real 0.09649409 -0.0077776904 -0.10282091 0.08210942 -0.027612759 0.06381882 0.056060087 0.107894555 0.10728528 0.047741845 -0.040715035 -0.06243108 0.05653399 -0.011726847 -0.08464927 0.024528319
those -0.025711961 0.08124502 0.030897778 -0.037631348 -0.013518941 0.014000709 0.035918124 -0.010841983 0.028708443 -0.054866116 0.0017024857 0.028138995 -0.014933394 0.047657967 -0.043866254 0.016703852
watching 0.01363131 0.15243171 -0.09362905 0.10208953 -0.03589287 0.0006969578 -0.034185696 0.023342162 -0.052470673 -0.037121855 -0.0074599413 -0.020167517 -0.08843226 -0.104186535 0.007838806 -0.0025608095
now 0.063075244 -0.0011541087 -0.08458669 0.081066445 -0.053940568 0.0805594 0.05153148 0.06132535 0.08527394 0.05088717 -0.034510568 -0.043075792 0.100384176 -0.0083600655 -0.060535397 0.020071821
though 0.022735087 0.038154244 -0.058067024 0.046525188 -0.016691148 -0.013156123 0.05225697 0.062014498 0.10653105 0.049796585 -0.09377899 -0.085117206 0.009358823 -0.019140143 -0.010553797 0.081433125
doesn't -0.018341053 0.031320814 -0.036417123 -0.017668232 0.036334254 0.024475366 -0.050708212 0.014455007 -0.04588175 0.016549172 0.032143675 0.05034169 -0.055936445 0.016574537 0.05032413 0.036498964
years 0.09113019 -0.0019804686 0.0075330883 0.03830185 -0.090278685 0.0452314 0.041274343 0.023327254 0.05394194 0.035808224 -0.07461107 -0.0063568554 0.015459593 0.025877682 -0.019138122 0.02205688
old -0.0945277 0.12981054 0.04772184 -0.0348213 0.033198196 -0.02007855 -0.01681769 0.00083370093 -0.044707026 -0.06530032 0.07998844 0.0028028926 -0.074141376 0.0042019035 0.054515447 -0.047949575
thing -0.111703746 0.15025097 0.12832557 -0.14041565 0.11273329 -0.11135568 -0.17650415 -0.07092764 -0.1694042 -0.18378583 0.114625975 0.16502587 -0.114844896 0.05876553 0.1757099 -0.15878607
actors -0.050066624 0.1273562 0.05132715 -0.03579448 0.06136157 -0.08277869 0.011939493 -0.05317637 -0.011846321 0.0057834876 0.00054496934 -0.0010191104 -0.07940722 0.002133876 -0.010600692 -0.07403587
work 0.01908607 -0.0352201 -0.07762947 0.023538861 -0.09115547 0.10315504 0.04540675 0.04439534 0.09875786 0.023917224 -0.09441735 -0.050656363 0.02055636 -0.106474265 -0.06254417 0.06077106
10 0.177727 0.08301577 -0.104054734 0.19710656 -0.24828635 0.18855283 0.15723146 0.08539844 0.11252026 0.15493158 -0.07879935 -0.039815944 0.1655755 -0.044651955 -0.21661194 0.01968642
before 0.044397987 0.014348579 -0.051355503 0.05125187 -0.016729468 0.05008051 0.03747479 -0.010354606 0.09532785 -0.029601697 -0.05998948 -0.01600836 0.08357895 -0.016901234 -0.028353121 0.0017755389
another -0.009747699 0.059889577 -0.00022637093 0.036952153 0.04412327 -0.07309623 -0.06462044 -0.0052726665 0.02636618 0.037233565 0.012197035 -0.03215943 -0.022867573 0.0012566826 0.011946323 -0.042841434
didn't -0.18554024 0.024521288 0.11454115 -0.104873225 0.12749389 -0.08034753 -0.12554057 -0.06751423 -0.10812868 -0.10554739 0.16858758 0.15453632 -0.04934872 0.058959287 0.16146821 -0.14680351
new 0.059025396 0.07878693 -0.11934491 0.13494955 -0.073556386 -0.00017307841 0.08566886 0.057610266 0.016174365 0.073676355 -0.018663181 -0.025719052 0.035273615 -0.09243742 -0.05280614 0.121190615
funny -0.056221694 0.101758905 0.050147224 -0.0809673 0.090090305 -0.061683554 -0.09144541 -0.05019664 -0.048674896 -0.082550436 0.07771643 0.042393208 -0.074039504 0.08944401 0.1043066 -0.09278406
nothing -0.041004516 0.016146794 0.095068604 -0.037550442 0.059959155 -0.06458262 -0.057858694 -0.019470103 -0.0035105704 -0.07199829 0.0572985 0.0783674 -0.021115668 0.028978469 0.064684786 -0.0066359965
actually -0.118693314 0.09564265 0.085855424 -0.06720662 0.13417083 -0.05307685 -0.10453157 -0.06966177 -0.060733657 -0.02290366 0.103055485 0.036179665 -0.03358297 0.0974532 0.097207144 -0.08234718
makes 0.08885399 -0.02866255 -0.105755135 0.06484189 -0.07001122 0.03376354 0.09536162 0.08484589 0.064418845 0.048843924 -0.013390256 -0.07442442 0.11062217 -0.017819485 -0.08238512 0.05356827
director 0.05213348 -0.0027406062 -0.0069883927 0.05001354 0.017689528 0.0538981 0.0635959 0.053686693 0.027006406 -0.015127579 -0.01657516 0.005601969 0.06832189 0.046250034 -0.022957642 0.03613337
look 0.021228207 0.11289466 -0.0033423365 -0.003812768 0.024827462 -0.06761393 -0.013822626 -0.033239476 -0.04737695 -0.046478458 0.052461457 -0.013345324 -0.0013747988 0.0007588914 -0.002167892 0.019730527
find -0.007135731 0.07226557 -0.03880807 -0.014617317 0.032280456 0.0322194 -0.055773456 0.03798371 -0.050341245 -0.033125214 0.068024255 0.006242015 0.00794978 -0.010962293 0.04126665 -0.02214992
going 0.037690204 -0.07264894 0.04743654 -0.0063457717 0.015944436 0.03446101 0.012911618 -0.009084956 -0.025630478 -0.0065492704 0.0390083 -0.060102824 -0.031038668 -0.016625222 -0.037565235 0.040095624
few -0.016606448 0.053984143 0.11646828 -0.07145653 0.122858405 -0.09074822 -0.02423388 -0.09665303 -0.061081283 -0.091074795 0.11136464 0.090681665 -0.11475837 0.08482149 0.044543263 -0.120209366
same -0.1353777 0.10362824 0.07637677 -0.06867348 0.13059624 -0.08497675 -0.13469142 -0.09853633 -0.07079897 -0.1130112 0.110006705 0.1195008 -0.11703347 0.05399494 0.11677184 -0.094998226
part -0.14515604 0.028557485 0.12069192 -0.14477591 0.19864355 -0.10704352 -0.1863152 -0.15621175 -0.10133187 -0.10750452 0.115860716 0.16181877 -0.08324315 0.15491188 0.110690705 -0.17551081
again 0.02128787 0.06372788 -0.024857994 0.021697816 -0.019240936 0.025256721 -0.024249192 0.023350516 0.0391865 -0.048480935 0.056267332 0.00796341 0.047201816 -0.041863285 -0.025368283 -0.0023395664
every -0.019687941 0.042933553 -0.028328132 -0.03093162 -0.055871774 0.029563272 0.04379057 -0.02161312 0.08253284 0.06972926 -0.039169554 -0.04560294 0.006953985 0.011969943 -0.00846709 0.006201356
lot 0.021974353 0.072167374 -0.057856005 0.0012546441 0.05683685 0.002327911 0.018050004 0.004668609 -0.024732672 0.012976671 0.049382206 0.03456649 -0.037754457 0.015322964 -0.02372034 -0.018160682
cast -0.032835517 0.010367123 0.0025100568 0.0030471045 0.012746975 0.043455277 0.016626084 0.0045672683 0.05348347 -0.022586979 -0.043522947 -0.04787703 0.03917237 0.04224531 -0.021760345 0.012553582
us 0.054805607 0.03796752 -0.06531028 0.06840275 -0.06715414 0.041836396 -0.014569279 0.10159131 0.04616334 0.049365733 0.009840073 0.02854601 -0.016102308 -0.14129291 -0.0026716846 -0.004694934
quite -0.0075331996 0.016026944 -0.016678618 0.017365884 0.040429946 -0.023913765 -0.03917861 -0.030223861 -0.058657322 -0.042189304 0.04456499 0.02516883 -0.021246929 0.035798404 0.052713122 -0.046281196
down -0.02294369 0.15522508 -0.0003646276 -0.023914313 0.06839253 -0.026086567 -0.06790851 -0.085069604 -0.02152197 -0.0524543 0.100260116 0.03444804 -0.033708334 0.050672755 0.05454599 -0.08044158
want 0.008778689 0.011240003 -0.026584549 -0.06899437 0.060730595 -0.0035071974 -0.0068581197 -0.024259092 0.013722282 0.028545484 -0.02221637 -0.04382681 0.012092621 0.10475526 0.016711932 -0.057634786
world -0.05377826 0.12801042 0.016371224 -0.027823891 0.03150699 -0.010612224 -0.07497453 -0.016881153 -0.056862865 -0.054678146 0.050021105 0.051134415 -0.029734166 -0.041512158 0.034693524 -0.058244403
things 0.008622327 0.006262812 0.004856251 -0.013070122 0.042941313 -0.009995425 0.0069724005 0.012783621 -0.06284735 0.03497235 0.053639367 0.049565952 -0.018020984 0.0357584 0.038014177 -0.02270538
pretty 0.0008239577 -0.044784594 0.021622434 0.039934047 -0.0061019557 0.018266551 0.057777807 0.04068834 0.0746336 0.016061185 -0.028355572 -0.041696917 -0.0076062195 -0.02289284 0.020148681 0.017738191
young 0.07613392 0.009148563 -0.078696415 0.07901114 -0.07056055 0.08069683 0.091585115 0.057336375 0.023471307 0.058680315 -0.010952583 -0.044329144 0.042686105 0.011761983 -0.09395644 0.0074980436
seems -0.0010601945 -0.002277412 0.004157235 -0.015436721 0.05757296 0.009995034 -0.037816726 0.014019342 0.024903761 -0.06295511 -0.020144185 0.048373632 -0.017107254 -0.03511546 0.04537747 -0.023723405
around 0.04955801 0.03038693 -0.017571796 0.0477272 -0.09493775 0.00069379417 0.035290875 -0.022639213 0.078770086 0.074534066 -0.057492707 -0.057810225 0.098838285 0.06168865 -0.030904794 0.00798461
got -0.033198807 0.120567426 0.091543116 -0.079305716 0.083752096 -0.117182 -0.059744995 -0.054179624 -0.10744922 -0.115697995 0.095985524 0.039716862 -0.002636455 0.06543315 0.08915859 -0.015608191
horror 0.031479802 -0.008368251 0.016117223 0.003946673 0.008508223 0.051223498 -0.042921502 0.05950832 -0.013945595 -0.0020206582 -0.024759702 -0.008446993 -0.003123384 -0.04210088 0.024380216 0.070224345
however -0.037281524 0.040973745 0.010238958 -0.07145541 0.03161396 -0.09522839 -0.015409136 -0.052526724 -0.08989758 -0.0047340267 0.096187465 0.092510775 -0.07476143 -0.028650686 0.09444252 -0.016420636
can't 0.030553557 0.06258675 -0.071882725 0.03090877 0.004476763 -0.01328995 0.018117057 0.013248702 -0.050212026 -0.024862127 -0.018778613 -0.032621548 -0.045789134 -0.06711619 0.013216965 0.046562202
fact 0.0011395068 0.08186293 0.036664233 -0.008244624 0.032264292 -0.03312682 -0.045214877 0.03298167 0.013692713 -0.000647287 0.0065496936 0.01694736 -0.041300498 0.0027852596 0.018864697 -0.03213604
take 0.003499189 0.049632877 0.036995113 -0.019047882 0.0014773688 -0.026462376 -0.05879208 -0.020570429 -0.060522534 -0.043208946 0.03659422 0.07921495 -0.01600281 0.06255683 0.007090371 -0.010766411
big -0.007127631 0.062056415 -0.056420933 0.09055901 -0.04871864 -0.017110672 0.02601566 0.080698155 0.0026235054 0.07174652 -0.06277508 -0.07796602 0.018051162 -0.066889614 -0.07236016 0.0310346
enough -0.11627169 -0.016014867 0.095329344 -0.11996693 0.055619612 -0.07068125 -0.06524415 -0.09809495 -0.08502261 -0.09485006 0.051198103 0.10250733 -0.03549495 0.09924526 0.09373917 -0.10829484
long -0.014925209 0.06755214 0.018247923 -0.053079553 0.078800164 0.0058087152 -0.035396434 -0.023746166 0.018389702 -0.015869522 0.045527194 -0.01764958 -0.015785368 0.05591237 0.07701519 0.010446973
thought -0.06487173 0.089133985 0.024225885 -0.10562484 0.091013774 -0.062156018 -0.08160719 -0.097198546 -0.087595865 -0.10300687 0.084193654 0.11176205 -0.07919929 0.0323065 0.099354215 -0.1082435
that's 0.094503276 -0.022625955 -0.08852407 0.02799224 -0.052624803 0.05496706 0.023713721 0.10976344 0.021030031 0.08571895 -0.001649415 0.0037612992 0.062423322 -0.030598605 -0.12340847 0.03903148
both 0.114145145 0.014238642 -0.17817235 0.10112542 -0.11503173 0.15554556 0.15300038 0.111229956 0.11037076 0.0953378 -0.09371415 -0.070472516 0.06962169 -0.18681681 -0.108091734 0.10842117
between 0.060057603 0.0057686483 -0.03891513 0.06976579 -0.0052784206 0.0611506 0.021959685 0.045528114 0.024356322 0.048272524 -0.027833045 0.011611654 -0.0030409591 -0.057314638 -0.0061005093 0.07228105
series 0.0065672626 0.012449037 -0.029796924 0.03213163 -0.05601019 0.06338819 0.11930598 0.10925095 0.06429697 0.10269101 -0.057336826 -0.082546055 0.13057663 -0.1037753 -0.09721634 0.054205507
give 0.04028431 0.06680382 -0.033201594 0.04638505 -0.053734362 0.0022568246 0.01320946 0.020279255 0.1118656 0.032170996 -0.01293328 -0.07721415 0.01662562 0.0018543742 -0.054337997 0.060216777
may 0.06465778 -0.013368998 -0.05509237 -0.0010547645 0.012986057 0.056299362 0.040046535 0.06357672 0.06422367 -0.00620913 -0.053580962 -0.038166013 -0.025613248 -0.090244055 -0.021978538 0.04234232
original -0.058120858 0.07917539 0.037791558 -0.0043291594 0.08246296 -0.09324929 -0.09166441 0.02780206 -0.041122768 -0.033141933 0.09395995 0.072855815 -0.07447129 0.010385917 0.01939664 -0.07497951
own -0.027642693 -0.02124529 -0.022172282 -0.011499464 -0.0064912415 -0.0072219013 -0.024891067 0.050491847 0.026894422 -0.00452172 6.485032e-06 0.012964821 0.017498633 -0.009584409 -0.05329395 0.03596786
action 0.015927313 -0.026384715 0.004682184 0.0037126108 -0.037995864 0.05418183 0.009374174 -0.040040877 0.044989113 0.021287205 -0.007843398 -0.05709095 0.0019974224 -0.02150613 0.010754527 -0.027440516
i've 0.009847958 0.030900873 -0.0039438624 -0.06780969 0.06624108 -0.045669876 0.018080924 -0.025002692 -0.07167414 -0.036218803 -0.0054707592 0.055023864 -0.061786797 -0.01678629 -0.00040547582 -0.047389902
right 0.0036600824 0.18474603 -0.023249831 0.08070946 0.0058235205 -0.060017634 -0.02632137 0.0035249246 0.03978287 -0.024390148 0.0058251764 -0.044360727 -0.05011856 0.010508184 -0.0013233175 0.002766301
without 0.012020287 0.028246786 -0.02057954 0.0417778 -0.08444913 -0.015974354 -0.004125049 0.033351697 0.034080938 0.07449601 0.017370224 -0.038222276 0.016214132 -0.07996623 -0.06375403 0.03122399
always 0.06345755 -0.020220883 -0.084537685 0.12160917 -0.11377509 0.039423473 0.062359963 0.037217487 0.07572456 0.027927427 -0.109558046 -0.039761003 0.08823836 -0.081486054 -0.040680613 0.12523589
times 0.032377705 -0.064529836 -0.1105201 0.03466863 -0.055898204 0.08800664 0.08370679 0.05834094 0.108060464 0.086630926 -0.033290457 -0.080364324 0.117201634 -0.028034128 -0.060250334 0.0816799
comedy -0.08347429 0.15227266 0.074420504 -0.051337108 0.112772346 -0.10513069 -0.12519015 -0.023636531 -0.13112819 -0.097438894 0.16793394 0.05350273 -0.15810008 -0.09520597 0.06690577 -0.044471286
point -0.068444744 0.07482694 0.12963375 -0.07643836 0.14330025 -0.08112027 -0.10179232 -0.095949024 -0.07269009 -0.14805421 0.113674074 0.08210491 -0.033543076 0.08584436 0.14690948 -0.09318396
gets 0.048270207 -0.073664576 -0.008330334 0.007730389 0.019647636 0.018632995 0.028749643 -6.60448e-05 0.03159058 0.032868776 0.03179719 0.029657174 -0.006498353 -0.007150419 -0.0632144 0.04715864
must 0.123459876 0.021092461 -0.1255468 0.07918297 -0.12831578 0.10048241 0.10393314 0.12774175 0.13619572 0.06282331 -0.11173489 -0.041085966 0.041967202 -0.027388416 -0.09510979 0.1151101
come -0.07241068 0.07223316 -0.025161862 -0.001082765 0.010579204 0.0019339692 -0.04424226 -0.05088359 -0.04145464 0.012799453 0.0019194504 0.050879955 -0.07941076 -0.013232436 0.0047386335 0.026764961
role -0.07899679 -0.037605055 0.09008159 -0.08794543 0.09072004 -0.061585885 -0.04479291 -0.09845926 -0.089220144 -0.039725386 0.08027903 0.061572097 0.011918459 0.04807505 0.10002493 -0.032779068
isn't -0.0040449104 -0.027700538 -0.053535722 0.05456077 0.018099144 0.01882272 0.004424232 0.05904037 -0.0026563164 -0.02471277 -0.022593522 0.035360012 -0.011847922 -0.031229163 0.03269453 -0.02069564
saw 0.08691234 -0.016528567 -0.13308729 0.03787 -0.100222856 0.059748646 0.042859875 0.08163116 0.06981352 0.04027925 -0.05569067 -0.05390515 0.07754055 -0.069959685 -0.04464309 0.07444764
almost 0.054776326 0.014719441 -0.102378845 0.008800025 -0.0065963943 -0.004821926 0.06228395 0.06553738 0.07214638 0.062247004 -0.006313617 -0.07175323 -0.022377327 -0.032493826 -0.069307834 0.061009623
interesting -0.0036792243 0.052740887 -0.002971905 0.033677924 -0.02556989 -0.005346451 0.014115791 0.063790366 0.042500947 -0.016885519 -0.03996027 -0.05733109 -0.02735908 -0.10252604 -0.04282652 0.017764304
least -0.022417193 0.0099878395 0.020362016 0.008467089 0.050457355 -0.0009811317 0.0013442077 -0.0123385815 -0.03486581 -0.0044888984 0.023966795 -0.057930887 -0.00648817 -0.05175446 0.052466102 0.010014495
family 0.030106606 -0.019347211 -0.08354827 0.07756981 -0.063569695 0.038675103 0.037547648 0.07353637 -0.0026544277 0.08321763 -0.032740872 0.016196825 0.017723754 -0.07362973 -0.031479303 0.08762666
done -0.02033774 0.13839635 -0.0043318234 0.0034680555 0.055980343 -0.03036802 -0.052998357 0.05698258 -0.026581397 -0.02820237 0.05912962 -0.002572985 0.039699964 -0.03325755 0.057857703 -0.02278826
there's -0.09457337 0.028045725 0.043597087 -0.13022734 0.10177691 -0.07506318 -0.04074039 -0.070234016 -0.08359689 -0.035710484 0.066947736 0.10478632 -0.07899814 0.08961848 0.102211714 -0.06395439
whole 0.06677089 0.06266768 -0.043810982 0.07592565 -0.066147804 0.06360992 0.09290296 0.113579065 0.07063823 0.09357107 -0.12701541 -0.11591634 0.031308457 -0.025184544 -0.10871548 0.13456641
bit 0.03168443 -0.004150187 -0.025544398 0.055526048 -0.014662929 0.021823954 0.03269686 0.07415524 -0.026656624 0.0006292316 0.027804337 -0.021842094 0.02384803 -0.06680781 0.01037615 -0.0016362024
music 0.04025394 0.05583209 -0.039064996 0.08709884 -0.04169534 0.02570443 0.07415605 0.050163325 0.06799179 0.020331008 -0.09809839 -0.035340447 0.06842104 -0.008650091 -0.022705922 0.05119798
script 0.059591625 0.07493033 0.00065489695 0.002162301 0.028649397 -0.019192915 0.025082042 0.023304574 0.030687543 -0.029211532 0.0025585932 0.057897545 -0.0011507527 0.023888262 0.05290269 -0.006721222
far -0.046389617 0.09363237 0.0038359622 -0.07343311 0.06932664 -0.05145746 -0.016760258 0.036209848 -0.010280664 0.01266053 0.047948554 0.03492992 0.015537557 0.018664205 -0.017961703 -0.045709483
making 0.029101256 0.041502103 -0.08102644 0.077428505 -0.05235366 0.03482035 0.048906527 0.021588024 0.024782978 0.06676904 -0.019766746 -0.027113495 0.054432884 -0.011898232 0.0045309016 0.053264935
guy -0.053216957 -0.034729715 0.06969662 -0.03363136 0.045846466 -0.05943819 0.012176183 -0.10060987 0.0021847594 -0.015076598 0.003554124 -0.022837324 0.0044257096 0.1537284 0.033508655 -0.06575378
anything -0.08630246 0.04098527 0.11911461 -0.08552933 0.06384188 -0.12768784 -0.117336184 -0.041942723 -0.11401041 -0.10698774 0.10552094 0.052881308 -0.10424646 -0.025277548 0.06503354 -0.07156339
minutes -0.09412169 0.096055664 0.13815445 -0.09555017 0.07170956 -0.10009118 -0.12161011 -0.07992017 -0.13822359 -0.09502115 0.14926885 0.09865533 -0.068577155 0.038656667 0.13926992 -0.113094345
feel -0.04604532 0.016485468 -0.014109856 -0.03268328 0.05383914 -0.037891995 -0.08827511 -0.019386834 -0.050221935 -0.06940913 0.07078541 0.07676598 -0.07286028 -0.018875584 0.0074146874 0.003059521
last -0.013115541 0.030685535 0.06802411 -0.08466951 0.021127002 -0.030106122 -0.009016017 -0.03709414 -0.024095777 -0.0847058 0.05356344 0.11555983 -0.08050809 0.08128959 -0.0011821486 -0.08149537
since 0.11122112 -0.06548214 -0.11093168 0.03812446 -0.10865292 0.018780103 0.07743808 0.010611848 0.013410589 0.013495807 -0.026005477 -0.05455242 0.0048180884 -0.010001764 -0.012087252 0.0858869
might 0.001607527 0.027192075 -0.014576315 0.01525451 -0.048369613 -0.04020313 -0.0019527728 -0.0135684945 0.003755876 -0.02298569 0.045103457 0.033362735 -0.061542 0.014332 0.03471554 0.04271207
performance 0.062294044 -0.037502673 -0.010346958 0.0019083628 0.0068222024 -0.0021450878 0.064586334 0.06381612 -0.009562756 -0.0075274846 -0.029620172 -0.062424034 0.07121645 -0.014712195 -0.033685684 -0.0041003847
he's -0.057542354 0.0062070824 0.052761227 0.021296147 0.066099465 -0.052232876 -0.0125764 0.011188294 0.015724646 -0.007542258 0.021581788 0.03636919 0.02571013 -0.005561713 0.060192857 0.014935983
2 -0.11310737 0.07388667 0.11974014 -0.10054583 0.079520784 -0.08248292 -0.07305118 -0.08589748 -0.10174189 -0.09961428 0.1405788 0.02906478 -0.11510799 -0.050009817 0.044483148 -0.05620293
probably -0.119849354 0.07334736 0.102262616 -0.042002488 0.09999554 -0.1180819 -0.048014417 -0.051127944 -0.047761973 -0.08296163 0.028026273 0.060692362 -0.031499933 0.06484326 0.07678007 -0.11907169
kind -0.031644423 0.014592561 0.08918308 -0.06147589 0.06158639 -0.05042862 -0.030338569 -0.040152576 -0.10131747 -0.087545335 0.11157409 0.007725727 -0.011884764 0.06541842 0.059206128 -0.0331227
am 0.024674615 -0.07989529 -0.015945485 0.045023054 -0.022299739 0.082225285 0.072026715 0.042786106 0.034500923 0.09716473 -0.09173809 -0.02945931 0.0017764815 -0.027986879 -0.08345117 0.05485397
away -0.021523448 0.09463183 0.10591786 -0.007772491 0.03011038 -0.09381958 -0.040196486 -0.031996574 -0.020761333 -0.033221006 0.07663946 0.03363509 -0.069177225 0.027458698 0.08857774 -0.0076068183
yet 0.019594813 0.08287936 0.0035557684 0.057656046 -0.012387086 -0.03826638 -0.02222188 -0.025668072 -0.011792808 -0.0054160138 0.031511504 0.02591868 -0.035665106 -0.029228501 9.81078e-05 -0.01052925
rather 0.07826913 -0.016064944 -0.08708536 0.14486781 -0.1326947 0.08977179 0.13676913 0.10917928 0.121458046 0.11095293 -0.07661958 -0.11480677 0.14948927 -0.14343858 -0.11806546 0.08446877
tv -0.056727126 0.04831227 -0.007775683 0.035313204 0.023047077 -0.05229009 -0.010218492 -0.041600324 0.01079949 0.016460087 0.034899406 0.047583573 -0.042749245 0.025004607 0.04434556 -0.05120114
worst -0.19234198 0.14857773 0.09288313 -0.13866141 0.14087284 -0.17084645 -0.20798136 -0.06534091 -0.17271426 -0.115334794 0.11262097 0.15536423 -0.17778395 0.105898604 0.12865117 -0.13527995
girl 0.008288621 0.028947927 0.010367793 0.053354923 0.021742223 0.022548372 0.005631763 0.017400721 0.018316055 0.041300394 0.0043485034 -0.0066117463 -0.016899534 -0.0005552749 0.00032242102 0.0032538862
day 0.078723416 0.0049463995 -0.03295694 0.10199384 -0.031174347 -0.0042137573 0.0313326 0.028493091 0.028571248 0.058484457 -0.015424902 -0.076451376 0.0437175 -0.04960421 -0.035909925 0.005288345
sure 0.10570214 -0.053565554 -0.033151258 0.094003156 -0.051198184 0.10269992 0.08877276 0.004629131 0.027204612 0.085040435 -0.025711495 -0.060813785 0.01841594 0.00076954276 -0.07524173 0.040717993
fun 0.021892253 0.109711245 -0.07507789 0.0653273 -0.03768033 0.011625354 0.051722966 0.13335323 0.041168813 -0.009580724 -0.019972717 -0.06723774 0.101417355 -0.024631258 -0.007756963 -0.0049640764
hard -0.07153744 -0.009328877 -0.004188657 -0.0696278 0.032268997 -0.05332595 -0.098991014 -0.0056564827 -0.020617558 -0.019095976 0.04024404 0.027822332 -0.050619405 0.0070233247 0.07170449 -0.06394216
woman 0.025860855 0.015908405 -0.06340704 -0.00394267 -0.039437898 -0.032539975 -0.028309884 0.046129886 -0.012956019 -0.025165666 -0.031704936 -0.048457865 0.007647906 -0.037937712 0.025066108 -0.010346906
played -0.020322468 0.11788928 -0.022171494 -0.018541077 0.039241184 -0.021136353 0.0085993605 0.046699688 -0.057064153 -0.01385018 -0.019015042 -0.035933156 -0.035980836 -0.06801162 -0.008238761 -0.02984996
each 0.10212084 -0.0544409 -0.08814884 0.10545476 -0.031903885 0.028302843 0.0676196 0.052241407 0.11523202 0.008570429 -0.054446947 -0.093885876 0.10603702 -0.020938719 -0.049500152 0.042211056
found -0.018079503 -0.036686763 -0.10481942 0.0186037 0.01573091 0.06475069 0.056711104 0.08129856 0.003493475 -0.009486212 0.019914908 -0.014930048 0.055715762 -0.029538505 0.01059468 0.009933437
anyone 0.06973996 0.0766345 -0.038628858 0.0031138645 -0.07428851 0.06595173 0.07097465 0.029920526 0.03696967 0.094345346 -0.06242258 -0.04967797 0.080838785 -0.057616282 -0.031546146 0.00090023945
having 0.032160778 0.030360006 -0.063403286 -0.024942534 0.011353134 -0.01786642 0.036058966 0.0077235447 0.056114998 -0.0027568312 -0.050889917 0.0065479213 0.017664306 0.034812763 -0.021346584 0.0015765353
although -0.04642889 0.039132413 0.012000053 -0.010416565 0.00097648846 -0.0048932573 0.019306699 0.009123158 -0.02967771 -0.05280647 0.057098247 0.054925103 0.0205491 0.10117536 0.052908808 -0.031741478
especially 0.04048035 0.010309995 -0.11511323 0.077585675 -0.013826019 -0.001676302 0.083443336 0.03541806 0.021630015 0.026237492 -0.05479486 -0.06419218 0.044518474 -0.02757483 -0.06187282 0.062080074
our 0.0725345 -0.016765196 0.009920029 0.011545839 -0.013874899 0.05728844 0.038499437 0.00438588 0.013107298 0.020192845 -0.0777417 -0.062545165 0.004330882 -0.01115082 -0.07738465 0.06342068
believe -0.07734677 0.023173288 0.056562047 -0.0697754 0.009225153 -0.04989425 -0.052868173 -0.016969686 -0.05847383 -0.051920354 0.051429845 0.060151607 0.020018928 0.030298714 0.012873015 0.019317297
course -0.025047222 0.02909307 -0.017181486 -3.703256e-05 -0.039433625 0.033321004 0.036636297 0.050617415 -0.0038647463 -0.021712787 -0.020953167 -0.01596787 -0.035814684 0.0065870616 -0.0461754 -0.00886381
comes -0.03371092 0.025280045 -0.03423308 -0.018985799 0.042751648 -0.053223666 -0.04068439 0.006440818 0.012097306 -0.021643259 0.052435167 0.027130106 -0.04411484 0.036134705 -0.038335565 0.03189287
looking 0.05033375 0.004165962 -0.0007127349 0.050788555 -0.017366773 -0.037905745 -0.04822194 0.021065338 0.007216226 0.036225457 -0.034436442 0.011012121 -0.015311925 0.014764803 -0.004597319 0.010267599
screen -0.035197016 0.010221054 -0.014023863 0.021707973 -0.052261434 -0.012773543 0.03556146 -0.033771623 0.0020477585 0.016487777 0.016353622 -0.027453298 0.027007595 0.02962336 0.028909927 0.022079987
trying 0.084989674 0.005455105 -0.037999377 0.10451291 -0.02210529 0.077826925 0.07220884 0.07052983 0.013552696 -0.0013344715 -0.03483722 -0.023486152 -0.007573308 -0.08746961 -0.059444968 0.10521106
set 0.014976997 -0.02561662 0.047380626 -0.0076270183 0.02037816 -0.0015736301 -0.04846511 -0.06169932 -0.049214184 0.01605107 0.008274818 0.019121772 -0.024214108 0.048158158 0.026346575 -0.038887378
goes 0.039837457 -0.032180734 -0.030839706 0.012880581 -0.05395634 -0.010077308 0.025561092 0.05574254 0.058452114 0.07081551 0.011102962 -0.026802484 -0.006480999 -0.021468982 0.0016143776 0.007583149
looks 0.09903035 0.08346404 -0.04564965 0.09191957 -0.09852848 0.065423824 0.051351346 0.020371607 0.026213314 0.010896009 -0.04238007 -0.0043505286 0.0652325 -0.006485938 -0.041028436 0.04508856
place 0.11242943 -0.035195865 -0.11066167 0.14117052 -0.1087715 0.13301747 0.091650315 0.07795817 0.08571521 0.12750389 -0.067557245 -0.09544367 0.041864872 -0.07368136 -0.13411555 0.068536356
book -0.020415917 0.106179215 -0.04941172 -0.015592989 -0.0026315586 -0.004245539 0.009503604 -0.009276088 0.0035592094 -0.012982331 0.034056664 0.02680789 -0.008940588 -0.06489372 0.032392018 0.03297557
different -0.01667001 0.08570733 -0.003610319 -0.009641323 0.0039602523 -0.018806538 0.034591686 -0.01167543 -0.03981353 0.011732968 0.038053308 0.052781284 0.021982148 -0.070823185 -0.00024439866 -0.00922274
put 0.01844675 -0.088355124 -0.047067456 0.060912564 -0.03064421 0.038355038 0.035578966 0.03404827 0.08230116 0.027054934 -0.09731581 -0.077745385 -0.01728853 -0.033099033 -0.101411246 0.08158352
ending 0.019804204 0.011320147 -0.010820219 0.0021114424 -0.088802315 0.10133455 0.084249936 0.03681757 0.06002318 0.037120562 -0.008434383 -0.087060146 0.041662257 -0.018305026 -0.07758884 -0.013159071
money -0.039581645 0.012783645 0.08347405 -0.078209706 0.04477779 -0.12548874 -0.040165793 -0.04758256 -0.079795815 -0.11829807 0.12447175 0.06028686 -0.0206164 -0.028982924 0.05483818 -0.13241893
maybe -0.05260011 0.006269085 -0.008577664 -0.009562077 0.050836973 -0.09438008 -0.0465837 -0.021787936 -0.054611683 -0.06357949 0.045958098 -0.0026090252 -0.049246635 0.03802694 0.061423253 -0.0125194015
once 0.08236134 0.019609217 -0.11772721 0.08133076 -0.16866896 0.14516106 0.12131037 0.088246614 0.11970307 0.17132472 -0.105508395 -0.13551083 0.073137715 -0.07400786 -0.14037542 0.07904073
sense -0.055410195 0.06757004 0.024455953 -0.030852703 0.008606542 -0.076184444 -0.013253264 0.03303005 -0.038246788 0.011235512 0.048639864 -0.03058167 -0.06420282 -0.028093264 0.01409889 -0.031711046
reason -0.14370753 0.018966004 0.099870786 -0.08373654 0.16018066 -0.101052456 -0.076660246 -0.088827975 -0.17920583 -0.15304494 0.113716245 0.16782631 -0.15350549 0.07824541 0.1473407 -0.16273841
true 0.021213308 -0.034996662 -0.009604769 0.06535797 0.023012957 0.06099783 0.05904299 -0.03130828 0.02653509 0.037599046 -0.023327444 0.017427094 0.004356762 -0.023825413 0.0017847911 0.03668253
actor 0.031115301 0.008375374 -0.091036595 0.04354257 -0.11465562 0.0932497 0.06633803 0.08872902 0.10963838 0.09120076 -0.08771884 -0.083447106 0.064441584 -0.034624267 -0.08903925 0.07308008
everything 0.0071464437 0.09899306 0.03423429 0.032945327 -0.02798325 -0.04315605 -0.026100688 -0.0061969915 -0.029733809 0.009217346 -0.013963702 -0.039231215 0.03264583 0.028412199 0.028978296 -0.046972856
wasn't -0.1403022 0.05956569 0.1537401 -0.17699315 0.15295745 -0.15281211 -0.14452255 -0.14879218 -0.09922773 -0.119085304 0.117881 0.09669226 -0.08985518 0.08678548 0.1298149 -0.15674387
shows 0.05317727 0.16363479 0.035670314 0.056342974 0.014506392 -0.05184981 -0.005934936 0.0012765954 -0.02514329 0.020605888 0.0110132815 0.02395371 -0.059416607 0.042889528 0.06048456 0.041913275
dvd 0.0373737 0.0002670846 -0.051323827 0.08947252 -0.09277582 0.0268861 0.06761539 0.060296074 0.088060364 0.1040705 -0.10046928 -0.090276755 0.030251784 -0.07250196 -0.06340744 0.089006715
three -0.017240852 0.07886115 0.012688828 0.008471996 0.034759086 0.038439218 -0.0022525997 0.0127329985 0.031220948 0.045784224 -0.04158654 -0.04569767 0.07838908 0.0617356 -0.020584855 0.0010584042
worth 0.11489362 0.1343121 -0.14696637 0.13658774 -0.096175194 0.037081935 0.09061875 0.1413037 0.07847377 0.06571743 -0.11688151 -0.06308451 0.12450146 -0.08544433 -0.095848046 0.074390315
year 0.11510297 -0.09675325 -0.10405507 0.05698115 -0.09639823 0.12256646 0.039007463 0.0709411 0.055609256 0.059220947 -0.1230985 -0.022261826 0.029196009 -0.051758386 -0.04829884 0.06934139
job 0.031471822 0.054564476 0.0010393313 -0.006047713 0.06209088 -0.013551218 -0.060926337 0.017232964 -0.06446873 -0.044376336 0.05935758 0.014689169 -0.08881877 -0.08959832 0.040382046 -0.05660956
main -0.052841168 -0.026434882 0.08850915 -0.0943624 -0.0031904115 -0.011554635 -0.03989231 -0.12949997 -0.023134923 -0.09635321 0.081292644 0.09876095 -0.047988575 0.08635664 0.077156916 -0.057234034
someone -0.10249405 0.050781295 0.119450465 -0.085191324 0.1928064 -0.11233609 -0.17604204 -0.1331032 -0.16067141 -0.11494366 0.16556065 0.17210828 -0.11121699 0.09006151 0.1234299 -0.1596415
together 0.036987077 -0.027878292 -0.08044752 0.012029678 -0.07542657 0.083844446 0.046612363 0.024966868 0.08768639 -0.010359117 -0.020634707 0.013699148 0.074728765 0.01145436 -0.029675059 -0.011905317
watched 0.021781757 0.031524107 -0.0556973 0.06752663 -0.034902215 0.047630813 0.007174303 0.05460479 0.03520896 0.020158483 0.0034888426 -0.04701702 -0.029091693 -0.08073227 -0.01681485 0.015760181
play 0.102180205 0.054194424 -0.04904384 0.05316272 -0.022616943 0.0042828796 0.03936212 0.08098027 0.040844414 0.03623138 -0.09992524 -0.085299134 0.008107694 -0.095024236 -0.042503953 0.029174067
american 0.068453714 -0.044951282 -0.07047244 0.058489393 -0.14288911 0.14670444 0.09777348 0.07373435 0.08894621 0.09110522 -0.13868172 -0.05647341 0.041394103 -0.06270584 -0.15835433 0.13522373
plays -0.00021625632 -0.007572605 0.0185685 -0.09500346 0.045205668 -0.060877386 -0.05058211 -0.045578882 -0.028439175 0.010467065 0.037173335 0.024682404 -0.01262448 0.0057603754 0.0018409733 -0.09447266
1 -0.08901439 0.0669714 0.0634496 -0.09682377 0.068034574 -0.055462703 -0.07102518 0.024167672 -0.1152905 -0.08046594 0.09370553 0.047133386 -0.052835245 -0.034588892 0.045184683 -0.09984542
said -0.021742886 0.038208857 0.012552432 -0.031179102 0.04783537 -0.0048945276 0.020245941 0.044838972 0.03936037 -0.0010839989 0.061430924 0.032876454 -0.042753592 0.018072123 -0.015667805 -0.04730293
effects -0.03010803 0.023910055 -0.0034802754 -0.015625104 0.0064634555 -0.054015152 -0.018050402 -0.08625195 -0.05705669 -0.04690183 0.054766595 0.03817328 0.0039962996 0.086590774 0.060755588 -0.08700303
later 0.035605058 0.06269976 -0.015468873 0.0692174 -0.0604954 -0.009616028 0.023923475 0.03304097 -0.05028994 0.02474274 0.0009990245 -0.040037073 -0.0067450395 -0.021102127 -0.04328394 -0.030100366
takes -0.03545601 0.1239061 0.0032998533 -0.032776438 -0.010997256 0.014160951 0.012410275 -0.018604198 -0.040853765 -0.044455502 -0.014168808 0.0093448 0.020634899 -0.0037171135 0.030167848 0.016221723
instead -0.11332798 0.099715374 0.1389639 -0.09175654 0.17927764 -0.093274936 -0.090858035 -0.11079019 -0.113095045 -0.111408964 0.10071002 0.12951723 -0.15453827 0.06940476 0.06269555 -0.12843144
seem 0.050070144 0.036939625 -0.051155727 0.010097466 -0.014250016 -0.010348318 -0.0011668763 0.031636335 0.08273153 0.05669678 0.016345533 -0.029355006 0.025184652 -0.03383675 -0.04993182 -0.006899358
beautiful 0.15484369 -0.016403034 -0.19092971 0.14184402 -0.22790356 0.14798753 0.18790025 0.13956256 0.1352896 0.18216808 -0.22852942 -0.17563216 0.12494796 -0.14796081 -0.14904694 0.19955476
john 0.056269214 0.06296125 0.01399319 0.010063028 -0.030874304 0.0332397 0.00016922277 0.061363906 -0.019261716 -0.018516133 -0.06031407 0.023823287 0.008200017 -0.01156701 0.00076317 0.027919699
himself 0.05716236 -0.061631527 -0.034519188 0.04626247 -0.05633811 0.102678336 0.055885363 0.053761307 0.071611136 0.08917353 -0.061476618 -0.028363125 0.05050899 -0.029849418 -0.062207337 0.0052502374
version 0.034265388 0.039370336 -0.038570866 0.019851621 -0.024597764 0.06357112 -0.0073211044 -0.0037805554 0.02820766 0.030063743 -0.0065446678 0.0077944663 0.053917874 0.014998104 -0.02914701 0.055798773
audience 0.009908599 0.07495092 0.007167765 -0.059515025 0.006954559 -0.08999886 -0.0355533 -0.0308288 -0.047188316 -0.07986194 0.04677971 0.074697725 -0.018011121 0.053277906 0.049054284 -0.0790075
high -0.03777749 0.035336316 -0.0035400668 0.015378477 0.030570561 -0.041684642 -0.0016836964 -0.029761977 -0.04640991 -0.061537944 0.02129268 0.02694157 -0.014601963 0.044832792 0.020239968 -0.027322428
house 0.022552475 0.005035689 0.013078064 0.042434555 -0.058499914 -0.001592354 -0.016487157 0.030935045 0.006876051 0.047195777 -0.033988062 -0.017088724 0.0076508923 0.04828619 -0.07482857 0.010145337
night 0.016295679 0.027302885 -0.046403967 -0.010808692 -0.036551252 0.016522087 0.05098277 0.0444957 0.00789873 0.0485128 0.020797836 0.0037493187 0.029667692 0.017426856 0.0016788177 0.012691968
during 0.012947195 0.039139915 0.00689625 -0.01929154 -0.0001155747 -0.06501595 -0.055820324 0.018638875 -0.06302881 -0.034921806 0.0412692 0.06959366 0.012861542 -0.013258077 -0.014377401 -0.030936636
everyone 0.049797393 0.07919567 -0.05943491 -0.0026705558 -0.052355714 -0.016177287 0.02217147 0.03875487 -0.020405924 0.007092912 0.023946691 0.02007948 0.05395518 -0.09418863 -0.015622212 -0.014865774
left -0.071941614 0.014993378 0.13264158 -0.07062372 0.10027057 -0.060582403 -0.047721256 -0.086593434 -0.13898663 -0.078767866 0.13407166 0.052652728 -0.045864582 0.14844221 0.1459666 -0.14611112
special -0.003723582 0.055919636 -0.06717198 0.06055734 -0.059434496 0.010677905 0.06763735 0.060943823 0.008430701 -0.006944601 -0.02491349 -0.02915252 -0.023287253 0.016467318 -0.07849916 0.03790799
seeing 0.0073643266 0.13187483 -0.025301114 0.044241164 -0.016030872 0.039115943 -0.0023154446 0.018523581 -0.010431078 -0.032954622 0.040561203 -0.06679438 0.024140315 -0.061433043 -0.06567932 0.0035044425
half -0.14687003 0.10133808 0.048015427 -0.02816631 0.15320002 -0.11758425 -0.12388511 -0.100368164 -0.12525544 -0.08372888 0.11163164 0.08621419 -0.05469617 0.08760931 0.11012116 -0.15644968
excellent 0.11011411 -0.011140679 -0.20254941 0.12323663 -0.19412853 0.114760846 0.09166817 0.19385256 0.17042826 0.14858319 -0.10737906 -0.17055348 0.17972955 -0.1258532 -0.117036484 0.13180384
wife 0.009502767 0.042341962 0.07182361 0.06831485 0.017822713 -0.052634243 -0.016102051 -0.05937779 0.0050539016 -0.039030205 -0.0380018 0.03587236 0.02327811 -0.00666075 0.009430587 0.029190214
star -0.017951008 0.098751515 0.06405879 -0.021540409 -0.025035007 0.017434277 0.012674369 -0.015589714 -0.02726804 -0.04166428 0.0039104493 -0.030865189 0.024378747 0.053162243 -0.035352156 -0.009370705
shot 0.0043652216 -0.0087012425 0.0072739185 0.0082007805 -0.08280914 0.08375884 0.112467304 0.08189059 0.021209758 0.017906487 -0.005507798 -0.007026356 0.06898812 -0.02914073 -0.018045805 0.071557
war 0.07127731 0.0769227 0.0022038303 0.026327305 -0.036952566 0.08229239 0.01603005 0.023695437 0.015884371 0.03600192 -0.034756765 0.029965853 0.08196624 0.052952997 0.013087092 0.010644556
idea 0.07911542 0.004050328 -0.08194351 0.11261758 -0.08816986 0.05323787 0.013910367 0.08530533 0.09601468 0.040395726 -0.023720792 -0.042850673 -0.019026011 -0.04139631 -0.05563871 0.08855742
nice 0.09869495 0.016208177 -0.12043256 0.0603597 -0.12641543 0.060156453 0.07479463 0.03106771 0.09102664 0.04133755 -0.06898727 -0.12769811 0.038173392 -0.06265475 -0.053533107 0.10317238
black -0.00945774 0.1007009 0.039224707 0.011632367 -0.013368699 0.020439558 0.010748067 0.01961336 0.027769778 0.023322187 0.030866146 0.06243759 -0.027625265 0.035204 0.05712986 -0.04904947
less 0.01853853 0.03755489 -0.018100724 -0.030338237 0.0060657505 0.035456985 0.0104634315 0.04109611 0.017556017 -0.003958293 0.009248893 -0.033928152 0.042463228 0.06338624 0.0182229 0.013952049
mind 0.17775144 -0.018368507 -0.17513907 0.10615908 -0.10671899 0.119771704 0.15037848 0.0966623 0.1748324 0.1617056 -0.09877543 -0.108447626 0.15537556 -0.14965051 -0.14176352 0.1382293
simply -0.09408299 0.14927334 0.054334972 -0.0558872 0.11490701 -0.08717711 -0.06735633 -0.03975922 -0.04992774 -0.040613286 0.06088897 0.02268752 -0.01103899 0.03757935 0.08888346 -0.04050394
read -0.07158792 -0.022739315 0.031621706 0.04144827 -0.0072259973 -0.07718944 -0.065275304 0.04086517 -0.031066613 0.028057275 0.093281865 0.014263224 -0.01528154 -0.10039557 0.043482002 0.06796799
second -0.022401981 -0.018180342 -0.00013528066 -0.014611374 0.042843588 0.019663926 -0.007926139 -0.043633368 -0.0072945515 -0.0056070862 0.006144187 -0.0031114744 -0.013507011 0.04522346 0.0054219803 0.041667935
else -0.005293901 0.10355182 -0.0010943614 -0.021313144 0.018333444 -0.07167129 -0.062331475 0.007884482 -0.061882045 -0.073732495 0.010303866 0.013866983 -0.098158926 0.01304273 0.07933974 -0.07174682
you're -0.060269922 0.018814461 0.075118996 -0.08368569 0.08750308 -0.033412 -0.04161884 -0.06928073 -0.054456573 -0.10125999 0.071835645 0.029772371 -0.04367092 0.046694204 0.09226297 -0.09574844
father 0.0015513314 -0.012560963 -0.008067584 0.005815669 -0.04213225 0.05604367 0.07964732 0.024524296 0.06098189 0.04079729 -0.0630941 -0.0076840287 0.006747515 -0.0072507733 -0.06867454 0.0058385106
fan 0.05835004 0.11134702 -0.02783365 -0.019941352 -0.05673045 -0.03889571 0.057793003 -0.02221056 -0.018140974 0.012230289 0.0043813568 0.042629477 0.032885227 0.02412664 -0.026772691 0.050199877
poor -0.06324959 0.071405195 0.08133694 -0.100617684 0.09450079 -0.052790105 -0.0782842 -0.030291516 -0.018144196 -0.12599307 0.106223315 0.045466874 -0.008413033 0.081036545 0.070687085 -0.02403109
help -0.022993583 0.06684245 -0.023722218 -0.040724948 0.047086533 -0.037734784 -0.037251648 -0.045208123 -0.06463991 -0.06643968 0.0015623264 0.014025571 -0.04215012 -0.00164928 0.06876017 -0.023495218
completely 0.0010472571 0.037671495 -0.04164854 -0.0039996305 0.03499219 -0.04222166 -0.046073284 0.0098642325 -0.024217723 0.037624184 0.03331245 -0.0436872 -0.0056496123 -0.041809116 -0.03634826 0.017960537
death -0.007447302 0.012105825 -0.0067503764 0.0482801 0.0019826286 0.047669347 0.009025687 0.032129403 0.05942332 -0.018364219 -0.04024899 0.012758366 0.018516691 -0.034455575 -0.06500371 0.0049716285
3 -0.17786658 0.22618085 0.12395697 -0.16742587 0.18381727 -0.23486386 -0.21896599 -0.066285975 -0.157293 -0.15729539 0.17283212 0.15926965 -0.20765303 0.001317677 0.13660716 -0.1348271
used -0.06752239 0.08745628 0.08522003 -0.120433874 0.09216703 -0.08281971 -0.06137194 -0.06497733 -0.11494665 -0.055739716 0.13205008 0.12516515 -0.07034575 0.08466931 0.12844476 -0.12371768
home 0.14544389 -0.08549811 -0.041920442 0.1265277 -0.08305301 0.060598634 0.09551002 0.07908254 0.08519956 0.06347489 -0.059322465 -0.012290263 0.057488363 -0.0067546656 -0.062449545 0.032308202
either -0.036401004 -0.041831117 0.06538715 -0.09365726 0.041395206 -0.06751622 -0.04788853 -0.0804872 -0.054511603 -0.0646157 0.10530218 0.028391479 0.037228495 0.06400183 0.10603895 -0.08962106
short 0.0120461825 0.06281114 0.01449957 -0.033359937 0.043862976 -0.021683384 0.054424196 -0.035774097 -0.022152597 0.01423141 0.015720777 0.02178053 -0.01862692 0.026128363 -0.038368948 0.045171622
line -0.03534405 0.09616308 0.017550806 -0.03677719 0.0030858056 -0.06259768 -0.015485844 -0.02329727 0.0005726673 0.02241295 0.022244122 0.023319874 -0.004460149 -0.033641487 0.067207776 -0.0062742643
given 0.111967586 -0.013197864 -0.037760697 0.11042901 -0.034049634 0.068090655 0.022322418 0.051333968 0.03547952 0.044573292 -0.036156 -0.005544987 -0.00079148856 -0.061036937 -0.11550698 0.10339052
men 0.011401351 0.04710908 -0.038284402 -0.044390485 0.006762724 -0.0029120895 -0.047230747 0.003929761 -0.043328855 -0.052109215 0.03176528 0.0077073514 0.0012130431 -0.06305597 0.04297541 -0.04863176
top 0.16582854 -0.043794215 -0.103684254 0.08489071 -0.055241868 0.13742274 0.09773067 0.14788246 0.093954645 0.07883013 -0.11758017 -0.14381249 0.13270095 -0.024703503 -0.11201932 0.07862753
dead -0.021686304 0.003641123 0.011269386 -0.014410298 0.10219344 -0.067780174 0.0039575268 0.008950553 -0.029724319 -0.077939264 0.021987932 0.09102962 -0.0645531 -0.0056940857 0.030422784 -0.08340535
budget -0.18596423 0.055798605 0.18665542 -0.10063721 0.111915976 -0.12342063 -0.16447623 -0.13691115 -0.14186326 -0.14914025 0.19315329 0.08279203 -0.07593352 0.14367649 0.1781567 -0.18109286
try -0.025119688 0.03495684 0.04785314 -0.036988117 0.04257564 -0.024395118 -0.03069541 0.01970039 -0.03928422 0.008362225 -0.034812577 -0.033293393 0.036129694 -0.016557498 -0.021523349 -0.028293947
performances 0.035254672 0.019625697 -0.06656044 0.042763725 -0.0785891 0.07560956 0.048209205 0.068701744 0.017512279 0.090971656 -0.06267374 -0.034167565 0.0674969 -0.037113648 -0.046972625 0.07422079
wrong -0.009573294 0.032497898 0.010229999 0.033683535 0.02262066 0.022423742 0.026468106 0.0044623963 0.062005732 -0.01363016 0.020089798 -0.062480662 -0.04013732 -0.005974027 -0.027984036 -0.0012356178
classic 0.048601154 0.026599232 -0.09339426 0.051816992 -0.019446913 0.039298926 0.03529601 0.09264098 0.05131853 0.110968724 0.0044216597 -0.087479725 0.023226744 0.016396409 -0.030455213 0.004041458
boring -0.082152 0.117803454 0.08289418 -0.11430572 0.16526136 -0.13752565 -0.061617363 -0.039479993 -0.07484621 -0.13269946 0.12497783 0.078385435 -0.09741934 -0.014546283 0.07781631 -0.1391522
enjoy 0.034298476 0.061860327 -0.028860474 0.12214595 -0.0433125 0.017397378 0.022638755 0.08161395 0.062892996 0.04675678 -0.03301076 -0.0004637568 0.063739955 -0.06590855 -0.0817033 0.033111133
need -0.04281669 0.011472723 0.026058577 -0.039246406 0.04539595 -0.059096973 0.0138858445 -0.07060939 -0.032417174 -0.044367354 -0.0018327477 -0.0062753605 -0.06913633 -0.0044404324 0.026698688 -0.0031135227
rest -0.07676171 0.08608354 -0.017474825 0.0137933735 0.06706184 -0.09624796 -0.12041306 -0.0051078 -0.05661469 -0.004118925 0.044367984 0.07098186 -0.11433986 -0.04348966 0.04849606 -0.012742188
use 0.0943134 -0.075043045 -0.032846287 0.04288343 -0.067793235 0.0356995 0.10994451 0.07929775 0.11132396 0.0741128 -0.07749765 -0.046546232 0.10313401 -0.036813274 -0.11338201 0.08702882
kids 0.020367049 -0.12902264 0.055907365 -0.046425037 -0.014377704 0.04440455 0.05538561 0.00019374826 -0.011724718 0.056421794 0.010228497 -0.061956372 0.055399787 0.06316302 0.008207556 0.009319357
hollywood -0.0843971 0.022397105 0.0023264114 -0.04792731 0.009618399 -0.074018694 -0.058788322 0.011711743 -0.043672662 -0.031443916 0.07792069 0.007971316 -0.019176023 0.009849996 0.08705214 -0.07929247
low 0.011990021 0.01239241 0.015054217 0.031327117 -0.037668463 -0.01187772 0.04357302 0.0017314994 -0.0012156939 0.0002815578 0.010722866 -0.025033267 -0.028987963 0.08176448 0.027326541 -0.035040118
production 0.059478108 0.019545158 0.0060684877 0.06777992 -0.06670306 -0.005033349 0.024079515 0.025173437 0.061278738 0.054211326 -0.0077102883 -0.056012847 0.056998517 -0.02159051 -0.011374527 -0.004729675
until 0.036346085 0.02002258 0.095385894 -0.041900877 0.04343745 -0.052231714 0.0329338 -0.022879712 0.048701335 -0.025464153 0.020250643 -0.026227959 0.007719553 0.11125984 0.008576357 -0.0021413162
along 0.063777156 0.05224414 -0.113760725 0.085994884 -0.121941246 0.10230833 0.1153341 0.07326889 0.047079656 0.09212594 -0.042181455 -0.08358023 0.051377315 -0.06774402 -0.09381585 0.040313806
full -0.076725 -0.0068683913 0.044136193 -0.09568736 0.05334107 -0.06558292 -0.080164574 -0.06997105 -0.071484484 -0.12030901 0.05952673 0.09014203 0.019603211 0.18837136 0.042473968 -0.04781419
friends -0.044923693 0.08377507 0.10850502 -0.084221974 0.13755329 -0.08045596 -0.09290566 -0.079829365 -0.12824683 -0.066264085 0.0382899 0.034189295 -0.092042014 -0.007836481 0.12654968 -0.09344097
camera -0.01225127 -0.0256681 0.0055915997 0.06722953 -0.049498126 0.044400714 0.05229534 -0.023450777 0.08487132 -0.013001854 0.0081255 0.0199148 0.00642014 0.048832398 -0.015917497 0.04296437
truly -0.0037288212 0.15477021 -0.0744425 -0.020066304 -0.03337081 -0.026963389 -0.027530946 0.054585837 -0.036050864 0.010366268 0.033031218 0.007534762 0.0061906907 -0.047968987 -0.015670452 -0.023521878
women -0.092417374 0.03722774 0.08256633 -0.017844865 0.12975356 -0.046904754 -0.1404542 -0.11427798 -0.10956811 -0.09330533 0.10914566 0.068740524 -0.08934616 -0.007736624 0.13185528 -0.13512714
awful -0.11526849 0.06828828 0.08041208 -0.10918866 0.14636242 -0.10648431 -0.07148929 -0.067987606 -0.048304882 -0.0677714 0.05796139 0.09038742 -0.036660306 0.05739176 0.12744866 -0.098800994
video -0.008531286 -0.014017403 0.015719814 -0.030745449 -0.05047438 0.003844175 0.008014234 0.010343 0.03315543 0.04006697 0.032526277 -0.026531113 0.08115246 0.02403233 -0.012193797 -0.0006455761
next 0.014972861 -0.09156404 -0.014691056 0.04924655 -0.06799821 0.054170478 -0.0018495509 0.022553764 0.0625803 0.0041197957 -0.04461325 0.0013849976 0.04532776 -0.0051106936 -0.0669795 0.030898131
tell -0.1396341 0.04818074 0.09268278 -0.14490703 0.12666583 -0.13758945 -0.13168554 -0.15208028 -0.080906436 -0.09214586 0.1588531 0.07737177 -0.119578496 0.03801759 0.098440334 -0.107728094
remember -0.027795387 -0.038892094 0.006416717 0.03735925 0.033324882 0.021122133 0.00741757 -0.008493171 0.024524957 -0.003717145 0.0038112018 0.035516884 2.8668997e-05 -0.042757373 0.033321433 0.02015124
couple 0.010960138 -0.011639304 0.060982138 0.05604394 -0.029276796 -0.012333516 0.031227197 -0.046046343 0.018441645 -0.020025183 -0.008053232 0.014030881 -0.024967657 0.027023425 -0.008387038 -0.010993807
stupid -0.15906681 0.112930395 0.14848827 -0.1205794 0.12491394 -0.17057216 -0.082850136 -0.0636853 -0.079252005 -0.12257705 0.13157469 0.13900866 -0.117887944 0.123476766 0.17990105 -0.16036364
start -0.030201923 0.044061866 0.055493735 0.007969339 0.0114674745 -0.0046553304 -0.076599985 -0.004532725 -0.03814145 -0.049679987 0.0052826926 0.020646695 -0.012086259 -0.03716449 0.067679115 -0.05909072
stars -0.06711098 0.16192003 0.10652003 -0.10727811 0.045381296 -0.050951313 -0.088860966 -0.07048555 -0.14876385 -0.08563987 0.1605387 0.13274387 -0.11416366 -0.024350015 0.11256655 -0.09440929
perhaps 0.028777666 0.021827 -0.084028065 0.074167505 -0.05271485 0.010561176 0.0399191 0.07908432 0.027325565 0.03631936 -0.04789049 0.0042161574 0.01126749 -0.026714308 -0.0622823 0.015224601
sex 0.09001998 -0.055245176 -0.020990029 0.05559277 -0.12323706 0.06124185 0.051054213 -0.0088217035 0.036714427 0.050386686 -0.027527971 -0.05773075 0.039873652 -0.005508165 -0.10625506 0.038380776
mean -0.11611262 0.07352898 0.12556002 -0.10071435 0.15725453 -0.070557974 -0.06111918 -0.08107142 -0.15864179 -0.17068584 0.08536238 0.08475401 -0.15296748 0.013099814 0.114103206 -0.12795523
came -0.04996074 0.082216725 0.09898827 -0.05287337 0.0792585 -0.047181197 -0.054576263 -0.029209826 -0.08664964 -0.10700401 0.03452919 0.061801735 -0.073917456 0.043768097 0.053363852 -0.012415241
recommend 0.048938163 0.004568224 -0.066829585 0.06282214 -0.08263828 -0.0037210234 0.0873353 0.08101807 0.023405941 0.022961877 -0.06538032 -0.03410045 0.0020236403 -0.0838571 -0.04686266 0.11706912
let -0.04011955 0.11569316 -0.025464637 -0.005322549 0.0066552237 -0.032900784 0.004345716 -0.03213991 0.02717591 -0.04647651 0.0075051673 0.013468661 -0.03919975 0.062793545 0.06340821 -0.00525821
moments -0.070956856 -0.021258408 0.078785054 -0.035674855 0.058679655 -0.084298626 -0.06615126 -0.11665711 -0.022698326 -0.100057445 0.08093581 0.04469913 0.013067437 0.03346251 0.03679927 -0.07517598
wonderful 0.122188695 -0.08082118 -0.1479665 0.09769974 -0.1652331 0.12021148 0.17054367 0.16209167 0.12484806 0.07635112 -0.14768046 -0.10103668 0.12733713 -0.06247736 -0.17886832 0.11592249
episode -0.04079279 0.10280843 0.058255088 0.05829856 0.07768094 -0.0045553707 -0.073286146 -0.032743733 -0.08091355 -0.01763874 0.061463356 0.05242139 -0.030858696 -0.043098897 0.03048152 -0.07709524
understand 0.03612148 -0.05497133 0.019812815 -0.0105826575 -0.06973122 0.06453627 0.0049121617 -0.007131358 0.023180192 0.052988626 0.010884356 0.017571574 0.008437452 -0.02076954 -0.044671446 0.00591791
small -0.07445698 -0.013026095 0.027751874 -0.056911543 0.03259849 -0.022206457 -0.0053004315 -0.07068782 -0.029420914 -0.013919259 0.10711687 0.07003088 -0.055467326 0.048735328 0.06582031 -0.101126134
face 0.04457664 0.044281527 -0.076239266 0.04756998 -0.054046515 0.08006393 0.13067135 0.057116482 0.11825383 0.0791851 -0.034341265 -0.0845519 0.13021167 -0.0030550382 -0.06239507 0.13581955
terrible -0.12766683 0.06285615 0.090579666 -0.049116705 0.060100667 -0.08344035 -0.09820021 -0.08851604 -0.072853684 -0.12825112 0.07549618 0.107120454 -0.055556446 -0.0032265848 0.06822571 -0.09888967
playing 0.010380566 -0.009759668 -0.07538158 0.022091758 -0.012811501 0.04199082 0.04109136 0.032068387 0.07626454 0.016393518 -0.020326272 -0.0037733766 0.052979864 -0.041681934 0.012551478 0.02566256
school -0.092388906 0.049746048 0.09277441 -0.08672728 0.11711878 -0.0981815 -0.031296484 -0.03876214 -0.07494928 -0.05045473 0.11528915 0.08395179 -0.13168177 0.0042611156 0.08225296 -0.04481434
getting 0.07847563 0.039805125 -0.03392646 -0.0030987265 -0.03297234 0.027458753 0.07908018 0.0476021 0.059914622 -0.019930031 -0.0022498865 -0.015295239 0.007986963 0.02823361 -0.022882745 0.054409184
written -0.017410148 0.027914243 0.08990919 -0.09800597 0.053153075 -0.08606069 -0.03342591 0.0031875263 -0.04428285 -0.024148813 0.071161225 0.08385259 -0.06591267 0.040813424 0.013715131 -0.058771074
doing -0.06494198 0.07869878 0.023438828 0.0150308125 0.02558001 -0.054755732 -0.07729228 -0.017818095 -0.008546383 -0.0562849 0.01837802 0.04346492 -0.03154875 0.013460928 -0.0027300022 0.0041075973
often 0.07129462 0.042518288 -0.10960667 0.110774904 -0.10239345 0.07499613 0.11923423 0.11304586 0.10302012 0.12344206 -0.028642265 -0.027121032 0.041063067 -0.11137661 -0.11309862 0.08456277
keep -0.0623353 0.04958295 0.04101631 -0.017989585 0.081809744 -0.039098535 -0.026620392 -0.024329098 -0.03167061 -0.059450615 0.06092147 0.09853408 -0.075423256 -0.025946721 0.017236125 -0.10431236
early 0.060915615 -0.0003573493 -0.028546836 0.027163139 -0.037687454 -0.001659539 0.027583726 -0.0038722672 -0.020557493 0.031019542 -0.022006527 -0.036687605 -0.014045511 -0.004067193 -0.021100929 0.038523816
name -0.06777369 0.09420071 0.11513414 -0.105767734 0.040147685 -0.07495636 -0.06615083 -0.12408921 -0.05265156 -0.07946252 0.079004034 0.12160477 -0.07045817 0.10113191 0.052354842 -0.04626569
perfect -0.008928882 -0.050937045 -0.038594972 0.06076701 -0.038364142 0.021965984 0.038821027 -0.029006084 -0.00023667177 0.062335763 0.007203405 -0.014545929 0.03358373 0.026099246 -0.06543236 0.018505473
style 0.08513805 -0.038300857 -0.021911792 0.061066493 -0.023246828 0.031830873 0.011878734 0.012163774 0.03983813 0.060694035 0.017352976 -0.030364947 0.08671377 -0.04146345 -0.06767629 0.02086378
human 0.05218835 0.08986655 -0.05842967 0.039871566 0.0062205717 0.014940192 0.0125730345 0.06959504 0.033800647 0.07630343 -0.02915626 -0.019746933 0.027930468 0.041541204 -0.0042505288 -0.008678085
definitely 0.030757777 0.074855454 -0.05866517 0.12952384 -0.11889478 0.053650405 0.0068919384 0.07772528 0.076169685 0.058401417 -0.049254067 -0.00807626 -0.016803246 -0.089182615 -0.058940474 0.07361538
gives 0.11838661 -0.02842877 -0.14073068 0.16589044 -0.15616246 0.102633975 0.08662243 0.08772149 0.14727826 0.14336494 -0.10767823 -0.10734389 0.1612715 -0.11834551 -0.09506053 0.16056794
others -0.116130576 0.07149554 0.057651777 -0.031597856 0.07768807 -0.09873523 -0.11875083 -0.019706292 -0.059253715 -0.11011554 0.027128555 0.00449012 -0.11238055 -0.023179807 0.07969376 -0.010248453
itself -0.13807118 0.13366364 0.11930987 -0.106263526 0.0931087 -0.14415888 -0.08951152 -0.051662825 -0.082126394 -0.1515989 0.12846309 0.12636013 -0.15066038 -0.033013947 0.15320382 -0.09843552
lines -0.052817 0.08884433 0.009827801 0.05879113 0.049389496 -0.0764464 -0.08638633 0.04234871 -0.07403522 -0.028509445 0.025209209 0.08040077 -0.052290805 -0.10265145 0.053076442 -0.077587225
live 0.055484463 0.06916819 -0.056767724 0.09043393 -0.069199294 0.033542328 0.042795297 0.080447935 0.015906738 0.09669906 -0.054522533 -0.094793685 0.09864498 -0.024901042 -0.029512003 0.11930413
become 0.0034910087 0.008735134 -0.013252927 -0.01481168 0.0049531423 0.052117135 -0.034098327 0.057403307 -0.026871957 0.022986824 -0.016936768 0.03671977 0.017438175 -0.056693565 -0.064607576 0.04776023
dialogue -0.057294562 0.06915071 0.025494793 -0.04803015 -0.011222057 -0.027428733 -0.059302896 -0.04618461 0.007676922 0.030844564 0.053538 -0.025498461 -0.030630406 0.010605663 0.020149767 -0.058893953
person -0.06935284 0.06806999 -0.04689464 0.007661121 -0.024685042 -0.074383534 -0.038743358 -0.04479811 -0.02301665 -0.06827402 0.06764413 -0.00954249 0.030514209 -0.011045094 0.045214172 0.024364546
lost -0.05719327 0.013394492 0.05943266 -0.008772503 0.075465135 -0.01350345 0.00478442 -0.0091300495 -0.06190732 -0.058455817 0.05038613 -0.031268317 -0.045824695 0.047821708 0.009048301 -0.0934612
finally 0.006112218 -0.005378442 0.013651586 -0.025634507 -0.006415368 0.03533545 0.041651536 -0.048874557 0.026031742 -0.030390985 0.05353848 -0.033690628 -0.0009699319 -0.012525478 -0.035811525 -0.05935485
piece -0.14625615 0.09952447 0.13537575 -0.098421045 0.18402812 -0.17938262 -0.17226027 -0.08256769 -0.13783407 -0.13192876 0.19453031 0.13725841 -0.19593735 -0.010216571 0.18762527 -0.17817485
head -0.13514608 0.15713516 0.078473136 -0.110991396 0.089866884 -0.11184412 -0.1279279 -0.06648163 -0.16891225 -0.15087116 0.07404995 0.10551413 -0.124452144 0.09652955 0.118185595 -0.113382615
case -0.06783897 0.059257243 0.064451806 -0.06492329 0.11502339 -0.13972694 -0.05520926 -0.03797888 -0.05943524 -0.036095873 0.10741692 0.0120032625 -0.107632026 -0.050137702 0.08428304 0.0067952895
felt -0.029541314 -0.011092885 -0.013199215 0.027828027 0.022616703 -0.009546898 0.0013486355 -0.0099952 0.010072517 -0.039715406 0.020066753 0.047316615 -0.02527851 -0.003980817 0.031729463 -0.03290023
yes 0.091212414 0.026706807 -0.097443804 0.0689136 -0.02516079 0.043769628 0.105511874 0.037320122 0.09002441 0.030981367 -0.024268633 -0.061113037 0.05885546 -0.020567564 -0.08686233 0.08204093
liked 0.06320141 -0.006744891 -0.036496066 0.03987411 -0.038780686 0.017850526 0.010555355 -0.007514917 0.0043510743 0.07362303 0.004334393 -0.00041085354 0.06578565 0.0027397575 -0.049695704 0.07909281
supposed -0.13267273 0.033718098 0.12374548 -0.12399332 0.12032575 -0.08641271 -0.14430276 -0.1236993 -0.15721236 -0.17820111 0.094718985 0.06761023 -0.11755758 0.12009351 0.08757373 -0.15378943
title -0.022457844 -0.03804788 -0.0004702477 -0.0067900815 0.033265468 0.03071601 -0.03300023 -0.031023903 0.022806352 -0.054734774 0.061221126 -0.05542859 0.06292541 0.03270724 0.0135062495 0.0007106939
couldn't -0.09163391 0.13594767 0.0968927 -0.12982887 0.14020485 -0.07594661 -0.04942196 -0.06874227 -0.14890094 -0.1404729 0.108941026 0.117010534 -0.08200243 0.056976825 0.06060663 -0.1469324
absolutely 0.034172624 0.103855975 0.014224165 -0.016496861 -0.032752026 0.024132056 -0.02989769 0.01936127 -0.02368425 -0.001925438 0.05661701 -0.029219268 -0.033184458 0.016696787 -0.020787915 0.020846885
white 0.0424577 0.05351401 -0.034423288 0.07298273 0.02836739 0.04501791 -0.012076696 0.047797237 0.05909338 0.018635837 -0.058539137 0.042495232 -0.0066995923 -0.035442043 -0.03768936 0.018523715
against 0.04301582 0.01763715 0.008093858 0.06723761 -0.008941955 0.018443616 0.006481934 0.066571 0.049027815 0.010144015 -0.032570977 -0.019712916 0.0062977746 0.0036059453 0.026137376 0.05824162
boy 0.055095267 0.032119803 0.025337381 0.009369035 -0.032443892 -0.0057453797 -0.027584542 0.045821086 0.020862855 0.06190615 -0.041661657 -0.008352094 0.02100395 -0.015737569 -0.0021609566 -0.0002784976
picture -0.002316344 0.024374068 -0.047713622 0.00487201 -0.0646155 0.061323106 0.0045499704 0.025534708 0.067952216 -0.007264102 -0.035498153 0.009719481 -0.025518026 -0.0926956 -0.022205412 0.029191367
sort 0.13228308 -0.04074407 -0.13007042 0.09650247 -0.06988342 0.11437666 0.043589357 0.06900798 0.10024254 0.08631849 -0.12462433 -0.04762106 0.10184935 -0.049701735 -0.106982246 0.111427955
worse -0.0707135 0.06536825 0.012919792 -0.021552658 0.005550645 -0.05976478 -0.044107817 -0.022311378 -0.08706389 -0.073911175 0.09664782 0.08432719 -0.016816687 0.04863596 0.040986802 -0.052198764
certainly 0.16992487 -0.01687684 -0.087528154 0.08132896 -0.112232536 0.11540233 0.071757816 0.08284611 0.15337738 0.10957845 -0.14826618 -0.09731014 0.07168466 -0.06024127 -0.07205037 0.085250095
went -0.102115646 0.10663635 0.08688412 -0.09424312 0.09655226 -0.087519206 -0.038220987 -0.055262458 -0.105322234 -0.109805435 0.11217421 0.06620211 -0.041402888 -0.037241735 0.11987996 -0.06859192
entire -0.101398215 0.060795262 0.12761268 -0.13994674 0.051099315 -0.12528718 -0.08303872 -0.12852612 -0.043122903 -0.10808503 0.06368837 0.065388 -0.031606402 0.107425354 0.09922797 -0.105063066
waste -0.17085652 0.0878345 0.1915298 -0.16410492 0.18782897 -0.13221268 -0.1420326 -0.1856386 -0.14058255 -0.18775238 0.1789298 0.15984616 -0.15429276 0.067177966 0.21388656 -0.231488
cinema 0.017466065 0.04503661 0.040616743 0.10684297 -0.029186081 -0.009085652 0.017693913 0.015251679 -0.057707798 -0.022227902 0.022489559 -0.0320385 -0.0011223304 -0.090176284 -0.05186587 -0.03364545
problem 0.051294584 -0.0076747383 0.008879095 0.059229698 0.010994984 0.032980245 0.014345036 0.031648025 0.029344777 0.062246844 -0.031985324 0.02200924 -0.025066333 0.005058457 -0.052701194 0.014914818
hope 0.07174137 -0.09385418 -0.113837086 0.06529806 -0.13366057 0.081658974 0.13265547 0.10893953 0.09036546 0.06874324 -0.10422754 -0.12004834 0.13003924 -0.096046306 -0.11685628 0.070997246
entertaining 0.081736065 -0.03598873 -0.0910064 0.061578862 -0.014007226 0.08537261 0.061432514 0.0724533 0.051822077 0.023488803 -0.058435798 -0.085401244 0.041535523 -0.06797182 -0.0015796921 0.042741157
she's -0.0036826995 -0.016386013 0.039580517 -0.0481 0.0016761536 -0.056817915 0.013722994 0.023304956 0.042168643 -0.027487202 0.04572149 0.0013923652 0.0036827072 0.06727734 -0.022231722 -0.049254157
mr -0.044011366 -0.00045089214 -0.042222418 -0.04594822 -0.036485907 0.028301075 0.012923682 -0.031540126 0.001425968 -0.014932679 0.027040629 0.04949399 -0.011890627 0.0533961 -0.014621279 -0.007895622
overall 0.0026222172 0.017413734 -0.011266109 -0.03382648 0.030604566 0.0006013477 -0.015589762 0.04409972 -0.033036064 -0.036653556 0.005354831 0.03881722 -0.053235177 0.03685196 0.05158256 -0.057800416
evil -0.082373984 0.031858902 0.0061255097 -0.015108299 0.026820034 -0.010997223 -0.090497784 -0.0036213587 -0.008829602 -0.08861526 0.057801954 0.022540925 -0.04583304 0.09782051 0.06944366 -0.0049431487
called -0.017639834 0.03226271 0.048917852 0.016327403 0.055753686 0.015767086 -0.0062890286 0.008763314 -0.035841823 -0.046827257 0.0056252885 0.04578077 -0.03341573 0.025227778 0.052091043 -0.027544666
loved -0.021760697 0.082506366 0.007266597 -0.012502926 0.065779865 -0.0014115284 -0.023862036 0.010820171 -0.08603583 -0.009876525 0.05695975 0.0312201 -0.030621499 0.022117343 0.027233958 -0.093127094
based -0.029696831 0.035642534 -0.040473826 0.035493296 0.03527416 0.017789591 -0.04838974 0.030850407 -0.0075509604 0.013496083 0.008081404 -0.0047246404 0.03829634 -0.04424541 0.009150146 -0.06857368
oh -0.02426894 -0.01098715 0.0641926 -0.0901416 -0.0029068282 -0.067092 -0.07187558 -0.0132622095 -0.016352473 -0.025050346 0.063691035 0.06195054 0.0014552999 0.08021551 0.018891385 -0.015263806
several -0.04903494 0.031159969 0.024996227 -0.03530722 -0.0055299746 -0.019750638 0.026684234 -0.04089885 -0.039980054 -0.002707254 -0.032504898 -0.009779074 -0.023797411 0.061728153 -0.0032275752 -0.03362042
fans 0.004555812 0.14243402 -0.00756078 0.09147421 0.019668423 -0.03613768 0.016821083 0.080492176 -0.037636034 -0.055576023 -0.028637385 0.039070036 -0.08793958 -0.10782958 0.0017351141 0.03095123
mother 0.02633048 0.07625409 -0.056279346 0.06081771 0.027297428 -0.04301802 -0.022817792 0.0011059593 0.016732382 -0.034808356 0.03111396 0.011806102 0.048544828 -0.011349364 0.010896997 0.0014699897
drama -0.032118976 0.10645669 0.046486646 -0.003622706 -0.032687895 -0.002421944 -0.08253992 0.00809899 -0.039483335 0.010202402 0.060784247 0.028503144 -0.0045208978 -0.091612995 -0.03852076 -0.007472981
beginning 0.036339458 -0.061716978 -0.03366964 0.103759855 -0.0350378 0.09074 0.06486828 -0.0077217184 0.059200376 0.015116705 -0.09285182 -0.03164002 0.0044891452 -0.040030465 -0.00807099 0.09984426
killer -0.016666353 0.050323047 0.008437854 -0.0061643077 0.042532228 0.0042802207 -0.008328336 -0.0025929336 0.0279055 0.00060295546 0.003521706 -0.06559284 -0.017642122 0.041122586 -0.0125315 0.007590039
lives -0.09021406 0.042208765 -0.0051465617 -0.046296254 0.095713474 -0.03993589 -0.018770726 -0.06814583 -0.06786769 -0.033135414 0.085257016 0.08931867 -0.0624129 0.00416607 0.05182126 -0.10436332
5 0.069914766 0.022008525 -0.09746153 0.097682595 -0.03891865 0.013103064 0.06864096 0.10402931 0.067502156 -0.0015634743 0.016953913 -0.10012602 0.06710325 -0.061524868 -0.08103457 0.017243974
direction -0.09870778 0.034079913 0.12512818 -0.0612127 0.10645145 -0.1116035 -0.04955768 -0.029019274 -0.043896735 -0.0670434 0.050448414 0.111617565 -0.14392813 -0.050672892 0.06939889 -0.09336487
care -0.092647865 0.11497482 0.15212718 -0.06338211 0.1332837 -0.07728703 -0.12803918 -0.11453448 -0.06835784 -0.079378635 0.14773367 0.052478407 -0.03363102 0.077623054 0.15444048 -0.15058011
already -0.038649492 0.03702842 0.026643107 -0.04748391 0.037680246 -0.018550217 -5.755391e-05 -2.1419071e-05 -0.08377805 -0.083869874 0.06451713 0.016496923 -0.022838129 0.038056444 0.026947083 -0.05899926
becomes 0.01240898 0.043470696 -0.086898744 0.08706571 -0.049472783 0.037998296 0.0023581393 0.018677143 0.083441906 0.07409354 -0.018643722 -0.03781425 0.04551679 -0.03318718 -0.07455777 0.09289159
laugh -0.030446654 0.03717675 0.027393412 -0.018593645 0.06614168 -0.1045471 -0.07245694 -0.036074456 -0.10183138 -0.03227886 0.046731222 0.030876832 0.008564528 0.047450673 0.06587051 -0.057720773
example 0.0075129643 -0.041130636 -0.024826422 0.02295655 -0.0714817 0.017980319 0.04445357 0.044980552 0.01731432 0.078101374 0.011359975 0.0045378883 0.03072778 -0.0759437 -0.04467409 -1.3832224e-05
friend 0.093232 -0.113390215 -0.057339016 0.1321019 -0.12983069 0.08923931 0.07794328 0.12992215 0.06884614 0.09671558 -0.12332851 -0.07848963 0.12820771 -0.12919255 -0.06682783 0.07107745
dark 0.08497976 0.019115513 -0.02328808 0.0355949 -0.058707066 0.029592372 0.051727872 0.034139544 0.038591255 0.076399684 -0.014666914 -0.08562218 0.09117806 -0.057213075 -0.04674777 -0.016646428
despite -0.020875469 0.08137282 0.04671118 0.0011511861 0.03925655 -0.0076759965 -0.048395466 -0.07963238 -0.07405641 -0.034779396 0.07947416 0.020576904 0.004821761 0.06634173 0.05307444 -0.050694358
under 0.011006095 -0.03444138 -0.040931746 -0.011590111 -0.06273101 -0.00992593 0.035532475 -0.05096983 0.058082726 -0.013122801 -0.01997177 -0.050374728 -0.0134360995 -0.021207184 -0.034132726 0.00073260046
seemed 0.02401018 -0.05052707 -0.029163253 -0.0064397724 -0.07382965 0.054321803 0.031514466 -0.008841493 0.0199052 0.082764804 -0.033927094 0.016957326 0.0023573483 -0.0030704616 -0.0025030593 0.01868053
throughout 0.011735386 0.020654157 0.036467817 0.05690519 -0.0301246 -0.00041382684 -0.017771091 0.011980064 -0.0060139177 0.042359356 0.021649273 -0.036209434 0.032353856 -0.024911819 0.008420701 -0.034453254
4 -0.13864313 0.18961371 0.17188299 -0.118025035 0.1498716 -0.1313844 -0.18101066 -0.097937614 -0.16239138 -0.22909983 0.17598796 0.20095958 -0.23842554 -0.11409633 0.18648922 -0.23726866
turn -0.061968256 -0.028446479 0.0864244 -0.04025981 0.042826686 -0.026031869 -0.019253116 -0.064196534 -0.089253545 -0.04237628 0.09895698 0.08230379 -0.04476164 0.05449284 0.09939369 -0.102637336
unfortunately -0.014219883 -0.013509508 -0.029531132 -0.030428808 0.008216874 -0.018125627 -0.048502177 -0.025976755 -0.012924559 -0.018180946 -0.005718923 0.041868206 0.02941221 -0.029120909 0.020142503 -0.026367217
wanted -0.015328903 0.027439993 -0.05567447 0.028958395 0.015804866 0.06246374 0.031802215 0.06074246 0.024395308 -0.016197575 0.047343545 0.019148415 0.04822549 -0.06303628 -0.061808106 0.005165976
i'd 0.10141452 0.066034704 -0.13588576 0.11921049 -0.040617548 0.090167545 0.060182776 0.12656698 0.05457635 0.103718825 -0.13308467 -0.01641046 0.029167563 -0.12099181 -0.05537554 0.06432062
 -0.05288516 0.004752757 0.07588423 0.018401908 0.016960552 -0.05619032 0.04219755 -0.081598714 -0.008037179 -0.006801941 0.041771054 0.07907172 -0.061046142 0.032218542 -0.021058828 -0.00078687427
children 0.075351976 0.00066614506 -0.001746942 0.06691807 -0.078712 0.07227144 0.066267975 0.024041949 0.07270942 0.06893928 0.001984827 0.0030345742 0.016833523 -0.0016592315 -0.074994914 -0.023880638
final 0.11630142 -0.0034113612 -0.122578494 0.14361788 -0.07593783 0.04190152 0.022296512 0.10773426 0.10697197 0.10727185 -0.111380406 -0.07774221 -0.0018331053 -0.10915896 -0.10511673 0.039766263
fine 0.11786295 -0.002719353 -0.040472474 0.14992724 -0.1067673 0.04894667 0.05854973 0.13283515 0.072070755 0.07337218 -0.12279854 -0.034267638 0.11281993 -0.062326528 -0.07328652 0.09742571
history 0.00051205687 0.033284344 -0.0046196897 0.0939337 -0.05689394 0.037212115 0.026042568 0.01889146 -0.010408935 0.0020002131 -0.010693146 0.064190805 -0.04915886 -0.16113344 -0.07716839 0.001609408
amazing 0.13643761 -0.0511929 -0.17492764 0.09707599 -0.17517963 0.09341015 0.15183994 0.085890494 0.114696726 0.1891585 -0.15938468 -0.10804721 0.12091006 -0.094352536 -0.13633378 0.12685409
sound -0.033968277 -0.008558674 0.040925685 0.013012157 -0.005108031 -0.004298116 0.040336672 -0.056634266 -0.0101648625 0.03454309 0.032342512 0.02365168 0.035707682 0.06035326 0.027696876 -0.03058227
guess -0.18410492 0.09563407 0.18370028 -0.07277045 0.16934182 -0.16790535 -0.12174643 -0.12482858 -0.122645855 -0.1394799 0.10341793 0.14418308 -0.10763947 0.07840352 0.12000244 -0.14324026
heart 0.02264372 0.027725028 -0.06472019 0.035917472 -0.07895319 0.073393546 0.047225673 0.06742992 0.011948813 -0.0033007436 0.0015556935 -0.0014485326 0.069753595 0.011895575 -0.077809 0.04073975
totally -0.060932826 0.024726762 0.08866991 -0.05977038 0.058597248 -0.08487865 -0.04369386 -0.04742981 -0.038394447 -0.050200213 0.038193353 0.0039410596 -0.024598144 0.091126546 0.08839042 -0.08544807
lead -0.008894095 0.01725819 -0.0816944 0.030948743 -0.024061702 0.035344124 0.0630535 0.027362239 0.032727342 0.026684007 -0.0011257876 -0.03312656 0.04652312 0.013230745 0.013203309 0.06072534
humor 0.08219339 0.0039132982 -0.005897168 0.05146896 -0.011156977 0.04901955 0.06576457 0.035789546 0.045501843 0.01777831 -0.055472586 -0.020906482 0.06319823 -0.022150049 0.0066791354 0.0004727488
writing -0.09818635 0.04772732 0.06443679 -0.056495585 0.085170105 -0.07411857 -0.015684228 -0.0721697 -0.03845111 -0.031322997 0.092106976 0.08788117 -0.112839155 0.08902054 0.03194504 -0.062100843
michael 0.0574671 -0.057271097 -0.0665249 0.08574139 -0.10458002 0.061131526 0.11267472 0.067700826 0.07125572 0.10969878 -0.12637633 -0.048012536 0.10785332 -0.086132616 -0.12013768 0.119857304
quality -0.02851823 0.088980414 0.03323969 0.018535992 0.020312613 -0.018368987 -0.017513623 0.017061716 0.02164134 -0.00015323043 0.043816358 -0.015263029 0.02041536 0.058062643 0.017359957 -0.0721309
you'll -0.09165479 0.022689043 0.08424243 -0.05964995 0.11382519 -0.057531506 -0.10764355 -0.022093732 -0.049012836 -0.12222553 0.042426392 0.07686432 -0.032414332 0.08331206 0.039820053 -0.04406997
close 0.14303984 -0.059234582 -0.085200295 0.0901781 -0.09429249 0.08904114 0.12092164 0.13605475 0.16968243 0.12500365 -0.10876684 -0.07920362 0.09520939 -0.11065548 -0.07187183 0.08079391
son 0.10256401 -0.12022032 -0.13124484 0.077740386 -0.14658065 0.13269314 0.10431159 0.07197946 0.14175569 0.08346724 -0.101105064 -0.10915122 0.10872654 -0.10030799 -0.07920433 0.11603979
guys 0.01604192 0.011954343 -0.053796817 0.024768168 -0.076781824 -0.0061826995 0.0336723 0.009815738 0.0042029964 0.058500823 -0.09750807 -0.046679713 -0.0022850991 -0.013322628 -0.05727329 0.04685491
wants 0.044923555 -0.024008228 -0.062624566 0.077675045 -0.09244872 0.08073892 0.02463535 0.086604215 0.09596272 0.019383622 -0.07752755 -0.051581606 0.050881643 -0.022360455 -0.05422055 0.028973661
works 0.101614326 -0.064581156 -0.066015474 0.109436475 -0.11466358 0.108905904 0.13200556 0.0363408 0.14799935 0.088889755 -0.11828263 -0.04345208 0.15421855 -0.056454033 -0.053191375 0.10265196
behind -0.024507735 0.024676878 0.09351615 -0.016179511 0.048656084 -0.053874392 -0.10834445 -0.021456696 -0.06710014 -0.09846446 0.102142304 0.07923313 -0.104029186 0.033250585 0.10880069 -0.059377953
tries -0.04112311 -0.067150734 0.055354122 -0.0052408497 0.06610615 0.03692779 -0.043277588 -0.027852887 0.030346649 0.0074327854 0.06245494 -0.039632473 0.019644517 0.024560807 0.06332376 -0.01765372
art -0.05389796 0.09492344 0.00855605 0.004455216 0.10695113 -0.09898673 -0.07889849 0.002800499 -0.0665231 -0.020797275 0.09039046 0.035783306 -0.11975083 -0.089550495 0.03242258 -0.062012367
side 0.0287846 0.025949737 0.015787205 0.024628205 0.016331732 -0.02164076 -0.016350878 -0.02309783 0.040083136 0.059783686 0.0022890656 -0.05966891 0.02832106 -0.06625048 -0.013523548 -0.011858172
game 0.043552853 0.05969194 0.0040781503 0.053837355 -0.051110942 0.017905723 -0.028590834 0.046826627 -0.014776049 -0.014278934 -0.044102963 -0.020057417 0.063638255 0.030377645 0.017602358 -0.004780804
past -0.0330156 0.07379717 0.047891118 4.735418e-05 0.045278795 -0.08703925 -0.110953376 -0.10537574 -0.03362881 -0.03030027 -0.031235598 0.06939414 -0.056007728 -0.01292176 0.06961249 0.004644522
able 0.054862157 0.016139742 -0.050895978 0.0550505 -0.039986875 0.05114089 0.026048278 0.0141552035 0.051010005 0.025979085 -0.020737406 -0.09417439 7.493751e-05 -0.00085016387 -0.011538814 0.023725595
b 0.08847493 -0.023669211 -0.092801586 0.047979865 -0.048127126 0.035783272 0.040639505 0.08385353 0.11783859 0.031855088 -0.0324497 -0.02144291 0.088937074 -0.045633357 -0.10710788 0.061990876
days -0.10648466 -0.026795018 0.113114536 -0.0990339 0.04424987 -0.030049456 -0.11962999 -0.038264956 -0.10545421 -0.058885686 0.04855038 0.0730414 -0.042337835 0.07606999 0.11770987 -0.11324086
turns -0.038490944 0.06569741 0.037407946 -0.057162344 0.06555886 -0.055870853 -0.0110524865 -0.035862107 -0.07772346 -0.08420801 0.044761278 0.045183983 -0.023112822 -0.01569682 0.05339577 -0.016057635
