9996 16
영화 -0.018321501 -0.0017611335 -0.05631946 -0.027810628 -0.12533896 0.13672094 -0.0049737897 0.05653976 0.026487479 0.06050668 -0.05288558 -0.030540379 -0.110846795 0.045012344 0.047051128 -0.0714151
다 0.09344551 2.4482963e-05 0.010880528 -0.022786982 -0.0024209488 0.0066967984 0.014166806 -0.082026355 0.034411933 -0.04202108 -0.028193986 -0.024374932 -0.041669182 -0.06264316 0.017521564 -0.013562351
고 0.12143409 0.022294585 -0.0203325 0.042643785 0.08685525 0.03865519 0.015881443 0.01313418 0.007974742 0.024450412 -0.09455097 -0.03738868 -0.012185642 -0.075207524 -0.030794721 -0.020176906
하 0.016773155 -0.036681183 0.0012448321 0.004597433 0.045171753 0.032784674 0.02816607 0.03706074 -0.005406314 -0.06292922 -0.028689744 -0.03298833 -0.012372257 0.056772973 0.038211875 -0.05464269
을 -0.0017477573 -0.021814914 0.016266573 0.01751784 0.06584112 0.006052189 -0.023368146 0.016776143 0.018446922 0.01694224 -0.03247809 -0.014201158 0.11448431 -0.037271135 0.026454728 -0.02364088
보 0.0823018 0.017394198 0.003699968 0.053258106 0.0022175333 -0.0056389063 -0.025716938 -0.017988244 0.015851123 0.045299005 -0.0488622 -0.026188537 0.044816468 -0.110669866 0.001553235 0.0052156383
게 0.03937541 0.012481979 0.024487615 0.023509897 0.05927819 0.073681414 -0.07759841 0.022235451 -0.049839966 -0.022221962 -0.049369387 -0.016081551 -0.06473031 -0.035133447 0.0072422368 0.06215419
지 -0.086519584 -0.017350307 -0.020954821 -0.03785332 -0.03893956 -0.13217081 0.023069816 0.0841167 -0.09616576 -0.05183532 0.031945646 -0.019763524 0.1263033 0.19595015 -0.040429324 0.011212749
있 0.039465424 0.032181222 -0.009188341 0.03953067 0.0070363125 0.042509302 -0.047590107 0.12776716 -0.013496061 0.034927644 -0.104378305 0.041628513 0.021940582 -0.06654473 0.042896513 0.08293745
없 -0.14826103 -0.17690387 0.040419016 -0.031188972 -0.0595011 -0.02629945 0.13135506 -0.12624866 -0.19531211 -0.10035613 0.18333647 -0.16665447 0.21476674 0.36857978 -0.04436507 -0.10965708
좋 0.12112047 0.12261424 -0.0056505487 0.09636831 -0.08433823 -0.0025510401 -0.045987446 0.097410046 0.013988295 0.098077625 -0.16772947 0.1820714 -0.3735237 -0.1675086 0.11114679 0.11170342
나 0.0041421703 0.012503472 0.014126873 0.05131802 0.095349856 0.015473737 0.040790137 0.07845622 -0.010631739 -0.034386963 -0.04892468 -0.040147815 0.16925626 -0.08362308 -0.061932873 0.0071387063
었 0.031092077 0.06706557 0.011775946 0.05740095 -0.010349703 0.06367466 -0.042623904 0.07253885 0.04274955 0.022125918 -0.039250493 -0.048089497 -0.04519454 -0.12372253 0.054036234 0.0036216707
만 -0.015030206 0.039835744 0.054681778 -0.13587555 -0.15313356 0.16813274 -0.0011454695 -0.0071516554 -0.03978069 -0.07855774 0.10382436 -0.08513071 0.034497287 -0.025972042 -0.09691629 -0.098254025
는데 -0.12802294 -0.024143238 0.02841958 0.15959392 0.22847268 0.0057387147 0.0026882126 0.10744749 -0.038995128 0.050123557 -0.04159172 0.032478567 0.15018305 0.026076032 0.034074485 0.12622072
너무 0.0020787867 -0.26687133 -0.08855494 0.14337745 0.29088417 0.039069626 0.08687457 -0.26796 -0.1266268 -0.060039446 -0.1706373 0.04099546 -0.074058 0.11464668 0.06689946 -0.0072380845
봤 0.016112024 -0.033847522 -0.004997916 0.1276957 0.09032102 0.073710166 -0.027081834 0.07081624 -0.055945657 0.050304513 -0.0982639 0.030973583 -0.13126376 -0.014035151 -0.0052663195 0.00896527
적 0.029034153 0.009853457 -0.06629895 0.0015816344 0.113742776 0.032862972 -0.04045284 -0.0027799734 0.039432187 0.038963985 0.01638867 -0.014332013 0.063001975 -0.005571434 0.027715925 0.018274644
안 -0.07614429 0.017532498 -0.001391747 -0.15233909 -0.14073978 0.13328186 0.09534897 -0.027123602 -0.08240149 -0.14802085 0.254944 -0.27263975 0.2131559 0.23705265 -0.07501377 -0.09485036
정말 0.06328146 -0.091761604 -0.043383863 0.15980928 0.28506732 0.0014852084 -0.018752217 -0.03713841 -0.0011982984 0.0393183 -0.11513049 -0.003917641 0.011584741 -0.06690831 0.1049426 0.053803645
로 -0.019229243 -0.023398263 0.036016274 0.0033786257 0.12519035 0.05214956 0.07340752 0.060880605 -0.021626204 0.030192787 0.027043626 0.007014115 0.100536756 -0.0275532 -0.08749043 0.003515104
것 0.04203639 -0.010377559 -0.04707507 0.06671628 0.012521305 -0.0743234 0.016417613 0.029660935 -0.056431767 -0.009997436 -0.07098434 -0.012117305 -0.0023252815 -0.0021868849 0.015601973 -0.027101818
음 0.09413005 0.027933592 -0.061232746 -0.025371738 -0.07924559 0.107133 -0.031242285 -0.068661824 0.029384993 0.032773457 -0.059726357 -0.104899846 -0.08616239 -0.0032482794 -0.02296141 -0.051769726
아 -0.006121129 0.011960445 -0.05176927 0.0532977 0.086473934 0.04189949 -0.024707532 0.039877575 0.045444228 -0.037193544 0.012455317 -0.007605513 -0.0072254296 -0.0076924628 0.07827779 -0.0045655807
네요 0.1482486 -0.041227035 -0.05133288 -0.02763058 -0.07661996 0.09616669 -0.0126584135 0.0348156 0.020325633 -0.00205726 -0.0628669 -0.008238569 -0.1658949 0.008249379 0.02603517 -0.095094085
어 0.05689544 -0.045827862 0.009030667 0.0159133 0.054809377 0.018414885 0.00262031 -0.09187952 0.014122323 0.013388866 -0.07362911 -0.08256485 0.04334905 0.007759823 0.015807122 -0.01879204
재밌 0.2159152 0.23650531 -0.16418844 0.22357635 -0.1689583 -0.13375403 -0.25433207 0.22373846 0.17263074 0.17633204 -0.23185772 0.124499515 -0.27351516 -0.32744905 0.18239053 0.21944661
지만 -0.21364176 0.0050610993 -0.08055439 0.2101588 0.3590512 -0.27635887 -0.0043586832 0.1532439 -0.1275019 0.0329459 -0.038843032 -0.022229364 0.42261195 0.1228999 0.16908419 0.16477416
같 0.017550152 -0.044123787 -0.02391477 -0.03267354 -0.05036078 0.03405853 -0.01387747 -0.056264177 -0.03281753 0.021547752 -0.0070169405 -0.0313835 0.0047501056 0.08925252 0.031960167 0.015142345
진짜 0.05405796 -0.08372214 -0.058599472 0.1753579 0.14253797 0.007434355 0.029234333 -0.07826935 -0.04158334 -0.0012988686 -0.06569603 -0.05657466 0.052365728 -0.03482183 0.06741973 0.049478054
에서 -0.0066858423 0.033690702 0.021456871 0.08396918 0.052599866 -0.03993875 -0.0014321504 0.08327079 -0.030848157 0.0772046 -0.03148007 -0.025135022 0.084371045 -0.017667377 0.08235653 0.03971181
했 0.01808212 0.006242584 0.037925918 0.01672113 -0.010102521 0.07367086 0.014771916 -0.017954756 0.014454395 0.009118887 -0.020974888 -0.027859148 -0.020979233 -0.0021335697 -0.046949152 0.022584246
기 -0.04862548 -0.016002234 -0.017427009 -0.061871447 -0.05401886 0.035166256 0.03572629 -0.0048795566 -0.011806849 -0.08316754 0.0010808236 -0.07331334 -0.031770863 0.053056993 -0.0015845255 0.0010238836
네 0.0553955 0.07380798 -0.05731768 -0.015900958 -0.052421067 0.049268894 0.032730088 0.010488949 -0.007664518 -0.054748476 0.016411996 -0.08412014 -0.0045388965 0.020615103 0.03946055 -0.10027414
않 -0.17058335 0.034999937 -0.0411067 0.07090163 0.11113317 -0.16725035 0.11510004 0.122964524 -0.20557992 -0.10580456 0.11714025 -0.022066148 0.413133 0.18972552 0.05518024 0.072118506
점 -0.015409328 -0.028283473 0.06405586 -0.084929675 -0.11691567 -0.06443296 0.009314148 0.014527203 0.014433221 0.02361821 0.007732147 0.08142211 0.058605954 0.10695697 -0.0487371 0.024007406
거 -0.017695474 -0.05390911 0.093530715 -0.07022847 0.045346845 -0.03568998 0.042102937 0.043282066 -0.030236611 -0.018463597 -0.055972036 0.049763728 0.006863759 -0.035299923 0.0011669884 -0.010833869
았 -0.052630957 -0.024668194 0.023743328 0.07628476 0.022595733 0.025343664 -0.016399216 -0.012601401 -0.0546569 0.002837039 -0.063001424 0.03652723 0.06201466 -0.026232747 -0.018690906 0.05541605
수 0.06634725 0.12654461 -0.07463398 -0.05020108 -0.28776294 -0.03878961 -0.07405342 0.07617509 0.104962654 0.044211566 -0.014334414 0.0024484724 -0.096131206 -0.03662483 0.032076236 -0.0240234
되 0.13770632 -0.035821136 0.034991853 0.0040896875 0.09467271 0.0587671 0.0150799 0.020672848 -0.01784205 0.0028761849 -0.09726195 0.04355571 -0.13524723 -0.043044835 0.04938296 0.03747109
면 0.008161208 0.001074544 -0.013924965 -0.040035218 -0.089662336 -0.015116994 -0.062924385 0.027546825 0.008600418 -0.0021226734 0.07866179 -0.090992026 0.18578105 0.0005859976 0.02417702 0.03469548
ㅋㅋ 0.1034849 0.04105697 -0.052942038 0.0043929378 -0.13305299 -0.015461467 0.009219914 -0.007856758 0.012186739 0.025233509 0.042157937 0.0019160606 -0.04701766 0.008799737 0.042595364 -0.04029601
인 0.05908156 0.018443512 -0.014694165 0.015282317 0.02281149 -0.0076412666 -0.011378899 0.021707622 0.01683002 0.025157373 -0.09366573 -0.058532532 -0.10422985 -0.0049550827 0.023573006 -0.018058615
말 -0.01565435 0.030832997 -0.023085594 0.07188459 0.10221757 0.016106576 -0.012937213 -0.03349873 0.053862486 0.0057065655 -0.04318718 -0.02953955 0.10930876 -0.04573738 0.02272273 0.04289397
연기 0.09775838 0.06027819 -0.024538081 0.0782299 0.029566715 0.088096656 -0.03288527 0.01251051 -0.045938965 0.09387717 -0.14559102 0.014346137 -0.2606406 -0.08767735 0.080002695 0.014974716
주 0.01455435 -0.022641195 0.03452384 -0.06358855 -0.19737883 -0.07454232 0.019977923 0.035483204 -0.06678949 0.05142718 -0.037145637 0.08442127 -0.186093 -0.042528633 -0.041792598 0.013720642
최고 0.17943896 0.26931778 -0.27980825 0.46597052 -0.13243182 -0.27130976 -0.37126914 0.25333115 0.26971227 0.22910249 -0.15038899 -0.07454213 -0.13204698 -0.26480314 0.34075698 0.41394296
내 0.03189793 0.027374703 0.0013940295 -0.009630893 0.08868443 0.13627154 -0.013713205 0.022920897 -0.039101418 0.041669097 0.0019561937 -0.026261682 -0.011092396 -0.026427733 0.06865278 0.022395333
평점 -0.09852366 0.020227635 0.013920154 -0.03573408 -0.26120475 -0.0891757 0.0031369678 0.102250494 0.014450201 -0.03547645 0.05593495 0.12510422 -0.056152713 -0.008356793 0.012124615 0.018664801
이런 0.03954916 -0.10134293 -0.0032793542 0.0035880716 0.1464277 0.078228466 -0.007815206 -0.060961504 -0.042091962 -0.023090813 -0.049208425 0.032684322 -0.007061659 -0.018538794 -0.043932725 0.012212726
던 -0.032740545 -0.0012266788 0.02930513 0.058570568 0.1536599 -0.012037133 -0.074270286 0.102557905 0.016578112 0.068048574 -0.043797996 0.035975486 0.0065440065 -0.07912823 -0.0029230542 0.03012374
어요 0.15460354 0.036646217 -0.07937515 0.0043618553 -0.13427117 0.08903095 -0.06735723 0.03687034 0.016968632 0.07188865 -0.09120058 -0.07371499 -0.15726094 -0.10625024 0.04101949 -0.081935525
할 0.012635343 0.047783475 0.01966128 0.038347874 0.032499462 0.025318604 0.00787552 0.053451583 0.04881767 -0.014241713 -0.014997997 0.0037837985 0.11047735 0.0021469668 0.0004421532 0.059949312
왜 0.050249998 -0.009976738 -0.015992621 -0.10837747 -0.16685194 0.07548427 0.018202294 -0.037024044 -0.032934748 -0.09153999 0.15746641 -0.095327824 0.09518724 0.08848228 0.028292697 -0.06251031
겠 -0.06686106 -0.11830389 0.04932016 -0.03334979 0.018650703 -0.0011768361 0.07939612 -0.06702857 -0.12739788 -0.076737136 0.02407102 -0.016712977 0.05956234 0.13494408 -0.08329857 -0.08118695
스토리 0.033674777 -0.041683238 0.029002696 -0.019939445 0.037517693 0.07850896 0.076173894 0.011410785 -0.04840579 -0.037835363 0.041517247 -0.08681374 0.053464513 0.05851111 0.011857278 -0.07450774
해 0.015170331 -0.021273647 -0.034843642 -0.024658937 0.10934677 -0.002389602 -0.05548228 0.028132731 0.0785303 0.033864826 -0.010393151 -0.044098 0.07254021 -0.077066205 -0.00810957 -0.038254995
ㅋㅋㅋ 0.07099709 0.07217501 -0.051136993 -0.022973605 -0.090672 0.021999566 0.012397674 -0.016427016 0.0033277252 0.010133357 0.037871502 0.04901468 0.0054863854 -0.021230657 0.010767137 -0.095195875
습니다 0.13817999 0.08070016 -0.05291739 0.05974673 -0.03333862 0.10864928 -0.039723657 0.03980825 0.06714828 0.07889865 -0.073290005 -0.021045227 -0.083097056 -0.073177546 0.019318776 -0.05582588
듯 0.053200338 0.05029372 -0.04237341 0.02871517 0.024704685 -0.014711964 0.016129265 -0.02815785 -0.016176214 0.006051338 -0.044250276 -0.023588372 0.082576014 -0.049130794 -0.00930865 -0.029032623
아니 -0.20883319 -0.19989035 0.082295395 0.021736147 0.21571365 -0.003711697 0.13535106 -0.0017858554 -0.030585574 -0.048106723 0.048971828 0.009953761 0.3812459 0.09094884 -0.008160381 -0.022564022
드라마 0.19979225 0.13399497 -0.035158765 -0.0657252 -0.18075447 0.044379476 -0.012239613 0.00782255 0.019598689 0.021989904 -0.0012015976 -0.04168457 -0.19945252 -0.014032878 0.044225086 -0.043389328
생각 0.055876885 0.105825394 -0.17167304 0.044757754 -0.12137192 0.06399512 -0.08547852 0.008192904 0.13038598 0.039597586 -0.010796743 -0.16466184 0.040293686 0.05379246 0.10687359 0.051119216
더 -0.041383788 0.102236226 -0.03283584 -0.09801558 -0.12100699 0.09647519 0.0070538986 0.06894415 0.08219359 -0.0735339 0.03566193 -0.14572579 0.08592577 -0.013857607 -0.06112138 -0.051610287
그 0.07637021 0.010681064 -0.04910716 0.05659312 0.018588934 -0.06732683 -0.09447122 0.035043202 0.025618093 -0.0071624927 -0.03855515 -0.075373955 -0.05082465 -0.042630147 0.059978392 0.09470132
싶 0.09075754 0.042273078 0.021459503 -0.053165395 -0.15394749 0.0842431 0.03831124 -0.009026793 -1.8763705e-05 0.006916529 0.024127709 -0.002002114 -0.19920552 -0.029280115 -0.056458656 -0.082238704
사람 0.007631283 0.018300792 -0.023692869 -0.10788492 -0.16637585 -0.028526196 -0.042925682 0.13619673 -0.0008069398 0.005247476 0.10006928 -0.010831418 0.07873727 0.04900316 -0.04503188 -0.003441709
때 0.0021549107 0.04211229 -0.016858539 0.08220715 0.01823768 -0.024702638 -0.10645913 0.13583644 0.04615943 0.06339007 -0.058119033 -0.0694682 -0.0057707047 -0.051263586 0.012102066 0.04280702
감동 0.16949761 0.040363498 -0.118840754 0.2599957 0.117532976 -0.12845325 -0.14348209 0.15120283 0.013119903 0.2194179 -0.2339492 0.17844757 -0.2122439 -0.14803217 0.12748943 0.17558376
배우 -0.045248713 -0.055610962 0.0054081585 0.015500019 0.097923964 -0.023456728 0.073641844 0.029478213 -0.08010816 -0.025452351 -0.004678834 0.07314657 -0.044829715 0.08833289 0.0012379824 -0.05170374
함 0.046741102 -0.061026677 0.011260821 -0.005791758 0.026672475 -0.025295591 0.03276604 -0.021528516 0.020388963 -0.003626989 -0.0700043 0.042080637 -0.06823827 0.002863489 0.028032718 -0.0647924
본 -0.053071912 0.062748566 0.011057589 0.0742563 -0.006438273 -0.0153100975 -0.0053720633 0.050432205 -0.027392086 0.09302673 -0.04337002 -0.0006671916 -0.026992029 -0.0020351238 0.09893001 0.017820816
까지 0.019379118 -0.05650293 0.08423617 0.013492997 0.076095514 -0.024085287 0.0020862191 0.037555136 -0.052720726 0.014083468 -0.050073925 0.14567623 -0.029647216 -0.04598334 -0.0001252584 0.028678035
뭐 -0.014966768 -0.06457969 0.09616091 -0.16658805 -0.04429009 0.08836341 0.035099886 -0.104861915 -0.071666114 -0.06362523 0.17168844 -0.18174939 0.021628952 0.16836363 -0.14667425 -0.15073532
알 -0.03144546 0.023218997 0.025873974 0.049057484 0.07157653 0.031567648 0.001154526 0.005612309 -0.007659422 -0.026628375 -0.083948344 -0.012511119 -0.05589641 0.027510265 0.012540679 0.032003038
만들 -0.030314859 -0.051439878 0.032961998 0.039790813 0.17440698 0.043549426 0.059397846 -0.11019654 -0.1041702 -0.013059769 -0.10956939 -0.021573259 -0.17664672 0.0008932175 -0.0738645 -0.076927245
내용 -0.029828636 -0.18833609 0.09021151 -0.008273404 0.2506731 0.031010214 0.10696167 -0.11037909 -0.10155004 -0.11162181 0.0213142 0.008346397 -0.04534813 0.056554813 -0.04399784 -0.056946512
볼 0.109561004 0.046721395 -0.10527711 0.07385656 0.019262066 -0.0231348 -0.040367767 0.09265487 0.08049721 0.0777118 -0.12993526 0.12221964 0.014798049 -0.20494226 0.06939677 -0.0077041346
보다 -0.08695788 -0.012480324 0.007803304 0.12295854 0.18956712 0.020326914 0.0029836684 0.020475177 0.031259414 0.047245115 -0.05273935 0.024135524 0.1615864 0.05589023 0.031538308 0.083972506
감독 0.0052203503 -0.07436832 0.123319484 -0.11503013 -0.04411714 0.019762022 0.09099828 -0.14051536 -0.08941937 -0.110994674 0.072962865 0.012315193 -0.060694095 0.053204868 -0.071711086 -0.09877305
라 -0.078248 -0.02914262 -0.023514053 0.022300255 0.05614756 -0.033662647 -0.033246197 -0.0076623447 -0.026938971 -0.004611681 -0.034590036 0.017121637 0.12996909 0.020716963 0.03169269 0.015974399
재미 0.033543855 -0.14328924 0.04561536 0.116566874 0.24714519 0.060609117 0.02438208 -0.08222979 -0.18468235 0.030465553 -0.18754065 0.09092584 -0.19783764 0.0044406326 0.08901952 0.019697811
그냥 0.007293753 -0.13615902 0.113164864 -0.0061482587 0.17151009 0.0010711686 0.10155644 -0.17395233 -0.05696154 -0.061611596 -0.01886453 -0.027194947 -0.07428285 0.018899329 -0.026864225 -0.08597089
시간 -0.038886722 -0.046980068 -0.0053448956 -0.017321646 0.11156351 0.11613389 -0.005096342 -0.07948876 -0.0854966 -0.089564346 0.06326415 -0.15183996 0.02183727 0.011771696 0.029300615 -0.07001774
지루 -0.2987753 -0.24625175 0.23865668 -0.2591401 0.21010338 0.34126046 0.2512511 -0.36271712 -0.2476871 -0.32739455 0.2538522 -0.5923881 0.29775363 0.4547176 -0.24961096 -0.25884956
중 0.12591104 0.035913337 -0.020772055 0.100464426 0.1085565 0.0793808 -0.06089489 -0.036579724 -0.0006197471 0.024006117 -0.114212334 0.077266105 -0.07204026 -0.010655914 0.077627584 0.037747376
재미있 0.15796836 0.109278634 -0.13521099 0.30025858 0.13229011 -0.058243413 -0.18575704 0.20971541 0.14660083 0.19756663 -0.24921383 0.11223499 -0.11136162 -0.2474852 0.19931848 0.2182799
였 0.120196365 0.093781054 -0.024865963 0.0557789 -0.0724445 0.022802647 -0.040750246 -0.0015299162 0.114053205 0.08431325 -0.0059995325 0.0058730165 -0.03324381 -0.0981817 0.0098311985 0.04859787
잼 0.19525898 -0.102797516 -0.07696812 0.2650092 0.12826371 0.14428896 -0.09193361 -0.00317766 -0.03661471 0.083419874 -0.36427703 -0.0109700225 -0.26595205 -0.16517633 0.13645323 0.089849755
년 0.040086698 0.021595461 -0.063395135 -0.0072675627 -0.15278639 -0.049322624 0.0023081785 0.06799237 0.08526684 -0.0042413315 0.07696787 -0.021578865 0.048956156 0.0121146105 0.020554163 -0.028887236
사랑 0.0840184 0.17367782 -0.14328854 0.1406067 -0.13115065 -0.30153832 -0.14716189 0.1756298 0.10836389 0.08887268 -0.10387943 0.1885278 -0.13569595 -0.15683913 0.10462226 0.1692036
못 -0.124098554 -0.06022482 0.05460839 -0.124805436 0.023276195 0.004298378 0.13062122 -0.0542641 -0.109267294 -0.14064553 0.19119133 -0.15711978 0.29673195 0.1558591 -0.1562697 -0.17194639
재미없 -0.29135567 -0.40277246 0.2090416 -0.52364427 0.052059986 0.31966564 0.37135515 -0.31234437 -0.40092233 -0.46020424 0.41526783 -0.29435843 0.2132272 0.37989157 -0.43343747 -0.4742068
냐 -0.09699018 -0.1481054 0.123323426 -0.06289177 0.17320065 0.06781736 0.080898896 -0.10685039 -0.11964558 -0.080986544 0.11407563 -0.102549635 0.24205461 0.14761727 -0.08171915 -0.11990004
쓰레기 -0.36738858 -0.3067218 0.22014838 -0.35546714 0.17990148 0.34270146 0.34429196 -0.28941116 -0.29305154 -0.3441915 0.21375291 -0.36953238 0.20005271 0.3912236 -0.27395472 -0.37383422
서 -0.060750928 0.060053505 0.018417908 0.031172642 -0.07107705 -0.0732496 0.0010569835 0.04434552 0.066999316 -0.01055525 -0.0036093204 0.015537907 0.003012956 0.05742393 0.025400283 0.004911437
라고 -0.08364489 -0.08745958 0.026958425 0.022352073 0.13186677 0.077984616 0.08619606 -0.032989655 -0.09236347 -0.03506542 0.023218814 -0.027047481 0.15727453 0.09610473 -0.043101598 0.0036273885
니 0.027147291 0.028178217 -0.06254153 -0.0900966 -0.016797112 0.03688888 -0.04690706 -0.092020385 0.08633278 -0.0074080485 0.052547798 -0.12676015 0.09855348 0.003441987 0.009021279 0.018050388
면서 0.07418538 0.07883484 -0.053276874 0.0077758497 -0.0023771692 -0.08398541 -0.013340207 0.059442736 0.062350776 0.09251035 -0.030514156 0.04637133 -0.010610036 -0.024341742 0.06214627 0.06939416
다시 0.030717991 0.08045529 -0.065545894 0.17539352 0.1666236 0.060423918 -0.12975523 0.1491489 0.0773097 0.16844772 -0.14716779 -0.00016726405 0.018614056 -0.16010141 0.14919378 0.21272323
번 0.043502267 0.04462849 -0.0020767315 0.029589722 0.06400185 -0.0696495 -0.057241403 0.05888011 0.09001333 0.05667748 -0.0107795 0.04065292 -0.007978658 -0.10122117 0.07383406 0.041490372
나오 0.00047590237 -0.05380621 -0.035029534 0.0077144 -0.0029753528 -0.051849753 0.04029094 0.043117832 -0.037613038 -0.009329453 -0.023211887 0.0775409 -0.025465416 0.10774785 -0.019453453 -0.025884727
하나 0.021572508 0.005443282 0.032405455 -0.029575512 0.113197476 0.032084897 -0.026727855 -0.0135203125 0.026654202 -0.03983461 -0.014509359 -0.06639089 0.08132585 -0.075102344 -0.010672409 0.017957106
작품 0.078949064 0.07757388 -0.07783668 0.03193565 -0.055011544 -0.002006579 -0.08767138 0.022534765 0.10720077 -0.0060377847 -0.08666719 0.06103185 -0.01215513 -0.061566997 0.06344002 0.042777177
야 0.026915303 -0.01278639 -0.07346984 0.03885889 0.010782647 0.05591096 -0.05215399 0.009129587 0.03850489 -0.03151904 -0.08190472 -0.046885278 -0.029662259 -0.016646003 0.018794652 0.041186795
이거 0.08298974 0.049257588 -0.07709178 0.009673695 -0.034317426 0.0038122134 0.013643896 0.009116906 -0.018898377 -0.042782515 -0.016038345 -0.09366736 -0.06462749 -0.014348934 0.0014356837 -0.03985453
줄 -0.10955332 -0.06245993 -0.03962872 0.018873543 0.07439085 0.017401181 0.045863044 0.020031704 -0.005711393 0.018196622 0.04098398 0.010071395 0.10478817 0.032361727 -0.0029891296 0.04008035
해서 -0.0024241416 -0.03841479 0.037363544 -0.043624017 0.0119906515 -0.028877085 0.07372909 0.019858453 -0.07500389 0.030084172 0.031645194 0.089546084 0.0039472575 -0.08574968 -0.036896814 -0.014023179
남 0.0050310045 -0.036344543 0.00046883326 0.010358492 0.10157016 0.08191634 0.012359196 -0.07451816 -0.083994634 -0.0065022404 -0.06716959 -0.03218951 -0.03885108 -0.047850523 -0.008194307 -0.06537086
마지막 0.09547563 0.15138179 -0.06298714 0.045426182 -0.13701828 0.020163827 -0.089314684 0.050112348 0.11584672 0.0853623 -0.014388846 -0.048823886 -0.053347252 -0.027594857 0.072815314 0.045590434
끝 0.048168916 -0.038568843 0.0025650596 -0.09272437 0.028241755 0.14050892 0.035275772 -0.045258112 -0.020194266 -0.09167097 -0.008793617 -0.0762026 -0.13264155 0.008427908 -0.07168088 -0.042816058
정도 0.05976776 0.009928176 -0.10689616 -0.01129672 -0.016658261 0.02477334 0.023742188 -0.017349735 0.055824947 -0.09159345 0.09076428 -0.111738384 0.06140271 0.073843375 0.045246813 -0.021054884
이건 -0.15113412 -0.21276708 0.23058556 0.07183652 0.5921046 0.04032789 0.17243019 -0.14979616 -0.15781106 -0.06246645 -0.1760333 0.06446609 0.12375714 0.08252029 -0.09221906 -0.0029490395
액션 0.028384356 0.003850074 -0.0061709434 0.08873491 0.025010368 -0.04306208 -0.015155296 0.09410671 0.062247377 0.07092291 -0.028773857 -0.008646308 0.019638397 -0.05610409 0.08054815 0.047620803
개 -0.07788379 -0.09356578 -0.008299269 -0.015152819 0.024474695 -0.011390319 0.019145666 -0.108526506 -0.044958763 -0.019906983 0.024305116 0.0029020454 0.05364576 0.06170219 -0.03980229 -0.04884449
임 0.06589162 -0.0065557817 -0.006303942 -0.010806819 -0.08944132 0.0028951722 -0.0013417514 -0.011993737 -0.001849893 0.049347643 -0.0745797 -0.025056738 -0.04017159 0.009608183 -0.024706526 -0.037366327
건 -0.070533775 -0.1167912 0.040833354 -0.055647504 0.042133596 -0.01989923 0.06872868 0.026368551 -0.059902206 -0.063900605 0.01817967 0.004431462 0.04728905 0.1211282 -0.033969056 -0.033931747
기대 -0.086292215 -0.042211715 0.071291074 0.033690225 0.097419724 -0.06255916 0.037520297 0.029113134 -0.120121114 0.07250842 -0.09906748 0.17517789 -0.10822151 0.0791069 0.012964518 -0.017295033
다는 -0.08147588 0.05708986 0.043283936 -0.041274957 -0.02421785 -0.018714197 0.028504035 0.104554094 0.07968136 -0.07742862 0.08004677 0.008883253 0.13861904 -0.014700392 0.019307759 -0.029059649
입니다 0.124263346 0.060667716 -0.046544276 0.071329124 -0.07425068 0.03194832 -0.027221669 -0.024785483 -0.029874954 0.06382327 -0.060981218 0.0059399796 -0.12969609 -0.05121439 0.02534701 -0.039860655
라는 0.027827878 -0.044443607 0.009942589 0.018020125 -0.07161186 0.046282712 0.0042719017 0.022232076 -0.0256765 0.0005250254 0.0489519 -0.11247214 0.0827633 0.0513698 -0.018990017 0.0011965501
완전 0.047487233 -0.13866885 0.03955475 0.23101628 0.46402776 0.13603878 0.022188127 -0.09175531 -0.11204922 0.09546887 -0.22709693 -0.1537215 -0.00048680953 -0.05076491 0.051328916 0.0866228
참 0.06018794 -0.031449825 0.041754086 0.009842556 0.107544556 0.109197065 0.023384584 -0.093936086 -0.04243972 -0.051816575 -0.08996026 -0.13113676 -0.025912853 -0.003223864 0.06047098 -0.054865967
많 0.022903325 0.11846038 -0.15361789 0.064295284 0.055500053 0.008477076 -0.076911874 -0.05004231 0.10636106 -0.013957611 -0.013558652 -0.19961214 0.21428451 -0.037493344 0.091049686 0.013159153
ㅋ 0.11774522 0.023103872 -0.051827043 -0.144448 -0.13127741 -0.04912938 0.04869225 -0.038681425 0.041492328 -0.030371336 0.06743155 0.073765345 -0.054000117 -0.017032403 0.010480022 -0.000887846
처음 0.015533435 0.08538984 0.0292117 0.006275274 0.06968649 0.17045593 0.008992048 -0.038273174 -0.0050128633 -0.0129233785 0.0028542338 -0.08861507 0.0021612844 0.020388018 -0.0042076227 -0.069635086
장면 -0.028652612 -0.017966168 0.030542657 0.035144895 0.030364785 -0.003546371 0.053207558 0.038084485 -0.030336257 0.006444614 0.057011824 0.029423611 -0.037036475 0.019850308 0.027684156 0.01803148
다가 -0.09352819 -0.2215943 0.123979844 0.024165483 0.37295592 0.045329854 0.14216734 -0.15203048 -0.10899965 -0.061787356 -0.013505123 -0.076824054 0.05536571 0.079416215 -0.031785432 -0.020384593
아깝 -0.15598543 -0.18976305 0.10874381 -0.2468917 0.08683037 0.1709394 0.21943365 -0.1823865 -0.16766748 -0.2616831 0.16758104 -0.19261476 0.16428633 0.17146656 -0.21651833 -0.28557423
으면 -0.018374307 0.09135685 0.042104684 -0.11375059 -0.17522548 0.016313931 -0.05785608 0.08470843 -0.014087206 0.007950089 0.119097814 -0.036953438 0.03595139 0.013017801 0.01936698 -0.068442106
모르 -0.10706486 0.007699424 -0.057457536 0.09291839 0.14259501 -0.036097065 -0.053185705 0.020531135 0.012744487 0.0010247 -0.058712788 -0.012099899 0.058073066 0.10807293 0.083837315 0.08665919
지금 0.06816264 0.09643956 -0.07812429 0.07431284 -0.020980475 -0.0749209 -0.033664823 0.07446882 0.066887945 0.024342956 -0.021302579 0.027510453 -0.006341785 -0.111868046 0.02922016 0.051686678
이렇게 0.036159627 -0.154122 0.0147725735 0.11441765 0.33456352 0.021465005 0.0988578 -0.02697851 -0.09731582 0.012744805 -0.1496689 0.07418414 -0.04806705 -0.012347742 0.009004713 -0.020212194
분 -0.09690279 -0.047059834 0.017285617 -0.07114988 -0.13440289 -0.07975988 0.07173789 0.023001457 -0.038256824 -0.05352443 0.09313833 0.08589913 0.022622049 0.11996187 -0.04439665 -0.0833476
돈 -0.2213482 -0.16365345 0.12407853 -0.17349857 0.09313536 0.15365286 0.20635067 -0.07654919 -0.12096726 -0.156676 0.2127262 -0.096704274 0.11690106 0.1869846 -0.20001863 -0.19185604
이게 -0.11646991 0.015222381 0.042766515 -0.078981645 -0.01562493 0.021927739 0.087467335 0.054149386 -0.087788224 -0.060210418 0.023353383 -0.04162071 0.08516215 0.021765761 -0.045472264 -0.10055544
ㅠㅠ 0.07741991 0.117377736 -0.10252931 -0.027836982 -0.091294274 0.0027417976 -0.021550909 -0.011230731 -0.011040419 0.050202824 -0.078979276 0.029545084 -0.15215988 0.007231969 0.017438907 0.019748857
성 -0.00537098 -0.036721263 0.025903702 -0.032377917 0.056508604 -0.050189573 0.11138495 -0.021530394 -0.03577652 -0.018359339 0.05917281 0.108413175 0.022264063 0.030453688 -0.02050973 -0.028556578
느낌 0.07968914 -0.012970587 -0.059461713 0.002116617 0.006702069 0.15126655 0.036051877 -0.037475597 0.022143973 -0.06346378 -0.052894227 -0.12708062 -0.05666014 0.0109893875 -0.032285806 -0.0729938
이야기 0.03021064 -0.04165059 -0.04496129 0.117577404 0.07071224 0.068252526 -0.008511193 -0.0938966 -0.0425642 -0.0034290312 -0.10704748 -0.05652809 -0.030113326 0.032691237 0.007357512 0.06764827
일 -0.045288812 -0.005853751 -0.08860943 0.07092784 0.0039579384 0.019930663 -0.01251736 0.0017564787 0.017433789 0.05263275 -0.0040664882 -0.00045030488 0.11756676 0.040807895 0.019162245 0.08248017
최악 -0.31365308 -0.52593786 0.30323395 -0.52869344 -0.013930636 0.4060748 0.5192515 -0.63801295 -0.55240965 -0.38695398 0.17902552 -0.18147372 -0.13283134 0.38416857 -0.52679974 -0.52984095
된 0.047630906 0.07129413 -0.057881884 0.032525267 0.006760614 0.0051517854 -0.07961681 0.026483022 0.018352346 0.008427705 -0.012060359 0.02494248 -0.119653374 -0.059295356 0.00028831314 0.060094934
시 0.003432257 0.05023671 0.011460112 -0.08028435 -0.13394307 -0.06428871 -0.045791 0.07229567 0.045304228 -0.04694751 0.11066002 0.07704788 0.04932344 -0.057328217 -0.023715535 -0.0003373006
봐도 0.2608153 0.104741104 -0.12612854 0.1333024 -0.046562664 0.098811276 -0.05509272 -0.024032706 0.09230896 0.075743906 -0.1682597 -0.13071907 -0.20879754 -0.08635552 0.06069122 -0.03194761
님 0.10240957 0.09766435 -0.057901114 -0.009868714 -0.18448316 -0.06319111 -0.09525354 0.14402851 0.12952638 -0.015645254 0.030877821 0.07861831 -0.09787587 -0.035854854 0.02282264 0.07212735
어서 0.07478672 0.03258332 0.01190176 0.034158733 -0.027573733 0.098509446 -0.058780283 -0.030037211 0.04341679 -0.0013553428 -0.025002897 -0.17023984 0.038100317 0.014800327 0.012366621 -0.009148622
애 -0.003195857 0.036210343 0.08406912 -0.060920384 -0.12970027 -0.005739334 0.027948836 0.02464687 -0.028278908 -0.027030136 0.13756703 0.035606433 -0.040657036 0.07050122 -0.079070464 -0.10935537
편 0.039939635 0.069663934 -0.00978795 -0.10098529 -0.19304988 -0.069158606 -0.0032949885 0.10331563 0.01688802 -0.0047447463 0.09313932 0.043714028 0.043694865 -0.023834074 0.0049519194 0.009775255
다고 -0.15403147 0.012813353 0.1038576 -0.10783578 0.17185432 -0.12623155 0.10720664 0.17277531 -0.06480029 -0.08930718 0.12902622 0.12199955 0.32598227 0.04176749 -0.09083593 0.035012696
넘 0.04380847 -0.07245527 -0.003320648 0.14498636 0.28867105 0.043928474 0.0008583317 -0.11623151 -0.031600825 0.05125507 -0.13514373 0.019846918 0.012337926 -0.054506134 0.097594306 0.054062247
인데 -0.05628995 0.050032806 0.028066576 0.01324512 -0.018296355 4.378651e-05 -0.033485275 -0.040240634 0.06965455 -0.009569761 0.11910884 -0.23510815 0.15607984 0.087977044 -0.02060783 0.052345686
이해 -0.0881355 -0.021194316 0.016212381 -0.041726306 -0.03975688 -0.025287218 0.03006719 -0.030687679 -0.011880595 -0.0014124301 -0.00526873 0.092112646 0.025027126 0.0239945 -0.03893936 0.046494722
전 -0.04286693 -0.014701715 -0.052633464 0.048989207 -0.025522707 -0.019932847 -0.054069735 0.09432259 0.054236807 0.027824532 -0.061278485 -0.054747865 -0.0034386755 0.021430325 0.07079787 0.067090064
별로 -0.22908248 -0.2628468 0.23816569 -0.3709235 0.151488 0.3721934 0.27828294 -0.23588191 -0.2153042 -0.26669717 0.19702247 -0.34850457 0.15234718 0.25970587 -0.28260085 -0.37822092
걸 -0.0036979634 0.0129822 0.06656417 -0.044724736 0.048420746 -0.042685527 0.00063336024 -0.035409216 -0.027383806 -0.034846462 0.022777645 -0.03028629 0.11515485 -0.0033218914 -0.058446206 -0.010532201
그리고 0.07202925 0.020654088 -0.038740687 0.12161036 0.06686438 0.07451321 -0.0042946795 0.015157065 -0.03264149 0.12370697 -0.16046873 0.08266809 -0.19869177 -0.074257255 0.029704407 0.047449186
명작 0.22660083 0.31602535 -0.23842269 0.17846712 -0.3288465 -0.22595298 -0.27643126 0.28446823 0.329158 0.24892396 -0.16695794 0.14774683 -0.22101611 -0.2689748 0.20147446 0.20338714
난 -0.009476549 -0.023898166 -0.08386124 0.14357413 0.08944641 0.0978619 -0.0051553072 -0.04659136 0.088147886 0.119100735 -0.13431594 -0.05264099 0.024009587 -0.10468525 0.13206351 0.07420122
또 0.06755019 0.068580076 -0.027336702 0.060161203 0.010835395 0.05036119 -0.06647394 0.068235785 0.14352858 0.10793041 -0.11727746 0.055503212 -0.011949058 -0.0693348 0.059107143 0.045366023
역시 0.14818065 0.044460837 -0.0930794 0.05550665 0.005051408 -0.029666834 -0.07551099 -0.06779003 0.037486155 0.076574355 -0.06581058 0.07265987 -0.17279391 -0.08959742 0.09081407 0.079747766
여자 0.030782687 0.038197156 0.036315296 -0.12106381 -0.11325663 -0.031070258 0.079115905 0.056627255 0.0056406246 0.025377102 0.039817773 0.10520396 -0.047026698 0.003184353 -0.076985 -0.046019666
한국 -0.03462162 0.012152144 -0.024702549 -0.061552074 -0.13934621 -0.057458546 -0.042363152 0.037870973 -0.010994694 -0.016850555 0.058248654 0.025775624 0.0033162595 -0.005057286 0.048386402 0.02480627
이상 0.06674222 0.00598041 -0.038442716 -0.055052377 -0.08062889 0.09150397 -0.027008638 -0.0073961653 0.017699966 -0.00049392093 -0.014676944 -0.03203227 0.060538802 0.092504516 0.04351136 -0.0071859793
는지 -0.017514456 -0.032001454 -0.017014628 -0.09817627 -0.046985183 0.07002685 0.117614344 -0.05006629 -0.12891887 -0.062747344 0.11029537 -0.06778273 -0.002231939 0.17260312 -0.055140343 -0.06023949
많이 -0.029107848 -0.09197546 -0.042266738 0.018455856 0.06725428 0.056112386 0.010722414 0.027159927 -0.013830883 0.06075473 -0.07420583 0.01941668 0.093341 0.022897242 0.034328565 0.021521509
에게 0.036440086 -0.015023989 -0.0749177 0.040082924 -0.11097595 -0.07767181 -0.016740946 -0.00050644344 -0.026827034 0.03004292 -0.08450702 0.0875085 -0.027301647 0.04793992 0.034857515 0.010216411
부터 -0.04509633 -0.05077538 0.062970474 0.0652608 0.26252255 0.091094464 0.030411568 -0.041566234 -0.060531516 0.064079404 -0.06872107 -0.12237861 -0.047615048 0.030425679 0.024765687 0.0074329767
주인공 -0.0043783505 -0.05711858 0.0055313767 0.02394524 0.071189515 0.11067048 0.057836283 -0.0781319 -0.12712258 -0.00314856 -0.0112128975 -0.10611641 -0.046602797 0.086292006 -0.062930994 -0.041495476
받 0.025800696 -0.023593653 -0.017524695 -0.022360757 -0.04744283 -0.0050784885 -0.04187149 0.013170716 0.008446122 0.005625132 0.024717743 0.0012575719 -0.016697703 -0.030783638 -0.02304914 -0.040347498
합니다 0.055462334 0.021275533 0.0123450905 0.051331535 -0.04232573 0.009385082 -0.033602364 0.072427884 0.012796004 0.0024869225 -0.07244808 0.06282599 -0.08278581 -0.03298838 0.08044885 0.05593593
대 -0.011116275 0.0005745016 0.06919405 0.007909786 0.17784709 0.026454879 0.047158234 -0.013807491 0.008218893 0.011999816 -0.04687815 0.029947441 0.049243283 -0.016425343 -0.048280075 0.007145001
두 -0.03439873 0.048804116 -0.032710828 -0.0049745427 -0.0028237747 0.00651143 -0.04902167 -0.015928142 0.018763766 0.012503671 0.062186502 -0.08917654 0.05757908 0.09984353 0.051228344 0.03238939
우리 0.07585989 0.13476163 -0.047420837 0.10483858 -0.08557929 -0.07753125 -0.06577663 0.099838495 0.060103443 0.108538456 -0.046428844 -0.09766213 -0.02634946 -6.945498e-05 0.08019005 0.07596662
만든 0.0068742554 -0.0466382 0.090249814 -0.03265012 -0.073582776 0.025321225 -0.004508572 0.0135189295 0.016259382 0.022348493 -0.07197525 0.12057104 -0.19045451 -0.12687308 -0.017608443 -0.046047375
길 0.04126983 0.024265047 -0.02263141 -0.047981165 -0.1229515 -0.0194898 0.027193727 -0.009119835 0.04163371 0.038846772 0.082574755 -0.0018967711 -0.08233981 0.04015336 0.0063512097 -0.027225297
엔 -0.09888316 0.1177447 0.03494106 -0.03252086 -0.05627271 0.025170263 0.010580854 0.14733209 0.05775897 -0.095168434 0.1292087 0.03655041 0.12503827 -0.079859436 -0.04652991 0.01432599
살 0.04214927 0.020370703 -0.113075145 0.022165554 -0.11204715 -0.19869499 -0.002397759 0.12860888 0.05451703 0.036146432 -0.043914724 0.2696572 -0.020389672 -0.06081848 -0.0037533469 -0.0018124329
괜찮 0.2102452 0.16414094 -0.07835733 0.15754153 -0.08048294 -0.08482358 -0.092977695 0.18342863 0.16696428 0.14119485 -0.15309528 0.17192271 -0.14552318 -0.20947918 0.079112954 0.16247752
요 0.09484702 0.08614315 0.004240081 -0.03694145 -0.18065307 -0.008585181 -0.020168338 -0.041178934 -0.0018457498 0.040280435 -0.058320154 0.05439519 -0.11666962 -0.037350748 0.030647652 -0.010788951
기억 0.09886235 0.030877857 -0.0011277569 0.08897976 0.0590841 -0.003672525 -0.05232166 -0.013765218 -0.004545305 0.055798046 -0.16383544 0.03055091 -0.138702 -0.08779121 0.10944687 0.031354137
ㅡㅡ -0.09990819 -0.20770368 0.1418791 -0.28953192 0.09160597 0.1076775 0.11103722 -0.058692433 -0.10226938 -0.196541 0.15536714 -0.13679895 0.08697466 0.18776907 -0.17910807 -0.28210476
한다 0.08840427 -0.008561057 -0.0398555 0.13523072 0.043264914 -0.012304662 -0.03774647 0.0018873388 -0.039532997 0.016825205 -0.06837778 -0.019731892 -0.007217565 0.029589215 0.116413996 0.09324069
연출 -0.061664704 -0.10656223 -0.008733472 0.026920501 0.112946674 0.078855835 0.06338078 -0.0306463 -0.0262672 0.028728258 -0.0892516 -0.026942223 -0.054798566 0.096271396 -0.031885087 0.021905134
ㅎㅎ 0.13158374 0.120706744 -0.16064045 0.029942688 -0.20488258 -0.064057425 -0.070891544 0.10173924 0.17120148 0.1264773 -0.084004804 0.06479222 -0.1316459 -0.073212944 0.08384498 -0.0073005557
때문 -0.09209938 0.020387227 0.005259036 -0.069096334 -0.20873027 -0.0722213 -0.022716485 0.05726781 0.005951582 0.010525188 0.14715031 0.06820724 -0.059562072 0.12920068 -0.045243833 0.015272187
저 0.0023562983 0.057686668 -0.016822103 0.13037433 0.0560439 0.05507177 -0.017949421 -0.04628407 0.110530004 -0.008407896 -0.1381285 -0.11574408 0.108526014 -0.00081519294 0.048346605 0.082459345
이나 -0.122136205 -0.05408227 0.060387447 -0.017573684 0.073176354 0.07031098 0.01604436 -0.05088389 -0.03484105 -0.10723717 0.06789209 -0.11688085 0.087054186 0.09143471 -0.0887093 -0.023436068
재 0.13111244 0.07226456 -0.07760719 0.122988984 -0.07652669 -0.03457096 -0.120259844 0.018148791 0.045322884 0.119480975 -0.047185313 0.08949413 -0.16351771 -0.10062584 0.11566488 0.0969818
꼭 0.09236505 0.106665775 -0.15001619 0.12472641 -0.22829929 -0.1751213 -0.119919874 0.024889914 0.18188573 0.11641651 -0.17459413 0.081822105 -0.079342335 -0.006567973 0.17397264 0.1380539
며 0.04179972 -0.020637108 -0.038477473 0.06608398 0.14581195 0.062213708 0.022342326 0.07607735 -0.05170887 0.07373436 -0.064810075 0.03427485 -0.114751235 -0.061771464 0.006140536 0.012238254
현실 0.12460123 0.10394213 -0.08162383 0.11998923 -0.10291314 -0.07857877 -0.120458 0.07337383 0.18132678 0.035411775 -0.030865887 -0.016006425 0.015812889 -0.087821834 0.085255645 0.046097293
랑 0.019758781 -0.08703741 0.04040604 0.077696 0.13942917 0.09658716 0.07454714 0.013155559 -0.033732675 0.01982023 -0.049838066 0.064960614 -0.004287431 -0.015219414 -0.060844645 0.018430596
긴 -0.13668358 -0.1195824 0.0893136 0.0067145135 0.19418247 -0.0038213562 0.03660039 -0.045791876 -0.024647508 -0.045077693 0.09165431 -0.02706932 0.3375854 0.10637445 -0.07835502 -0.06498751
무슨 -0.0832285 -0.1414983 0.10725304 -0.10083132 0.07832154 0.07321722 0.1906969 -0.11682618 -0.14977042 -0.17735343 0.10998741 -0.13703932 0.03126631 0.14658439 -0.19176932 -0.12880228
내내 0.09489418 -0.07445091 0.010253038 0.0634809 0.17426115 0.11560144 0.0665186 -0.1275347 -0.08315019 0.02710842 -0.104970776 -0.13803098 -0.121870205 0.050911672 0.041843366 -0.07012169
죽 0.035129424 -0.033372574 0.024180451 -0.020666488 -0.011584871 0.046169862 0.006206875 0.008944071 0.028642932 -0.0059871497 -0.013688234 0.041512985 -0.07741663 -0.06740054 0.009904982 0.021568641
결말 0.007807519 0.05963508 -0.051915325 -0.021912316 -0.18331414 0.015719114 0.031134661 -0.04969531 -0.002454982 0.026142664 0.05586714 -0.027032979 -0.0061407536 0.011322061 -0.03375805 -0.05665117
남자 0.03264865 0.041201003 -0.07365983 0.021273917 0.034565527 -0.012649949 0.0014915833 0.045118973 0.04534308 0.044238694 -0.019257925 0.00310081 -0.08711889 3.7030626e-05 0.01860029 0.028240353
전개 -0.035684127 -0.0929884 0.117021084 -0.108955786 0.025702585 -0.025437953 0.06747737 -0.026450647 -0.107049875 -0.11333811 0.039042886 0.12164393 0.07404665 0.048655905 -0.055906504 -0.08700505
마음 0.063085265 0.035225645 -0.07916901 0.22558764 0.15568645 0.030183956 -0.14346993 0.077152126 0.092884086 0.12409342 -0.20416588 -0.14082246 0.07429371 -0.18480863 0.16282429 0.18012162
세요 -0.062478162 -0.017922403 0.00060781196 -0.036642022 0.07797644 0.029844118 0.0012698403 0.042104535 -0.020321911 0.03933253 -0.0049950653 0.052364867 0.018539961 -0.024661945 0.003453618 -0.030578334
소재 -0.1166906 -0.010273257 0.15239614 -0.0008378172 0.22057061 0.07782946 -0.0048917104 -0.06232308 -0.0061304276 -0.017305449 0.08711577 -0.03524458 0.16359648 -1.9715651e-05 -0.06312183 -0.06872424
속 0.01638716 0.028493239 -0.05413887 0.03134314 -0.020516202 0.011541917 -0.07514832 -0.06111071 -0.030336643 -0.019894516 -0.037004333 -0.13366386 -0.093889356 -0.036274757 0.041276712 -0.012744634
아서 -0.013075406 0.055006795 -0.041946787 0.036965653 -0.021119421 0.12898102 -0.027519198 -0.035266303 0.05757311 -0.007730659 -0.04048176 -0.090005994 0.018414913 -0.018095685 0.075329356 -0.051271357
공포 -0.038182653 -0.032037143 -0.020757094 0.024931597 0.02027492 0.024012567 0.065036714 -0.08210243 -0.05315983 -0.0070710373 -0.04673789 -0.0120876515 -0.104391225 0.0682566 0.029913584 -0.02553873
데 0.004995518 -0.11485979 -0.008883011 -0.05892281 0.064147264 0.0060613807 0.016340375 0.027178243 -0.049775884 -0.055183444 -0.052242476 0.13857698 -0.014560814 0.01908528 -0.08065441 0.0038369994
다른 0.0767984 0.096929155 0.0015511975 -0.036391374 -0.18448177 -0.04702729 -5.582406e-07 0.08620467 0.08463283 -0.055140365 0.08193741 -0.04959759 0.0522527 0.002812172 -0.025597518 0.0034328343
인생 0.04559571 0.17150447 -0.07695307 0.05924929 -0.12704493 -0.1924502 -0.12057738 0.21578833 0.15002343 0.050639186 -0.01003458 0.03843099 0.13448422 -0.07065135 0.11064178 0.10512869
씨 0.08378956 0.1058523 -0.02012006 -0.061324157 -0.2377146 0.056106027 0.041347902 -0.0058728703 0.027876614 -0.0467824 -0.005190656 -0.018508114 -0.07976654 0.030828506 -0.05203553 0.008061007
짜증 -0.22485991 -0.33412403 0.32686198 -0.24901167 0.19108512 0.17205802 0.24826868 -0.23214045 -0.35036004 -0.20966938 0.15995947 -0.058335226 0.12704152 0.2744641 -0.25270697 -0.2313441
뿐 -0.08179011 -0.10950882 0.100717396 -0.030751701 0.1440078 -0.020510042 0.06368538 -0.077826664 -0.08958938 -0.07088515 0.09609083 -0.056856286 0.12477642 0.053308673 -0.07327322 -0.05923518
짱 0.32365435 0.20694953 -0.13695928 0.15850034 -0.2158396 -0.2949127 -0.116731234 0.19199459 0.11536208 0.18872252 -0.17292975 0.28029045 -0.3572999 -0.24833874 0.12466045 0.13435702
은데 -0.12566437 -0.001042071 0.043247983 0.021435527 0.09635214 -0.026530806 -0.016668364 0.10591407 0.004540626 0.030948253 0.0058024535 0.039813973 0.14343423 -0.06047428 0.024593385 0.039766487
아요 0.15848139 0.15787716 -0.07313845 0.03296708 -0.10412911 -0.012132336 -0.05503009 0.049793907 0.05508325 -0.0099380305 -0.04086991 -0.0880359 -0.03253113 -0.019446194 0.05182594 0.049433026
아이 0.062469088 0.0771589 -0.07103489 -0.010892932 -0.12831426 -0.008559576 -0.029088816 -0.023639787 -0.013702168 -0.016352626 0.017132333 -0.09729 0.014049194 0.04359346 -0.015184173 -0.04259948
필요 0.28766805 0.3703701 -0.2180781 0.09332155 -0.3457506 -0.31958908 -0.21261737 0.42220905 0.36294436 0.16986063 -0.02840207 0.14492938 -0.047913086 -0.18315671 0.15170588 0.15026887
유치 -0.22578663 -0.24717897 0.22030316 -0.0852178 0.4236216 0.30227402 0.17677344 -0.22035441 -0.16539165 -0.11127079 0.06386311 -0.17636614 0.21291198 0.12867023 -0.13429388 -0.15530676
가장 0.12516539 -0.06443357 -0.01512747 0.13159382 0.17940971 0.17815916 0.012839099 -0.13583325 -0.01937034 0.03906482 -0.09763637 -0.23438722 -0.09999722 -0.04794798 0.071963325 0.050523162
음악 0.03790308 0.18795347 -0.045610756 0.051809065 -0.03460289 -0.019513078 -0.11648252 0.12857486 0.13927779 0.034821983 0.013509055 -0.09062248 0.03548301 -0.10256206 0.07609978 0.1311703
일본 -0.043404423 0.015291873 0.040968943 -0.081218034 0.03787088 0.0010939693 0.09758998 -0.08830554 -0.056931052 -0.03976136 0.07569286 -0.017228676 -0.005768112 0.09380372 -0.062944196 -0.029133651
낮 0.2330518 0.32091725 -0.21026525 0.14458673 -0.34643736 -0.17203373 -0.23820928 0.081182286 0.33259276 0.21609141 -0.13784912 -0.048919067 -0.11370413 -0.13258035 0.16756502 0.1452248
오 0.06594668 0.013570527 -0.048161432 0.0027786533 -0.05208862 0.08854194 -0.080311865 0.014706434 -0.0020439425 0.022737818 -0.050294332 -0.088371806 -0.089477435 -0.003699094 0.06862766 0.028704958
반전 0.07569956 0.06793298 -0.01946979 0.07580511 0.06689498 -0.039508056 -0.060996987 0.01517307 -0.004950839 0.0144833205 -0.0069948947 0.04329401 -0.02295808 -0.046577074 0.06114905 0.036893968
수준 -0.0759842 -0.13734862 0.15589042 -0.2552699 0.052979656 0.114643596 0.15971842 -0.109739125 -0.14623083 -0.13785718 0.13668029 0.025670018 0.01485797 0.10935982 -0.2036191 -0.18669406
웃 -0.0069576404 0.09289609 -0.018975856 0.08486106 0.01481989 -0.0062041176 -0.045021154 0.08501082 0.12965205 0.080249414 -0.09515493 -0.026942015 0.051902555 -0.05121365 0.051496938 0.073935
다니 -0.015474809 -0.008718485 0.02291254 -0.0073732766 0.02527491 0.0450228 0.037450444 0.053700894 0.07565833 0.023609385 0.0052354326 -0.047152467 0.033564743 0.022277083 0.030656524 -0.04614714
매력 0.012999916 -0.06638188 -0.018745108 0.17107739 0.23433313 -0.0779065 -0.07338345 0.07881875 -0.005350906 0.15031448 -0.24925944 0.21045497 -0.06675954 -0.123221494 0.09487347 0.116704136
별 -0.0020966954 0.0724916 0.05801351 -0.027114782 0.011161934 0.048250556 -0.003970571 -0.024905944 -0.059262395 0.02033544 0.065761834 -0.0653512 0.05031142 0.087632895 -0.038033042 -0.06702044
인지 0.082994916 0.042062666 0.00035596933 -0.06224026 -0.017660225 0.0790514 0.014219807 -0.05938904 -0.039187856 -0.05331133 -0.018559964 -0.09462043 0.0028193458 0.011252565 -0.035712264 -0.024573062
맞 -0.015041624 -0.12930687 0.1064474 -0.013406829 0.1250819 -0.03836367 0.05840762 -0.027668485 -0.09543034 0.029735899 -0.038402244 0.07250808 0.08173937 -0.018891238 -0.06503458 -0.06038954
가슴 0.15809543 0.03211061 -0.062603496 0.14377116 0.079715535 -0.050192717 -0.10785611 0.078701645 0.056952015 0.14398368 -0.18924357 -0.027157411 -0.14775793 -0.16572624 0.16966312 0.16828544
없이 -0.09723312 -0.07812491 0.016389238 0.077836186 0.39813232 0.14085415 -0.01478768 0.00508548 -0.06938964 -0.031067207 0.028285025 -0.106061846 0.2365399 0.07484529 0.00880024 0.036167324
원작 -0.06567728 -0.046540353 0.09190879 -0.16940619 -0.13070625 0.06080681 0.11640573 -0.023605956 -0.13336779 -0.058202624 0.09609424 -0.078025065 0.0783218 0.106360346 -0.16032805 -0.1568717
인간 0.03637961 0.07330763 -0.102454595 0.0982364 -0.04105846 -0.11226709 -0.15070996 0.062766835 0.1916134 0.036612865 -0.0065623717 -0.031574525 0.15742078 -0.006949345 0.11853765 0.04822986
굿 0.17592105 0.29145873 -0.18349272 0.26038694 -0.18984461 -0.176281 -0.30733398 0.26600364 0.2579338 0.23417512 -0.20658976 0.07321175 -0.19315651 -0.29656395 0.24359868 0.19118322
높 -0.032976072 -0.13904539 0.14506374 -0.067457534 0.043952618 0.036991354 0.17414516 -0.121745855 -0.1736551 -0.130332 0.040588412 -0.11291488 0.050910644 0.17235482 -0.15163319 -0.10563195
ㄷ 0.009762567 0.00083496416 -0.09208742 0.025816865 -0.005484501 -0.013669195 -0.07501361 0.018085279 0.027205897 0.042916212 -0.04240821 -0.030678289 0.019724999 -0.04801977 0.07946318 0.054540243
밋 0.068521366 0.13490865 -0.1683389 0.060851116 -0.068880565 -0.14177236 -0.1036141 0.14096788 0.1639174 0.114555344 0.0123020485 0.031379323 0.028547443 -0.11950525 0.11081407 0.12571113
만드 -0.008991406 -0.12054506 0.06635687 0.028423505 0.15637346 0.051687412 0.026254695 -0.02201718 -0.10692925 -0.036032308 -0.060056634 0.04996254 -0.0929383 0.0066825757 -0.01052432 0.012985909
눈물 0.23813948 0.14842887 -0.19065982 0.21336222 -0.20618872 -0.12360445 -0.14779198 0.11271992 0.17213243 0.20746438 -0.2429183 0.056569844 -0.22418848 -0.25898826 0.17602663 0.13268077
급 -0.0205331 -0.049487565 0.009449155 -0.044839635 0.045079865 0.10314603 0.086445935 -0.072161235 0.0004979413 0.00789172 0.034345 -0.007290622 0.01947593 0.03019945 0.016209025 -0.0583069
보여 -0.016803283 -0.055538297 0.032115187 0.031406607 0.13285963 -0.021784103 0.06427966 0.0066299695 0.037132338 0.034215 -0.032546658 -0.028332764 0.078193 -0.01534023 0.0076242387 -0.04475986
준 0.1118159 0.027608877 -0.04966558 0.004237593 -0.12611492 0.08777248 -0.0026783524 0.018832628 -0.015345354 0.05590503 -0.07095606 -0.026295424 -0.22149794 -0.013072356 0.023073116 -0.019681662
찍 -0.039593287 -0.13150555 0.08254348 -0.068151385 0.061112605 0.0061570588 0.11124991 -0.071127735 -0.131473 -0.04704452 0.09301601 -0.050319612 -0.1054522 0.029321443 -0.1521077 -0.06106906
인가 0.02417953 -0.042492785 -0.028382111 -0.03796818 -0.024686439 0.045867044 0.035293695 -0.014571266 -0.038477812 -0.08376326 0.06326634 -0.06368876 0.024234371 -0.034183644 -0.07131131 -0.06954718
노 -0.22344905 -0.21016201 0.24999984 -0.3375744 0.046101138 0.19687364 0.25928476 -0.21393564 -0.2977896 -0.35391665 0.3344782 -0.18362428 0.16738428 0.27481994 -0.30467868 -0.36497533
코미디 -0.0005804548 -0.042473793 0.034579273 0.02702421 0.06052281 0.07199035 0.027632704 -0.056614585 0.0018036561 -0.05639506 -0.022915602 -0.031445246 0.007116309 -0.010145658 -0.028214192 -0.048454158
신 0.014343907 0.06497225 0.007159049 -0.069529064 -0.29163647 -0.11459277 -0.008410297 0.17021689 0.08261381 0.04464086 0.06634239 0.13107423 -0.09194294 -0.019273212 0.0074856803 -0.015008366
용 -0.06840494 -0.08426928 0.021137876 -0.051791526 -0.055031788 0.048986375 0.09078925 -0.050323352 -0.053275928 0.0078044445 0.029888218 -0.040067118 -0.08457769 -0.010983961 -0.006473212 -0.05791938
모든 0.053076815 0.028548764 -0.050986316 0.08087093 -0.08007411 0.05194753 -0.09110968 -0.03187776 -0.007947793 0.025044957 -0.03085041 -0.05553286 -0.05025881 -0.0094028665 0.102049336 0.06264553
마 -0.0014559381 -0.052855726 0.06615678 -0.03545603 0.056045033 0.045659423 0.07968178 -0.04624308 -0.111291304 -0.03413989 0.04487363 -0.13375014 0.07497567 0.06200978 -0.02131683 0.004584011
화 -0.01875561 -0.06487026 0.069813296 0.021357907 0.009725235 0.06911835 0.010384396 -0.09545428 -0.09801719 -0.059593473 -0.054955278 -0.014231918 -0.033456147 0.07643517 0.0007406806 -0.030704236
추천 0.15082553 0.10852182 -0.12253246 0.068468794 -0.08385705 0.0067790016 -0.10959666 0.09406662 0.039534178 0.08766656 -0.15757315 0.06695395 -0.2105088 -0.12011515 0.15092379 0.058822446
아직 0.098890305 0.04134708 -0.021201806 -0.03002227 -0.1254491 -0.16492072 -0.037646554 0.1644463 0.04482337 -0.00432093 -0.0057767094 0.28994417 -0.0042783613 -0.05500115 0.06559841 0.04058141
아닌 -0.13884318 -0.09650146 0.0843284 -0.054159537 0.1845639 -0.032946758 0.09759607 -0.10699156 -0.068183534 -0.068387985 0.061408043 -0.10997812 0.3567584 0.09241617 -0.0072696125 -0.07163676
처럼 0.04430243 0.057000317 -0.021410283 0.010963552 -0.12000798 -0.06395457 -0.05490171 0.00072658836 -0.007623574 0.023323603 0.021722147 -0.011545532 -0.025660124 0.03228817 0.044598937 0.02904966
쓰 -0.10315232 -0.03573013 0.10872764 -0.10484905 0.00043071428 -0.013096922 0.103211224 0.013523324 -0.09717212 -0.064223826 0.13159429 -0.028857864 0.016938513 0.02529595 -0.11508762 -0.053066894
눈 0.00806013 -0.042603925 -0.053834505 -0.03198265 -0.0494854 -0.07759153 0.011302462 0.00240992 0.05266005 -0.016526178 0.1007373 -0.0937918 0.19650297 -0.027748043 -0.0107427025 -0.0012025511
자체 0.029374452 -0.0038924436 -0.03888653 0.025779156 -0.05593885 0.103874795 -0.015920673 -0.047466468 -0.09944946 -0.047636643 -0.04764602 -0.11942761 -0.09008343 0.056161612 0.03969604 -0.07134417
울 0.2491715 0.15712504 -0.16065875 0.120042875 -0.3386805 -0.17083146 -0.1147465 0.077951975 0.18773788 0.13622291 -0.074846 0.096190974 -0.25860125 -0.19069025 0.11825717 0.16332795
몰입 0.090718664 -0.0793555 -0.07591144 0.13498685 0.2714957 0.014092677 0.01183756 -0.04908493 -0.094605714 0.06852137 -0.2592315 0.018331164 -0.15794422 -0.1372665 0.121105336 0.13266364
대박 0.13246451 0.124331556 -0.12228464 0.1540245 -0.13649687 -0.13788621 -0.14422888 0.23805141 0.140921 0.20400606 -0.1823251 0.0967133 -0.058643308 -0.18810864 0.20323089 0.1693084
란 0.0058798823 0.07435363 -0.0137297 -0.0017587075 0.024447858 0.030418824 -0.07853126 0.051340856 0.08774964 -0.027322723 0.017381972 -0.09775535 -0.013246329 -0.092210494 -0.010891937 0.03289486
스럽 0.059380505 0.028770382 -0.07076312 0.08013014 0.015760347 0.10448845 -0.05383969 -0.012339413 0.08632267 0.051289473 -0.08579932 -0.15386559 -0.029190766 -0.0057439036 0.06674077 -0.017441345
몇 0.120457985 0.027806563 -0.07065108 0.011980389 -0.100617334 -0.12135545 -0.02981176 0.042806897 0.012320846 0.11587437 -0.046938047 0.18672095 -0.16915174 -0.124939226 0.04806954 -0.01870202
을까 0.020077761 0.0060100514 0.044504624 0.028821003 0.06465245 0.0687106 0.031886876 -0.077761725 -0.049343783 -0.027948441 -0.023377506 -0.044291362 -0.054500163 0.062225904 0.007398687 -0.0756706
실망 -0.31617317 -0.28919396 0.3177464 -0.42607298 0.078204654 0.24515606 0.332327 -0.2958428 -0.29388815 -0.4272529 0.29432285 -0.28438836 0.1159151 0.3539929 -0.4194027 -0.40735325
대한 0.19204631 0.054840524 -0.10571002 -0.032964095 -0.14857437 -0.17864594 -0.040430218 0.04364918 0.07339317 0.08393587 -0.018434541 0.14038323 -0.1589301 -0.07610006 0.023518955 -0.025190627
는다 0.057565793 0.055019557 -0.078458324 0.043066766 -0.004400735 0.1273664 0.00896339 -0.054309495 0.0075673517 0.049096618 -0.10910529 -0.08342291 -0.13558128 -0.0045866575 0.07768485 -0.014418691
여 -0.0014492891 -0.02849186 -0.03259943 0.01143731 0.056585737 0.075876385 -0.029075539 0.0024726563 0.040755145 -0.025723098 -0.07129156 0.004039036 -0.05403786 0.00541693 0.04325608 0.034100927
그런 -0.0117172 -0.03273407 -0.012336873 -0.03780612 -0.026477857 -0.009261162 -0.02647097 -0.0016064845 0.03316651 0.009284615 0.11265287 0.022963636 0.06478897 -0.0073188143 -0.021731112 -0.06145889
죠 0.017887434 0.05767242 -0.034282908 0.10719427 0.09535586 -0.044766877 -0.1225735 0.014782031 0.061416104 0.0529096 -0.061212104 0.041239835 0.016583338 -0.12636347 0.038710944 0.10554241
솔직히 -0.053221658 -0.02795805 0.0025172872 -0.01417467 0.101008914 0.023352375 -0.028911356 -0.033467926 -0.033208948 -0.027083736 0.01529487 -0.15413527 0.15589052 0.0771164 -0.063607715 0.014113061
캐릭터 0.114096574 -0.038174212 0.012892098 0.0291451 0.06480167 0.033264514 0.08805365 -0.12630613 -0.022491874 -0.028038649 -0.09186959 0.029742423 -0.1509073 -0.05383591 0.026950415 -0.08279006
아주 -0.056360893 0.059985988 0.029619448 0.04642752 -0.047023684 -0.04145459 -0.0008026083 0.07827578 0.0132992705 0.012640137 0.06307261 0.07015277 0.0036469528 -0.014275225 0.060603887 0.025717843
모두 -0.0027606995 -0.023735888 -0.0052464227 0.21086642 0.30252358 -0.039643016 -0.049913954 0.11017179 0.057706803 0.06991926 -0.15372247 0.063770585 0.0053178864 -0.15549068 0.119393244 0.09057982
전혀 -0.056445703 -0.03798591 0.07500331 -0.2464455 -0.07726503 -0.033168215 0.10251768 0.04861378 -0.14824647 -0.12289732 0.112078294 -0.038864557 0.05378931 0.06131258 -0.13957068 -0.15976804
가족 -0.007858349 0.016461711 -0.05357395 0.10500607 0.08223754 -0.038859434 -0.11690232 0.16219796 0.10736522 0.030741906 -0.094842255 0.12521279 -0.016003598 -0.08453237 0.08167522 0.067237176
여운 0.2887753 0.21587165 -0.36440328 0.31299943 -0.22651084 -0.0742671 -0.32787853 0.21580032 0.3816922 0.2899834 -0.35856047 0.034635883 -0.27714536 -0.2974214 0.29761726 0.32386628
건지 -0.15630078 0.002841121 0.060648 -0.100889936 0.109929234 0.0865245 0.022177912 -0.039427444 -0.0839286 -0.043778367 0.07783936 -0.07766709 0.16286787 0.031042574 -0.079103656 -0.02663965
연기력 0.023309248 -0.018772626 -0.011044574 0.07081781 0.015246918 0.103756286 0.045297347 -0.049927555 0.027712695 -0.0068161655 -0.07032104 0.014924154 0.00694296 -0.008314816 0.00506925 0.013618102
될 -0.048921447 0.05731646 0.054258723 -0.00517475 0.019900866 0.07682513 -0.021143178 0.012067702 0.009490626 -0.05590457 0.003147006 -0.04930209 0.026053185 0.041989658 -0.010838103 -0.026355574
다면 -0.16100682 0.01395182 0.044947606 -0.009979239 -0.06257534 -0.0567849 -0.013671128 0.03922636 0.065750524 -0.046322655 0.14555237 -0.11813246 0.19736959 0.119857095 0.025468577 0.04289321
뭔가 0.07931373 0.041317724 0.008035945 0.05756422 0.09274589 -0.08528117 0.012202722 0.050810985 -0.02857509 0.048049793 -0.030502474 0.11477976 0.021238 0.0013805612 -0.042453032 -0.042027947
그래도 0.013917708 0.008741446 0.0043176087 0.0081543755 -0.12088925 -0.22887945 -0.02998769 0.15278283 -0.032986987 0.11307322 -0.050505217 0.45570767 -0.084783405 -0.06992255 0.038217265 0.077234775
후 -0.06347536 -0.05171397 -0.030566655 -0.013664944 0.021001823 0.07917123 0.01414435 -0.0893663 -0.07769162 -0.067584634 0.07565447 -0.12213336 0.047321606 0.10453011 -0.051010042 -0.064803645
나라 -0.02532796 0.044995166 -0.030125063 -0.009743266 -0.09154146 -0.013296402 -0.024193438 0.067481585 -0.03199555 0.004063606 0.11911521 -0.08358052 0.043523543 -0.0015742974 0.05184019 -0.0110882465
시리즈 0.06957626 0.052477676 -0.0045502475 0.09100624 -0.07118995 -0.024132404 -0.058372047 -0.10102447 -0.018659994 0.020567797 -0.037042744 -0.0657282 -0.070240155 0.05024744 0.013750746 0.08263557
ㅎ 0.08219427 0.093127295 -0.16569147 0.012021533 -0.22251308 -0.03817109 -0.06353015 0.060478088 0.10409088 0.01369892 -0.029555768 0.01454167 -0.12861805 -0.06339306 0.10448886 0.07946554
근데 0.094171084 0.024484912 -0.06986682 0.00965777 -0.13642642 -0.020683156 -0.04223958 0.031691093 0.07314515 0.01175628 0.009878729 0.123916596 -0.07696017 -0.053105813 0.04678407 -0.039110675
표현 0.15476222 0.12531781 -0.092422806 0.15772992 0.042769793 -0.12592328 -0.07846237 0.17279729 0.07765007 0.16458012 -0.23594809 0.1323624 -0.07965169 -0.1633558 0.20750025 0.11917073
모습 0.09452338 0.038917236 -0.09187152 0.11426731 -0.032897867 -0.018894363 -0.020758681 0.0403967 0.0013828181 0.03148852 -0.10627382 0.015404821 -0.107107945 -0.04395616 0.06572596 0.06952484
계속 0.10888442 -0.0901894 -0.016380666 0.059538532 0.08475069 -0.010425663 0.069167 -0.059526004 -0.04258754 0.055930994 -0.16160412 0.08252646 -0.23514652 -0.075327285 -0.0036562113 -0.010086157
작 0.001352038 0.02199285 -0.015629029 -0.017640434 0.0090444125 0.10484456 -0.025209196 0.037983455 0.050288808 0.014680286 -0.0052334657 -0.09112418 0.057568587 -0.01867828 -0.020763112 0.009951673
공감 0.0838928 -0.059938055 -0.022078145 0.066083394 0.023358518 -0.09243252 0.08566025 0.0554991 -0.07957099 0.057892583 -0.13264363 0.18197094 -0.25388741 -0.10154879 -0.024955494 0.03036511
먹 -0.07243235 0.038594726 0.027147835 -0.062175676 0.035373792 -0.03946017 0.047230884 0.015411241 0.022564609 -0.087317616 0.077980116 -0.037544504 0.13565691 0.005225238 -0.045403186 0.009241885
제목 -0.000106382795 0.031220237 -0.0051003173 -0.08689785 -0.16524927 0.044998914 -0.039806407 -0.009191998 -0.0062907967 -0.06905782 0.10084948 -0.09398254 -0.03569095 0.10700263 -0.026352117 -0.010410424
비 -0.016735626 -0.004078383 0.033644527 -0.05596539 -0.07235929 0.10718169 0.035385285 -0.06050609 -0.054003242 -0.03857608 0.09832394 -0.07247233 0.023347557 0.052192513 -0.045666013 -0.11580342
이랑 -0.043356214 -0.06449511 -0.012286141 0.027993042 0.08652339 0.08473212 -0.0050531356 -0.03029841 -0.042200867 -0.01891659 0.0027206521 -0.06672544 0.029375112 -0.043485917 0.0394613 0.019532997
극장 -0.12978537 -0.036035433 0.04795787 -0.0936923 -0.024931038 0.085013926 0.02458723 -0.057810254 -0.04009366 -0.13215467 0.102634996 -0.12205718 0.18111077 0.13754246 -0.07113271 -0.064114794
치 -0.037433006 -0.086656444 0.11147025 -0.06434909 0.14505664 0.124779806 0.06306305 -0.08576708 -0.04090292 -0.107401356 0.070012 -0.07294087 0.12035674 0.0656528 -0.034571912 -0.06616406
이걸 -0.12978671 -0.109148905 0.11154512 -0.08280729 0.042091716 0.16129515 0.06659292 -0.07024237 -0.091054335 -0.15335728 0.06680198 -0.14689416 0.053771723 0.10026767 -0.11763613 -0.09480333
부분 -0.043866407 0.046549015 0.044758994 -0.004780269 -0.03418976 -0.053947426 0.06253043 0.0792091 -0.050234113 -0.07948216 0.10152641 0.0050657797 0.12233416 0.010915498 -0.023678126 -0.01598244
그렇 -0.10790179 -0.08936896 0.11998203 -0.12405601 0.14590053 0.21342061 0.14352058 -0.15083274 -0.103714414 -0.16171633 0.033765938 -0.23426186 0.12521015 0.13451928 -0.12061847 -0.095094234
대사 0.038556393 -0.013115616 -0.04722382 -0.02618953 0.048119944 0.036459234 0.012223553 -0.05610344 -0.06407024 0.0166874 -0.08544115 -0.059520967 -0.1015841 0.040452465 -0.02706541 -0.030119194
바 0.011900974 -0.14905271 0.08571693 -0.21557613 -0.1222887 0.09769504 0.13843478 -0.11017017 -0.18228975 -0.09691909 0.08767224 -0.08309882 -0.13800398 0.11806133 -0.15282494 -0.11451209
대단 0.03898904 0.08045634 -0.06301315 0.13882852 -0.04204671 -0.117447644 -0.13389343 0.20869325 0.15428177 0.17303883 -0.14123133 0.1786387 -0.007196066 -0.1765783 0.14297274 0.12013871
어디 0.0049557765 0.046558768 0.027124489 -0.036732342 -0.017540723 -0.017668337 -0.005445854 0.02359482 -0.019387104 -0.08557348 0.020492934 -0.051386952 0.14177513 0.0053256783 -0.04043644 0.01191208
개봉 0.032574207 -0.053306185 0.018032894 -0.060696345 0.029059267 0.11300888 0.08706056 -0.12801005 -0.07462523 -0.025313037 0.027524065 -0.08396934 0.012215814 0.04318431 -0.035900723 -0.10697626
진 -0.052730158 -0.10822041 0.018243974 0.1543942 0.23862733 0.010321628 -0.0012890429 -0.016881645 0.016222289 0.04142848 -0.13102016 0.12215026 -0.040060572 -0.10789873 0.017187223 0.09576167
아쉽 -0.08932544 0.09956635 -0.0117241405 -0.05781754 -0.14344685 -0.14101917 -0.044131666 0.101727515 0.17189081 -0.024222763 0.18437615 0.0092653185 0.24507026 0.113318145 0.04681998 0.041021384
된다 0.096967585 0.04668356 -0.119259365 0.13413776 -0.029649552 0.035477173 -0.07901909 -0.014301259 0.04974439 0.08753317 -0.15650433 -0.12875548 -0.008078635 -0.06303609 0.14942178 0.05415967
기분 0.056361668 -0.048097905 -0.07505162 -0.047007427 -0.008621583 0.13041234 0.06872402 -0.093966685 -0.05924833 0.018764507 -0.09157821 -0.12574093 -0.160522 0.08012481 0.010566243 -0.0880085
작가 -0.030218516 -0.10964397 0.05810503 -0.016219832 0.058292445 0.06609113 0.07773347 -0.08282358 -0.07480777 -0.07030818 -0.03962079 -0.108375244 -0.084714286 0.12343288 -0.06343177 -0.044187635
진심 0.026288485 -0.017007546 0.028835395 0.06524785 0.09620216 0.057115793 -0.027193384 0.039174188 -0.032585345 0.021521911 -0.0093093915 0.009130519 -0.037940767 -0.07948974 0.008848107 -0.023028867
구 0.10998134 -0.010105916 -0.081823796 0.07483456 -0.018429028 0.06009324 -0.039929934 0.02104965 0.012977587 0.008092921 -0.1061745 -0.0048008743 -0.112204306 -0.1251526 -0.01185999 -0.026077753
해도 -0.13991977 -0.11421564 0.093272395 0.02597418 0.259826 0.01638869 0.026624702 -0.0009961042 -0.03396991 -0.027168324 -0.083222955 0.09403713 0.14968581 0.07399665 -0.051839583 -0.010181518
놓 -0.14435345 0.03862532 0.05328616 -0.069609515 0.036178023 0.037032492 0.03424968 0.06861321 0.057001214 -0.081105836 0.116950236 -0.11254347 0.18315682 0.14570855 -0.04133854 -0.040929325
타임 0.021643285 0.015087147 -0.012478861 -0.014734855 -0.0020765988 0.120920435 -0.015713321 -0.05902016 -0.048174083 -0.012850041 0.06353283 -0.15762931 0.06602092 0.049920857 -0.050787196 0.017792922
봐야 0.103969626 0.06481522 -0.083337165 0.13867117 0.018238287 -0.03260222 -0.11613147 0.080764286 0.108533695 0.046630915 -0.09521908 0.02233153 0.005303282 -0.013117123 0.09777563 0.070323125
제 -0.07525546 0.017204601 0.061101925 0.054902587 -0.023552148 -0.041581664 -0.048051883 -0.0018951528 -0.02282743 0.049489424 0.07096215 -0.04634205 0.07294946 0.01820277 -0.02967576 0.046104282
보이 -0.020283418 -0.012722255 -0.038989887 -0.026543152 -0.07000454 -0.03182258 0.058905672 0.016075606 -0.018555956 -0.004770638 -0.042785868 0.101238996 -0.07352372 0.052739117 -0.007975813 0.0027058318
웃기 0.12915604 0.03404283 0.013798288 0.01677329 -0.053745937 0.0015161444 0.012459933 -0.032785177 -0.042762484 0.11287752 -0.1280269 0.11906907 -0.23822659 -0.110773504 -0.004725495 0.027591748
막장 -0.17307183 -0.16897169 0.2563419 -0.16939959 0.10954048 0.11573816 0.1231149 -0.11555874 -0.18439703 -0.14447066 0.1444328 -0.112969086 0.223192 0.12507108 -0.20330238 -0.17846115
삶 0.014087416 0.09156134 -0.09029207 0.17426038 0.07335613 -0.15482791 -0.13917172 0.15771051 0.13159043 0.16257803 -0.14652333 0.08457524 0.034241606 -0.10626601 0.19327751 0.20239314
물 -0.067690305 -0.020315725 0.0033577438 0.00062194385 0.07664287 0.11566592 0.010948361 -0.022357166 -0.04984133 0.0011418489 -0.08902628 -0.12158601 0.06291956 0.0520488 0.04204268 0.040837325
친구 -0.00045138667 0.0371362 0.057281937 -0.02803041 -0.063555904 -0.14501666 -0.017354392 0.012490026 -0.039603915 -0.010699062 0.024310036 0.19415538 -0.043031834 -0.0448676 -0.07103831 0.010504696
잔잔 0.0019026272 0.0628252 -0.068830244 0.19970685 0.095798105 -0.028593896 -0.09788957 0.020821128 0.07843735 0.10173152 -0.102546714 -0.050184194 0.02010272 -0.05995626 0.14241886 0.111208506
이제 0.06436798 -0.096103966 -0.005170491 -0.007073086 -0.036116146 0.033605825 0.030899057 -0.026454533 -0.12612776 -0.06566921 -0.025242716 0.04169637 -0.061009683 0.016373847 -0.07983098 -0.064924285
조금 0.04568072 0.11336964 -0.07828621 -0.08643223 -0.20696892 -0.04117022 -0.07463265 0.10971618 0.07466646 -0.023210308 0.14609043 -0.10822073 0.08403458 0.05169427 0.061527733 0.019545225
억지 -0.23278295 -0.15086712 0.13630892 -0.26317248 0.02590182 0.25214005 0.1472697 -0.2072393 -0.16095021 -0.2958024 0.2557485 -0.31353673 0.15432118 0.22862566 -0.15603392 -0.23062804
가지 0.10112964 -0.014483713 -0.046300083 -0.014802464 -0.006727189 -0.051487178 0.013778424 0.054144897 -0.020585911 0.012763669 -0.078846276 0.123537116 -0.18723965 -0.09369677 -0.03254644 0.015139032
ㅠ 0.019579934 0.0946402 -0.021301186 0.11436971 -0.031001715 0.023232302 -0.048051525 -0.027801195 0.106011435 0.022563355 -0.05713246 -0.0038656758 -0.007022892 -0.034356624 0.012064647 0.07761055
영상 0.059985943 -0.024574807 -0.03799648 -0.00083797256 0.030953132 -0.0075946692 0.027010018 0.03865427 -0.003134309 0.033018854 -0.031656776 -0.011260142 -0.08974618 -0.0074671158 -0.038864087 -0.04739489
찾 0.030904038 0.023103882 0.0029023362 -0.006085694 0.0029595532 0.028252885 -0.044107504 0.043932308 0.09293655 0.028311705 0.0005731698 -0.064044476 0.026287382 -0.013727825 0.009659205 -0.0029426562
라도 0.009865048 -0.023006588 0.02767726 -0.0033860297 0.0721987 0.04575762 0.004241698 0.018716263 -0.0629421 -0.021853145 -0.035894044 -0.0369559 0.035914894 0.057129666 -0.020175438 -0.0016770461
씬 0.08047778 -0.028420288 0.009745805 0.016923571 -0.06659542 0.0611701 -0.03029585 0.017958455 0.028409038 0.009664881 -0.016242854 0.021953085 -0.1844393 -0.01859836 0.07131771 0.04888279
딱 0.020254863 -0.12026551 0.14603822 -0.14146377 -0.058775354 -0.028007036 0.11831225 0.029588873 -0.058127567 0.04436074 -0.024579724 0.19022468 -0.11957519 -0.10266731 -0.064019546 -0.09566995
요즘 0.12539735 0.20773543 -0.16566853 0.10019453 -0.12532617 -0.01559885 -0.18038997 0.09026667 0.16937101 0.08261273 -0.055938885 -0.18912989 -0.07986166 -0.16708225 0.16352877 0.14461926
같이 -0.016286004 -0.04040969 0.009590753 0.037719294 0.13687572 0.007136588 0.0041715815 -0.040039156 -0.037177403 -0.0071746595 -0.02282508 0.068199076 0.064398855 -0.044093262 0.017485676 0.0610509
스릴러 0.10316602 -0.041780695 0.05510979 0.020759799 0.048384283 0.06867751 0.04413646 -0.07072248 -0.0013665649 -0.012525766 -0.11341278 -0.00053890655 -0.064634405 -0.078039356 0.009041768 -0.040717755
믿 0.13247457 0.114812665 -0.12455748 -0.0110384375 -0.2043513 -0.048801824 -0.10698396 -0.07360473 0.019601224 0.029973289 -0.008073523 0.037542522 -0.30288208 -0.038615644 0.07797494 0.018469471
싫 -0.2567366 -0.11401023 0.20248286 -0.23979852 0.100281425 0.10574907 0.21653046 -0.07267883 -0.14185765 -0.28579375 0.25256425 -0.17858268 0.3823237 0.20733127 -0.21507533 -0.18111542
나왔 0.09466922 0.055667166 -0.04228945 0.06097405 0.0033115381 0.115791366 0.031909566 -0.009227043 -0.007911921 -0.0072396505 -0.018293062 -0.08528317 -0.1537937 0.011414489 0.040477585 -0.0026801191
아까운 -0.110233724 -0.13996474 0.083570845 -0.049394507 0.25546405 0.3210589 0.16670318 -0.24215068 -0.17925653 -0.1777264 -0.020309929 -0.29558888 -0.0020975568 0.16862053 -0.06535138 -0.12130532
중간 -0.10014611 0.05577413 0.08344743 -0.10388935 -0.067042 0.103457496 0.045683447 -0.051891357 -0.07535043 -0.13937445 0.1666331 -0.20876446 0.14204526 0.0816132 -0.017898982 -0.063239
긴장감 0.0435495 -0.0961632 -0.04614902 0.2642615 0.14139915 0.09376201 -0.075862646 -0.033040244 -0.052495323 0.157012 -0.31062055 -0.029162398 -0.17270228 -0.09978909 0.13684821 0.13166593
어떻게 -0.0798287 0.08608935 0.035737514 -0.086945094 -0.1694046 -0.053512163 0.02509151 0.07341809 0.08591855 0.025896665 0.11987895 0.111558005 0.06719986 0.0123126125 -0.023073414 -0.03288455
개인 -0.009617947 -0.03734992 -0.05053701 0.01045522 0.027004661 0.07310821 -0.023370573 -0.07693954 -0.090278946 -0.053151403 -0.052486178 -0.18039401 -0.045221493 0.05856525 0.059064157 -0.029995603
제대로 -0.01928628 -0.041863967 -0.037596624 0.04433995 0.028460208 -0.04050764 -0.02972197 0.070791125 0.060394734 0.068300374 -0.010273527 0.08976471 -0.08568472 -0.041102238 -0.026356565 0.04990161
점수 -0.14090233 0.03412035 0.00961535 -0.010622582 -0.028429827 -0.0043275757 0.05061484 0.012660577 -0.0022247627 -0.11633978 0.15754949 -0.0794369 0.17721154 0.14736815 0.017787801 -0.053013235
부족 -0.16083047 -0.0873481 0.084521614 -0.14571118 0.05075444 0.10746518 0.07916101 -0.11973958 -0.07115771 -0.19327684 0.19308947 -0.16958615 0.1654483 0.16268742 -0.121038795 -0.0933333
이유 -0.009572629 -0.017132213 -0.021233821 -0.04558901 -0.07316261 0.03695176 0.037744507 -0.033218574 -0.015083367 -0.09214699 0.06127542 -0.11976875 -0.037426703 0.12018544 -0.039093867 -0.0090146065
노래 -0.026093047 0.045815498 -0.038693395 -0.048966274 -0.028301898 -0.021439804 0.009167524 0.019124383 0.038822193 -0.061301768 0.013770042 -0.023978682 0.040655483 0.09038041 0.00080738205 -0.05224921
만큼 0.09656139 -0.030758703 -0.07931958 0.11438783 0.17497118 -0.034175962 -0.013359151 0.01388953 0.019590454 0.055557083 -0.0886219 0.07384613 -0.011657938 -0.05617468 0.04163995 0.11388294
ㅜㅜ 0.067652464 0.10437485 -0.06245762 -0.10398556 -0.15996501 -0.00096208486 -0.022810584 0.029063756 0.014983082 0.035864342 -0.05135979 -0.005747682 -0.11886482 -0.005386916 0.020183025 -0.05850634
라면 0.0712904 -0.0011054473 -0.0068535423 0.06541011 -0.032959126 0.032804716 0.0036244013 0.016798155 -0.055705093 0.016229136 -0.03390812 -0.1078286 -0.034470476 0.08406125 0.00028382646 -0.008671597
시작 0.009082211 0.0054532047 -0.014726666 0.08258055 -0.020834858 0.032734517 -0.017700769 0.09037093 -0.00015715598 0.0070303795 -0.009288168 0.038419597 -0.09096509 -0.031100506 -0.0055047697 0.0720312
잇 0.09269208 0.026217673 -0.043238074 0.010123249 -0.060473498 -0.13842104 0.045431536 -0.008287937 0.035585552 0.0063016983 0.07960869 0.039262496 -0.110092156 -0.013231257 0.01820059 0.003366676
구나 -0.032745805 -0.09463641 0.041762173 -0.022225827 0.061258875 0.040912613 -0.009815745 -0.07307493 -0.025637232 -0.075219296 0.0042931554 -0.042857558 0.028319037 0.018697008 -0.07568133 -0.008318799
한테 -0.029100183 -0.042658247 0.0066000763 -0.03365464 0.1018302 0.042650636 -0.04897744 0.02573715 -0.014052144 0.035760075 0.012380623 0.050068166 0.043553792 -0.0130423615 -0.035679292 -0.042013235
특히 0.25619498 0.1267011 -0.12282058 0.113725655 -0.10378381 0.12572692 -0.12993173 -0.04100361 0.09827014 0.028887356 -0.15891238 -0.261445 -0.19155432 -0.04624003 0.085613005 0.018463481
려고 -0.09793751 -0.12431558 0.1437056 -0.044471093 0.36001328 0.07752506 0.09082841 -0.08084224 -0.110883705 -0.046061553 0.015012573 -0.041677106 0.12230396 0.07413684 -0.082108855 -0.03961978
날 0.051908948 0.07246618 -0.117774755 0.03845238 0.0050043613 -0.03578634 -0.02828744 0.083672866 0.05377413 0.040632345 0.043990087 -0.008532844 0.09687883 -0.00080343045 0.054328036 0.04100737
제일 0.03113359 -0.03258644 -0.022178762 0.07314264 0.14598338 0.12904188 -0.04147589 -0.08704396 -0.0077570654 0.035850935 -0.089461334 -0.0803029 0.058967613 -0.033840902 0.03165202 -0.001171361
아름다운 0.16480844 0.120628305 -0.0836555 0.18080282 -0.0302701 -0.25987634 -0.13842598 0.16176496 0.17886165 0.21545991 -0.16272594 0.2069409 -0.17883587 -0.26386 0.18481098 0.17370346
시대 -0.060777627 -0.05100714 0.0042838794 0.08440462 0.1749259 0.0128541095 0.015078595 -0.006989866 0.072734125 -0.0045960224 -0.07137439 -0.009887553 0.033568364 -0.003662501 0.09243366 0.028516049
니까 -0.019594746 -0.03927039 -0.022723082 0.046234302 0.0142033 -0.13762254 -0.082566895 0.09980879 0.038361464 0.030349916 0.030198516 0.110489585 0.090019055 -0.0034032695 0.004160714 0.06682025
엔딩 0.0014187634 0.07915373 -0.062717274 -0.024923127 -0.055680625 0.05546387 -0.04506691 0.005394832 0.03588894 -0.057439044 0.068452045 0.004630173 0.0071716863 -0.023060853 0.06519845 0.02252338
당시 -0.06713543 0.053896785 -0.021695396 -0.046826154 -0.020545788 -0.018960983 -0.01723818 -0.034961607 0.03193968 -0.039193995 0.096347064 -0.0035234352 0.11795823 0.052262284 -0.0052300426 -0.036143675
나름 0.070910744 0.022745688 -0.06314226 -0.062433034 -0.050195772 -0.051279005 -0.032610126 0.033461437 0.066817194 0.07307233 -0.020161198 0.16316266 -0.111401685 -0.0607611 0.050335716 0.024452005
무섭 0.1325261 0.002858302 -0.022382695 0.051074345 -0.06734522 0.046399195 0.009334194 -0.00030147255 -0.08023699 0.06084906 -0.08651676 0.071475014 -0.22766523 -0.038354643 -0.010102371 -0.008464255
오랜만 0.1449672 -0.032270804 -0.09103751 0.15313898 0.109740496 0.10981596 -0.086561866 -0.0064241695 0.03687977 0.040715635 -0.14158906 -0.128327 -0.085837 -0.059452068 0.17328969 0.1000701
나온 0.049181193 -0.019050341 -4.6725618e-06 -0.020664679 0.0019714432 0.15943876 0.0057778265 0.012773304 -0.0080074975 -0.0016576196 -0.048960254 -0.20654012 -0.03203187 0.009594501 0.0029648326 0.039861463
이것 0.054036837 -0.09986742 0.018325632 -0.039783698 0.001266294 0.02056192 0.11741822 -0.05406996 -0.121628284 -0.0021044633 -0.020841746 0.030598117 -0.25208986 0.0030592626 -0.025527325 -0.030293219
봐 -0.011437847 0.04342939 0.048124675 -0.060753863 -0.030651856 0.03715295 0.013421517 0.024129007 -0.08205665 -0.020967124 -0.05251279 0.09189584 -0.08454603 -0.08864774 -0.012939408 -0.04409465
팬 0.07626886 0.012344606 0.0034384578 -0.055691577 -0.19757135 -0.01891634 0.05456851 0.009665909 -0.03575106 0.03470356 -0.014857079 0.062319495 -0.11362994 -0.01820895 -0.000601634 0.03855595
해요 0.15061568 0.067892306 -0.035298098 0.03130528 -0.17970337 0.060269013 -0.07447912 -0.09440655 -0.00020555661 0.015846219 0.03422075 0.018677203 -0.15007296 -0.06009762 0.06154311 -0.020925794
사 0.17715561 0.0815817 -0.12752303 0.037834067 -0.06821802 -0.14817202 0.002211968 0.03371101 0.05926046 0.13318504 -0.116477184 0.16611929 -0.13944508 -0.08513302 0.07278753 0.03864172
차라리 -0.27436313 -0.2549406 0.25657442 -0.40048602 -0.16236351 0.29925036 0.31983882 -0.3152337 -0.33983126 -0.3420656 0.28051433 -0.08535787 -0.062925115 0.28136882 -0.3316321 -0.39383638
절대 0.015301847 0.037296396 0.07443437 -0.06818271 0.011850463 0.08304704 0.03053827 -0.009416888 -0.07144384 -0.0049726404 -0.0016199057 -0.08692344 -0.12075718 0.05462986 0.001566278 -0.025517479
세상 0.120603845 0.06563348 -0.066011965 0.052558947 -0.088678636 0.058975622 -0.08191815 -0.05928906 0.09530505 -0.046772227 -0.0039409013 -0.092327654 -0.093555845 -0.03208666 0.097489715 -0.043108385
못하 -0.09605597 -0.04118314 0.010485198 -0.14742103 -0.018042486 0.12702912 0.06382041 -0.14495344 -0.10033891 -0.11876384 0.15307792 -0.21753357 0.07207788 0.1517664 -0.08225672 -0.093978375
감 -0.040385816 -0.08681265 0.09788919 0.035632648 0.10923012 -0.0040791356 0.023261346 0.014440257 -0.020517275 0.020937406 -0.02759613 0.054520212 0.08400761 0.04172357 0.025590537 -0.0341763
의미 0.029394891 -0.0030697826 0.0078719 0.054512993 0.13498719 0.04389258 0.015343662 0.0012639811 -0.007315522 0.023517523 -0.08467473 0.009537821 0.013473949 0.0011896398 0.06498596 0.046852548
봄 0.12212724 0.013629459 -0.11023046 0.034002054 -0.061517376 0.07733577 -0.068906955 -0.05836161 0.0012334347 -0.011971628 -0.10734389 -0.121460184 -0.15810813 0.011962064 0.020735417 -0.013421192
훌륭 0.14180502 0.11397845 -0.16050297 0.24600726 0.053109787 -0.19326624 -0.15358444 0.17386132 0.10443893 0.19808897 -0.23484793 0.3248402 -0.16362377 -0.2766104 0.21404627 0.18261942
욕 -0.16310565 -0.09961721 0.18738501 -0.1461036 0.13052803 0.07707989 0.19402535 -0.09990693 -0.09148465 -0.17075732 0.09099563 -0.038663 0.059688732 0.080480695 -0.17583905 -0.14573945
너무나 0.077155486 -0.11594408 -0.07642191 0.1592272 0.1460137 0.16310313 0.024826959 -0.1240625 -0.04313935 0.07002821 -0.21305971 -0.11008783 -0.16365936 0.013025844 0.1219588 0.079551294
강추 0.13206291 0.15405269 -0.2014579 0.25310376 -0.08981485 0.013961879 -0.2518989 0.13304445 0.23122759 0.08065954 -0.19023488 -0.039177835 -0.09107684 -0.15459998 0.24240962 0.1460593
드 0.10659013 0.016439639 -0.07448807 -0.023433045 -0.1869781 0.09416575 0.06371397 -0.061995972 -0.068562664 -0.029285008 -0.0045994525 -0.08157384 -0.19891007 0.053103242 0.008575147 -0.0152696315
따뜻 0.15856063 0.10463519 -0.17772779 0.26586697 0.0073768883 -0.059707116 -0.17128156 0.18906851 0.1766996 0.2607787 -0.302481 0.13421363 -0.13611953 -0.23456313 0.19115885 0.20036106
됨 0.03466066 -0.003708515 -0.04879655 0.08220058 0.004182537 0.012684929 -0.121761225 0.035339687 0.059389167 0.047255162 -0.05451634 0.05168035 -0.034637377 -0.027539805 0.07424977 0.048492867
빼 -0.0684796 -0.1216434 0.1270815 -0.042346854 0.09278575 -0.064628385 0.0837911 -0.053720742 -0.14702332 -0.09285781 -0.0066858735 -0.0036970845 0.043570172 0.16481882 -0.04965232 -0.08897755
느끼 0.044277485 0.057188243 -0.0981404 0.1004094 0.041627675 -0.06445243 -0.1048311 0.08604124 0.06972549 0.0389511 -0.07562377 -0.069697656 0.04980333 -0.033777464 0.0908049 0.08688222
해야 -0.06854154 -0.01513099 0.03095105 0.02472851 -0.014202842 -0.058620114 0.019780817 0.014062607 0.012942132 -0.0074599925 0.05723334 0.0011127553 0.14744729 0.033023715 -0.0387549 0.023585187
명 -0.1394871 -0.055336412 0.044102468 -0.07389113 0.16962515 0.0019646175 0.054970212 0.033576224 -0.023243314 -0.012665283 0.086074576 0.027642269 0.07942859 0.06615658 -0.022586834 -0.021460073
글 -0.20045467 -0.019894192 0.057372537 -0.13369903 0.076436326 0.032958742 0.04646434 -0.039204754 0.037324928 -0.112469435 0.18714333 -0.18781054 0.2529654 0.14468913 -0.05730729 -0.07780446
던데 0.12852564 0.124004796 -0.069280304 -0.07307796 -0.1581845 0.10325685 -0.11332743 -0.0048202984 0.12032622 -0.04906331 0.02330809 -0.11751524 -0.06852068 0.024406368 0.023220027 -0.05765664
뻔 -0.022246405 -0.053133182 0.058991242 -0.07354595 0.00487008 -0.010244922 0.018114418 -0.016681246 -0.044528633 -0.03748517 0.12720877 -0.10305907 0.22523357 0.10657088 -0.030947732 -0.02538237
도대체 -0.11027467 -0.17446858 0.16466962 -0.17007062 0.01745487 0.06019784 0.15364479 -0.10466094 -0.13607843 -0.17612262 0.10545545 -0.025884826 -0.032908995 0.11138729 -0.20402192 -0.16562739
어야 -0.075125195 -0.06115188 0.022567261 -0.13790593 -0.01971516 0.020435415 0.09604083 -0.061540548 -0.15891288 -0.12512743 0.073670305 -0.027713014 -0.023780968 0.08244081 -0.10743666 -0.09338095
마다 0.07924912 -0.049181867 -0.053422995 0.009492978 0.1270695 0.014576492 -0.0010172866 -0.078972526 0.0076439492 0.04469197 -0.10773119 -0.09464856 -0.13453893 -0.03283933 0.015918005 0.022461412
답답 -0.12823302 -0.16861658 0.14269967 -0.13924325 0.12023241 0.18150055 0.18751001 -0.20426047 -0.13113827 -0.17313136 0.14070027 -0.23308757 0.13998352 0.17753349 -0.17953318 -0.16548446
전쟁 0.06895038 0.05340858 -0.052302804 0.026499763 -0.075115725 -0.060531322 -0.06312539 0.013793002 0.038861208 0.018327665 0.0532015 -0.088204354 0.084903196 -0.040233884 0.06841595 0.06415302
놈 -0.16654228 0.038962405 0.032238 -0.0010521364 0.11135595 -0.034275778 -0.039786022 0.07951832 -0.0098062055 -0.001175435 0.0409842 0.031818062 0.15108259 -0.018389678 0.03108898 0.08498077
무엇 0.11097297 0.01637921 0.016481072 0.046615213 -0.063370705 0.0027154724 0.025743058 -0.014868633 -0.00062928075 0.041757602 -0.039484885 -0.025076566 -0.19264776 -0.071469314 -0.00959473 0.034682896
설정 0.016618809 -0.17023116 0.06276773 -0.058847964 0.10411337 0.047613513 0.14644073 -0.07640737 -0.21544762 0.05167015 -0.06992431 0.1290865 -0.14486355 0.0024345051 -0.12273267 -0.060268696
흥미 0.05129903 -0.079119615 0.03449315 0.12566243 0.2189709 0.089514814 -0.009649349 -0.044157762 -0.029807687 0.042794883 -0.14120479 0.026548987 -0.05198225 -0.041503493 0.03014388 0.07406546
만화 0.024696803 -0.06629731 0.04161054 -0.11910762 -0.07515383 -0.08457559 0.028036455 0.07543125 -0.103851914 -0.036936298 0.07748625 0.13921447 -0.021098277 -0.047574345 -0.12874924 -0.02090301
그저 -0.042826325 -0.0094500575 0.044828396 0.011615575 0.10218045 0.2711848 -0.028974079 -0.16068918 -0.022983698 -0.11916244 0.045761082 -0.51513827 0.16557536 0.12323673 -0.009972727 -0.031658262
감정 0.022531437 0.053935423 -0.081365906 0.11305837 0.086380824 0.10900882 -0.07514645 -0.038769703 -0.021661391 0.024720948 -0.15920639 -0.06091222 -0.0615111 -0.064757936 0.09803044 0.090538576
준다 0.046222284 -0.040252544 0.059899133 -0.0932266 -0.029007455 0.08024869 0.0008715358 0.013501312 -0.0124456305 -0.028708685 0.03816489 -0.061545994 -0.065708466 -0.03741061 -0.045726705 -0.1297535
수작 0.26612467 0.2588887 -0.33165783 0.32486716 -0.28519788 -0.1265654 -0.28272635 0.20411551 0.3403592 0.34314406 -0.39702174 0.082137436 -0.30202743 -0.32006437 0.30393824 0.2425778
행복 0.17757581 0.089027 -0.12472633 0.11962424 -0.20056954 -0.14462727 -0.13538021 0.21939099 0.14049937 0.23134345 -0.16117783 0.12973402 -0.14832614 -0.19680072 0.20556733 0.17760253
신선 0.12770233 0.027788633 -0.15472355 0.18449815 0.026843987 -0.015559589 -0.14463787 0.07527001 0.008735909 0.11755213 -0.19075245 0.10606563 -0.13240334 -0.16365325 0.11923909 0.090447545
미국 -0.072243445 0.022752697 -0.007921766 -0.13353767 -0.10838384 -0.1393368 -0.05340376 0.051994488 0.09168162 -0.025544923 0.12520999 0.014201923 0.17241956 -0.037442174 -0.08457192 -0.015034152
앞 0.0052621937 -0.036261313 -0.050416306 0.079667814 0.087468095 0.027173804 -0.059101176 -0.019713493 0.013292454 0.02836665 -0.16074103 -0.051975794 0.04554041 -0.04083395 0.05925626 0.060855117
허접 -0.15570703 -0.30910796 0.18601032 -0.2378339 0.0656428 0.34558514 0.26287705 -0.31216994 -0.31666684 -0.20062706 0.08602323 -0.34222475 0.049076453 0.24872379 -0.22239439 -0.20227063
형 -0.029562464 0.107399404 -0.029800909 0.02301425 -0.088374645 -0.070482135 -0.010378768 0.055695966 0.048412595 0.060819272 -0.024936918 0.13706931 -0.04615805 -0.06884339 0.026518364 0.07288459
세 0.03458856 0.039762005 -0.08130023 0.019540414 0.035173062 0.11069243 -0.046189528 -0.022346994 0.09099375 -0.06641251 -0.049031474 -0.10652772 0.057381734 0.06713829 0.044305805 0.033459615
시절 0.096568264 0.037221257 -0.022122607 0.0306067 -0.014753849 0.070441194 -0.020988626 0.027321035 0.044018175 -0.0050644483 -0.028146291 -0.123151794 -0.008255344 -0.0010787448 0.08677879 0.06023576
관객 -0.09474039 -0.06664287 0.07268271 -0.12908442 0.015775073 0.08920278 0.15208407 -0.024330586 -0.123592205 -0.09343613 0.13157566 0.011024889 0.09445392 0.08530365 -0.094276436 -0.12673824
사실 0.116723254 0.06952677 -0.12002719 0.04456487 -0.031605687 -0.08654702 -0.10361371 0.13755995 0.11587184 0.1061294 -0.1430706 0.15070127 -0.07015786 -0.15790972 0.09274451 0.041886605
배경 0.028390395 0.0034761918 -0.051830627 0.049741082 0.03417624 0.0049269525 -0.026591415 0.024615876 0.025290899 0.028624779 0.0558348 -0.10975395 0.030285943 0.015058697 0.04568252 0.038959257
어도 0.0219814 0.08130917 -0.013786415 0.03366438 -0.058609523 -0.008264585 -0.017711904 -0.032136608 0.014229794 0.061497793 0.04703721 -0.026482085 -0.08285197 0.11327821 -0.006468568 0.049597874
답 -0.015688198 -0.03074149 0.07421595 0.027772453 0.043320686 0.044998355 0.030429475 -0.13013029 -0.081175014 -0.042881448 -0.032245364 -0.044775933 -0.121562384 0.032641076 -0.0018492296 -0.018808246
초반 -0.17871886 -0.052059233 0.01827172 -0.11858315 -0.124835275 -0.037534 0.0379969 0.06626057 -0.044686493 -0.0892646 0.14993867 0.03862735 0.21099767 0.12747698 -0.03805853 -0.11515406
웃음 0.0014186797 -0.00088662934 0.07568679 0.14288294 0.19817936 0.048529055 0.029024398 0.0046883947 -0.016848383 -0.012663279 -0.13720399 -0.056729484 -0.0027303342 -0.04818318 0.052607995 0.053999472
엄청 0.096030645 -0.06353496 -0.068362005 0.082158454 0.15097369 0.1451897 -0.017593667 -0.1807951 -0.11927147 0.0044368785 -0.17245117 -0.13214684 -0.23658355 -0.024568146 0.008281741 -0.037482712
자신 -0.014249874 0.11025961 -0.057980563 -0.012356915 -0.21507667 -0.057061758 -0.0029237552 -0.010219202 0.030876188 -0.026138015 0.069982536 -0.029025959 -0.09576787 0.10997044 0.037695203 -0.023155387
더라 0.009275251 0.0349714 -0.045443337 0.029807433 6.2382715e-05 -0.007999406 -0.07704576 -0.04068429 0.013835574 0.07275999 -0.060610496 -0.022506926 0.022854695 -0.036210146 0.07625503 -0.0073768655
추억 0.1369756 0.04452474 -0.0691306 0.115777336 -0.03025028 0.0018521402 -0.119040675 0.04769373 0.028355552 0.09303006 -0.13267714 0.08899697 -0.20039472 -0.15232822 0.12764828 0.028547337
군 -0.12952758 -0.010093501 0.047243528 0.008820258 0.05008345 -0.020675555 0.055071805 -0.03141641 -0.03493842 0.020088475 0.035619114 0.0271566 0.16125311 0.0046900283 -0.07165491 0.06826882
질 -0.09412399 -0.030844402 0.056717288 -0.19043992 -0.020678917 0.10034902 0.14471406 -0.011727754 -0.038298044 -0.18812464 0.18049662 -0.043550584 0.113032535 0.11510295 -0.116519324 -0.13206485
캐스팅 -0.14584473 -0.11195484 0.050644334 -0.054760974 0.13323647 0.0680788 0.059892297 -0.13962395 -0.13405055 -0.008750738 -0.013669999 0.014351818 0.085333325 0.1107438 -0.061825354 -0.030426467
멋있 0.21106012 0.194481 -0.17310956 0.13681649 -0.22021374 -0.011235992 -0.11574958 0.09986357 0.15245777 0.142408 -0.21812153 0.047947567 -0.26548725 -0.16682564 0.13833718 0.11768652
라니 -0.00585811 0.07786623 -0.056203824 0.055359278 0.04792502 0.050828435 -0.09734475 0.08109879 0.08003892 -0.03401077 0.04417708 -0.02463262 0.1105423 -0.03918214 0.10608787 0.059623294
시나리오 -0.10425734 -0.116638735 0.15374821 -0.04832114 0.1996499 0.10143777 0.11184926 -0.12833992 -0.063175105 -0.11188636 0.05098619 -0.025452571 -0.009872073 0.14496411 -0.08270547 -0.10558717
정신 -0.021576937 -0.034420006 0.06312288 -0.11859809 -0.079529256 -0.0805537 0.1547151 -0.053598415 -0.11872329 -0.038203172 0.09162482 0.05507659 0.060449496 0.08149593 -0.108275756 -0.053717673
어색 -0.05044587 -0.17256787 0.1645896 -0.24555084 -0.016117409 0.10299332 0.22414283 -0.18938783 -0.19009584 -0.21341936 0.21101671 -0.14123762 0.02983014 0.1893932 -0.1641871 -0.23791704
첨 -0.078955695 -0.00042098164 0.07219271 -0.100491874 0.02620315 0.020892639 0.019567184 -0.0400901 -0.0056622345 -0.110422276 0.08707538 -0.10581891 0.1559571 0.105287835 -0.058137693 -0.096309334
머 -0.0058564055 -0.06290635 0.05595185 -0.09715944 0.0007856255 0.08723618 0.044335656 -0.038062397 -0.025465881 -0.05985282 0.11947464 -0.117743544 -0.026948601 0.10441599 -0.041098107 -0.043512296
슬프 0.06283275 0.20378575 -0.17078403 0.1597463 -0.1606837 -0.17088109 -0.2091548 0.15684786 0.2675205 0.13001306 -0.09003857 0.037199378 0.028104102 -0.053387895 0.1980225 0.19514377
밖에 0.043074545 0.05910283 -0.09100199 0.06373507 -0.074008375 -0.024608051 -0.05914738 0.1417888 0.09231493 0.03807735 -0.0700017 0.08700988 -0.05899916 -0.08865423 0.046829578 0.030689552
분위기 0.1187728 0.029713256 -0.029617198 -0.03651831 0.021613736 -0.08828549 -0.0041300952 0.007005397 -0.038724847 0.013515785 -0.037540704 0.16834764 -0.16710389 -0.15822458 -0.041873075 -0.0632218
소름 0.16342689 0.10819044 -0.1884997 0.15795538 -0.13040511 -0.1427311 -0.100652136 0.11076796 0.12723316 0.16887124 -0.12040251 0.1526795 -0.13342328 -0.11097318 0.15327165 0.09272228
멋진 0.16163123 0.09546088 -0.18408763 0.20129633 -0.06900091 -0.15724008 -0.18307145 0.1530163 0.13193606 0.20224386 -0.19100495 0.11456975 -0.1257811 -0.13689165 0.104831286 0.13744503
힘들 -0.15345016 0.020700231 0.039083276 -0.14778456 -0.038851608 0.096879 0.025500355 -0.017783988 -0.030622583 -0.13774131 0.16462854 -0.105597615 0.19764443 0.07181823 -0.059170134 -0.04373252
오늘 0.019803261 0.05720127 -0.07043933 -0.010506696 -0.1498609 -0.04283361 0.03611528 -0.023539273 0.025993656 0.03943427 0.044866696 -0.0316646 0.025430925 0.0058107395 0.057730947 -0.027158212
어이없 -0.16150379 -0.2927512 0.28495193 -0.2613429 0.17509963 0.26684162 0.26019287 -0.30624205 -0.27388656 -0.246185 0.18336569 -0.08851769 0.03885162 0.22752163 -0.26995534 -0.25799415
봐서 -0.11085923 -0.031809717 0.01717606 0.019631729 0.0525217 -0.020803502 -0.045556262 0.053987324 -0.02812582 0.00979043 -0.003923476 -0.02861387 0.09706737 0.025291534 -0.04051205 0.04817971
간 0.058065284 0.014517767 -0.03350371 0.13768911 0.17208643 0.08891324 0.002037496 0.06247254 -0.008598708 0.038036074 -0.1755481 -0.044248216 0.03288721 -0.10732598 0.0871515 0.10721387
집 0.023326311 0.06301365 -0.026194066 0.005274503 -0.05395289 -0.013501747 -0.034564838 0.0036912186 0.05835034 0.012053804 0.062767744 -0.01282117 0.029045956 0.03019617 0.0028132608 0.046297215
구성 0.04791148 -0.057820514 -0.024074491 0.058471575 0.14050937 0.06561743 -0.03998 -0.026221052 0.023426028 0.0065176254 -0.047022205 -0.055728346 0.0652784 -0.06400079 0.06986989 -0.008506923
잡 0.025849124 0.030758167 -0.018564107 0.035993807 -0.055814024 0.10456524 -0.013388673 -0.0639595 0.01092857 -0.010274292 -0.018605493 -0.17212594 0.011577572 0.01921516 0.026710898 -0.0034264727
엄마 0.0733802 0.104419716 -0.13124874 0.097791955 -0.08505553 0.012344916 -0.13490696 0.10035232 0.048643272 0.043860063 -0.08241206 -0.07966231 -0.054200545 -0.037191723 0.10399255 0.1186536
함께 0.07294153 0.011525357 -0.07670967 0.079467624 0.02776018 0.04972977 -0.07218482 0.07155351 0.056133855 0.10522759 -0.15979919 0.01667156 -0.15443648 -0.11367659 0.05764552 0.08946891
위해 -0.05751023 -0.027332911 0.043337476 -0.031846054 0.07679535 -0.019170836 0.02400154 -0.009282418 -0.08843449 -0.031091893 0.020668821 0.04103472 -0.018858306 0.023146233 -0.022830471 0.034325644
잊 0.2026266 0.18693149 -0.25205156 0.070188835 -0.3224475 -0.24986771 -0.19124159 0.28272083 0.18647176 0.24018252 -0.13919546 0.13060999 -0.18718725 -0.15150522 0.15814462 0.18343441
졸작 -0.3483433 -0.35196215 0.32769433 -0.37277827 0.28524083 0.36259216 0.43803072 -0.3840981 -0.3291552 -0.37898862 0.2823372 -0.2871145 0.14470746 0.31313515 -0.38147214 -0.38294423
류 -0.045485668 -0.18354486 0.122665994 -0.09397569 0.15907934 0.1905242 0.10253455 -0.20152003 -0.106438935 -0.07019172 -0.011729483 -0.038598083 -0.06892642 0.047830947 -0.13008155 -0.12034286
이딴 -0.16777667 -0.2677609 0.40814623 -0.2669559 0.2423746 0.35136148 0.36467394 -0.28616756 -0.30252388 -0.31398848 0.16641147 -0.15514337 0.028899757 0.24267404 -0.38777673 -0.38541502
문제 -0.16018806 -0.1281677 0.1892937 -0.07850227 0.2586983 -0.032779016 0.114483245 -0.061003216 -0.15819435 0.011724271 0.09762133 0.0049080863 0.29287177 -0.032272324 -0.12895285 -0.065750524
등 0.044940684 -0.018936144 -0.056248274 0.07419547 0.013603406 -0.10116765 0.046460953 0.07691219 -0.056271255 0.008593349 -0.049680825 0.16558787 0.012237824 -0.043219533 0.012239076 -0.010661049
유쾌 0.16826104 0.11802709 -0.13708967 0.21767627 0.07021321 -0.23596233 -0.13079889 0.2836278 0.09192399 0.17172894 -0.273563 0.15679117 -0.11568586 -0.22152337 0.18932492 0.23120315
킬링 0.00038262404 0.0030676425 0.03271165 0.021036059 0.010245383 -0.05296935 0.054617554 0.04158495 -0.03897997 -0.020310815 0.018011237 -0.030754646 0.04105299 0.03322881 0.01550951 -0.04302404
스러운 0.14810488 0.06449725 -0.025012111 0.10052539 -0.040278643 0.060297895 -0.007521827 -0.113682896 0.039126065 -0.015786426 -0.101551495 -0.15168855 -0.19944155 -0.040953968 0.028975293 -0.005867001
결국 -0.020751322 -0.029149445 -0.020810267 -0.051304568 -0.009608048 0.088060364 0.025697084 -0.024013953 -0.050102867 -0.034413036 0.023334619 -0.049100026 -0.12639917 0.09819224 -0.050497953 -0.066830635
소리 -0.054985553 -0.00448702 0.033987883 -0.0205363 -0.035063017 0.0024961934 -0.0029993078 -0.004998065 0.00028052935 -0.049130786 0.09342155 -0.089882545 0.06415783 0.07137722 0.010834831 -0.004472554
낫 -0.09165685 -0.011727845 0.035366867 -0.008019214 -0.0062377523 -0.09530082 0.045558747 0.0283749 0.016706359 0.04714255 0.121634774 0.05569319 0.13724986 -0.013456199 -0.07951791 0.0386834
뭘 -0.10374918 -0.10699138 0.18418907 -0.24634789 0.0138703585 0.023604784 0.105584756 -0.10176784 -0.10164233 -0.1744851 0.1759863 0.08031499 0.077241965 0.11864915 -0.17221704 -0.16152576
뭔 -0.21579726 -0.0783493 0.12074373 -0.070258886 0.08917036 0.1409924 0.12137694 -0.12049264 -0.06811767 -0.13937189 0.09123191 -0.124523215 0.10425775 0.17747875 -0.08854995 -0.10796967
한데 -0.1640646 -0.05556804 0.10050023 -0.0067355237 0.09411227 -0.036729865 0.08520602 0.12040902 -0.052396208 -0.041404683 0.0052311355 0.14191096 0.16848202 -0.00055636757 0.010030195 0.015292732
역사 -0.054430928 0.09625399 -0.025112625 0.030035274 -0.078707844 -0.13985012 -0.092141196 0.1075554 0.097355485 -0.02893343 0.020242557 0.12004282 0.032509364 -0.04564168 -0.005875293 0.033006582
제발 -0.14004861 -0.08269113 0.11278591 -0.06404361 0.011626863 0.00324305 0.030327542 0.042085607 -0.07801898 -0.11611115 0.08815912 0.042523142 0.06326589 0.0247788 -0.13292561 -0.03453372
포스터 -0.10762436 0.015564393 0.08893802 -0.27281612 -0.24622796 -0.08376097 0.055578474 0.09106799 -0.015979167 -0.09622243 0.24523972 0.16339694 0.14494075 0.08270538 -0.17545182 -0.07792976
아무리 0.09888571 -0.08784064 0.10064499 -0.081747256 0.047725663 0.13833652 0.10986725 -0.12574452 -0.15470526 -0.069055654 0.02965907 0.019891756 -0.16459759 0.00367305 -0.1340979 -0.11636967
코믹 0.10021917 -0.012201493 -0.08216461 0.05909112 -0.05074 -0.03557838 -0.088512756 -0.00863167 -0.005328213 0.047511045 -0.04576206 -0.10959146 -0.079964235 0.053712174 0.018515667 0.015413053
어떤 -0.024585752 0.07641879 0.03084752 -0.09009108 -0.22239465 -0.090404235 -0.07924591 0.11795231 0.080597475 -0.10245978 0.1686123 -0.07006547 0.09106625 0.085258335 0.010375618 0.04502263
얼마나 0.0017624076 0.022609025 0.03493809 -0.050936945 -0.039907422 -0.005413204 -0.04837142 0.032292526 -0.013581645 0.013052316 -0.027141515 0.10698537 -0.13863552 -0.09803849 -0.0003613404 0.009528694
완벽 0.21689552 0.2571841 -0.2782995 0.22694187 -0.298143 -0.2844127 -0.2946496 0.30650866 0.27453947 0.27087256 -0.27369133 0.14812861 -0.15843795 -0.26281026 0.25880548 0.3114408
맘 0.16388476 -0.03309564 -0.118309036 0.049760945 -0.10017095 -0.047610555 -0.04252257 0.009004805 -0.021610668 0.056290917 -0.123611405 0.1411678 -0.39671418 -0.06551105 0.119111404 0.03025033
애니메이션 0.14020425 0.091789864 -0.06600483 -0.076273985 -0.14809245 -0.009338156 -0.004066596 0.01608963 0.069352835 0.0807496 -0.072226204 0.14081524 -0.21106142 -0.12737055 0.04048053 0.017694248
러 -0.013797089 0.04412571 0.07028986 -0.10627524 -0.057285104 -0.055690426 0.054162692 -0.05319084 -0.05610768 -0.09273566 0.17958733 -0.039471924 0.03719362 0.093037054 -0.07135092 -0.024655959
주연 0.035887018 -0.050572954 0.061083745 -0.037576962 0.026970653 -0.008705266 0.060657613 -0.038134445 -0.041390833 -0.03187317 -0.013816709 -0.04749906 -0.10865973 0.093957886 0.0006511022 -0.013983389
보고 0.11044548 0.054880578 -0.05337042 -0.042523574 -0.08907306 0.023655217 -0.029674266 -0.021045402 -0.04498483 0.061225127 0.02001855 0.12864783 -0.10575395 -0.11314699 -0.00049152813 -0.028532023
후회 -0.16284679 0.118130445 -0.054000553 -0.063298725 -0.181954 0.03376109 -0.05222845 0.03344956 0.074490234 -0.19103633 0.23988117 -0.20726994 0.28974175 0.14830156 -0.025635777 -0.04459752
버리 -0.06965133 0.06642366 0.046343938 -0.135935 -0.13248026 -0.07974891 -0.0023342338 -0.0090390835 -0.014229824 -0.11462016 0.18618426 -0.014509152 0.118847884 0.04395189 -0.100813456 -0.07837358
뻔한 -0.13665454 -0.13115072 0.14533304 -0.094664544 0.10428493 0.2232314 0.17662312 -0.21699144 -0.17021036 -0.15407886 0.15008652 -0.17322527 0.080916874 0.14536768 -0.1642195 -0.14329687
나요 0.06367093 0.035157677 -0.11339277 -0.03637859 -0.07138453 -0.011066432 -0.04523495 -0.04623799 0.013678781 0.0072142906 -0.059088908 -0.029377487 -0.11954977 -0.0054928088 -0.009465574 -0.00067529676
어릴 0.10712297 0.15396385 -0.086984254 0.08827582 -0.09107471 -0.16286443 -0.12826465 0.12794688 0.12498402 0.065540485 -0.038948547 -0.11018746 -0.08665565 -0.0334605 0.081612356 0.11226599
진부 -0.20598438 -0.113007255 0.11641399 -0.1461832 0.010156427 0.37692487 0.06491573 -0.23474404 -0.16592677 -0.24223067 0.12171585 -0.5198032 0.086899266 0.2889128 -0.0931596 -0.1396865
나올 0.06081554 0.038388584 -0.07158984 -0.03086884 -0.22927655 0.013266491 -0.03346827 -0.088554926 0.01268242 -0.007864951 0.025922025 0.0151242595 -0.14977801 0.043539118 -0.028876886 -0.08181599
장난 0.10492261 0.020309009 -0.05245317 -0.09112976 -0.082749434 0.15659398 -0.02654564 -0.1311013 0.0048791817 -0.006232999 0.049798198 -0.22369426 0.013248718 0.04768061 0.03055636 -0.11508162
출연 0.004899505 -0.069735005 0.061365202 0.055145383 -0.019922271 0.1900982 0.024351845 -0.051852442 -0.093643144 -0.061548077 -0.019979225 -0.12144721 -0.101187885 0.036740553 -0.005361678 -0.008374846
보단 -0.23359032 -0.0070631714 0.12676868 -0.038444407 0.032533232 0.033985678 0.04219075 0.1396535 -0.017747724 -0.12967707 0.15512438 -0.027512861 0.25679123 0.041859314 -0.11336587 -0.016173406
큰 0.053189594 0.028149392 -0.06102861 0.105861686 -0.014362516 0.05445009 -0.035759248 0.104210235 0.053668804 0.07509673 -0.06393745 0.011112934 -0.03615978 -0.065108515 0.02905225 0.057523653
책 -0.13181463 -0.0063465177 0.05416583 -0.1126707 -0.1024043 -0.1576269 0.06243069 0.12137091 -0.05290651 -0.095189385 0.12399584 0.19808939 0.17414626 0.05235767 -0.112888835 -0.042394396
됐 0.10982193 0.10876288 -0.12125428 -0.07129616 -0.17080644 0.039689843 -0.10781375 0.026925402 0.08116305 -0.03021677 0.06235788 -0.026989335 -0.12016008 0.02772584 -0.0041415454 0.01824129
영화관 -0.023384059 -0.005386212 0.06749865 -0.08621859 -0.041746873 0.038354117 0.06750529 -0.00023266242 0.0014445833 -0.060981855 0.06635273 0.026606364 -0.033433594 0.037529483 -0.07599696 -0.01982091
밖 0.16617256 0.11357985 -0.093992114 0.023872178 -0.22237428 -0.06463088 -0.126355 0.075333096 0.094023265 0.09710632 -0.0073213773 -0.011596035 -0.08044932 -0.0036776762 0.12110298 -0.011166666
더니 -0.11768776 -0.044954646 0.11135063 0.010815799 0.17200263 0.02193396 0.0945888 -0.10829775 -0.0077896016 -0.027005078 0.056525066 -0.04006044 0.1471376 0.028424213 -0.015578639 -0.047401074
개연 -0.12437558 -0.15930583 0.14450145 -0.21810926 0.050832126 0.19108513 0.19068411 -0.24648057 -0.17162438 -0.18349801 0.05498516 -0.16242382 -0.1303944 0.18361872 -0.17538115 -0.19326101
둘 -0.03718858 0.08816723 -0.035473343 0.053181518 0.09506829 -0.14622234 -0.022382205 0.18255432 0.084380746 0.04139982 0.001262451 0.07044277 0.11907628 -0.1672114 -0.011445602 0.115760215
ㅅ -0.045376446 -0.05745035 -0.0074524577 -0.00697235 -0.00068840565 0.0026176048 0.044486213 0.06247297 0.030732581 0.0042657354 0.07279199 0.009496349 0.09526253 0.038935672 -0.042173095 -0.04003015
충격 -0.07368727 0.13831966 -0.024239864 0.030530155 -0.029638378 -0.03461718 -0.06316709 0.06725011 0.14958692 -0.06512438 0.087332875 -0.055379678 0.24153948 0.036917433 0.10556036 0.03650262
여기 -0.084056035 0.066045195 -0.038886614 -0.016957153 -0.030046212 0.0634237 -0.0757877 0.03447118 0.025054036 -0.009910778 -0.019862935 -0.006630596 0.09120551 0.022928912 0.055975277 0.031664204
극 0.024574893 -0.06468197 -0.046401404 0.121645965 0.232497 0.091959625 -0.01655581 -0.009653751 -0.012758426 0.075625114 -0.1811911 -0.08745006 -0.0511208 -0.08322539 0.13888277 0.074120045
난다 0.01732452 -0.05143129 0.040058374 -0.06264944 0.0053897146 0.088504836 0.051022284 -0.08372684 -0.078693226 -0.0019133857 0.00963111 -0.004028788 -0.053983 0.022631845 -0.072880894 -0.05507499
평가 0.01079055 0.20060071 -0.0968155 -0.029915728 -0.2161032 -0.19430128 -0.123947605 0.18738778 0.12461189 0.049493592 0.08930623 0.10823164 0.10182035 -0.08079191 0.009669144 0.017168958
잔인 -0.13135663 -0.012042808 0.051464286 -0.015054001 -0.0072389077 -0.013492738 0.009506192 0.06388686 -0.02829165 -0.041527275 0.13325624 0.014466993 0.16107236 0.094716564 -0.026027592 0.041848928
아름답 0.11156134 0.06440559 -0.094437055 0.19588146 -0.036607113 -0.057988785 -0.08246381 0.1812782 0.097401716 0.11609819 -0.15643848 0.20011881 -0.06903168 -0.1529053 0.11980777 0.10290186
줬 0.05309637 -0.014057181 -0.03551552 0.110362805 0.018516645 0.021353718 -0.067221545 -0.018704854 0.041376997 0.012602265 -0.06727827 -0.13388458 0.025465397 0.039596498 0.016531434 -0.0023910191
